<?xml version="1.0"?>
<!--
 
 A frontal cat face detector using the full set of Haar features, i.e.
 horizontal, vertical, and diagonal features.

 Contributed by Joseph Howse (josephhowse@nummist.com).
 Minified by Satya Mallick ( http://www.learnopencv.com )

 More information can be found in the following publications and
 presentations:

 Joseph Howse. OpenCV for Secret Agents (book). Packt Publishing, January
   2015.
 Joseph Howse. "Training Detectors and Recognizers in Python and OpenCV"
   (tutorial). ISMAR 2014. September 9, 2014.
   http://nummist.com/opencv/Howse_ISMAR_20140909.pdf
 Joseph Howse. "Training Intelligent Camera Systems with Python and OpenCV"
   (webcast). O’Reilly Media. June 17, 2014.
   http://www.oreilly.com/pub/e/3077

 Build scripts and demo applications can be found in the following repository:
 https://bitbucket.org/Joe_Howse/angora-blue

 KNOWN LIMITATIONS:

 Sometimes, the detector mistakenly thinks that a human face is a cat face. In
 situations where either a human or a cat might be encountered, use both a
 human face detector and a cat face detector. Then, if a detected human face
 and a detected cat face intersect, reject the cat face.

 An upright subject is assumed. In situations where the cat's face might be
 sideways or upside down (e.g. the cat is rolling over), try various rotations
 of the input image.

 //////////////////////////////////////////////////////////////////////////
 | Contributors License Agreement
 | IMPORTANT: READ BEFORE DOWNLOADING, COPYING, INSTALLING OR USING.
 |   By downloading, copying, installing or using the software you agree
 |   to this license.
 |   If you do not agree to this license, do not download, install,
 |   copy or use the software.
 |
 | Copyright (c) 2014, Joseph Howse (Nummist Media Corporation Limited,
 | Halifax, Nova Scotia, Canada). All rights reserved.
 |
 | Redistribution and use in source and binary forms, with or without
 | modification, are permitted provided that the following conditions are
 | met:
 |
 |    * Redistributions of source code must retain the above copyright
 |       notice, this list of conditions and the following disclaimer.
 |    * Redistributions in binary form must reproduce the above
 |      copyright notice, this list of conditions and the following
 |      disclaimer in the documentation and/or other materials provided
 |      with the distribution.
 |    * The name of Contributor may not used to endorse or promote products
 |      derived from this software without specific prior written permission.
 |
 | THIS SOFTWARE IS PROVIDED BY THE COPYRIGHT HOLDERS AND CONTRIBUTORS
 | "AS IS" AND ANY EXPRESS OR IMPLIED WARRANTIES, INCLUDING, BUT NOT
 | LIMITED TO, THE IMPLIED WARRANTIES OF MERCHANTABILITY AND FITNESS FOR
 | A PARTICULAR PURPOSE ARE DISCLAIMED. IN NO EVENT SHALL THE
 | CONTRIBUTORS BE LIABLE FOR ANY DIRECT, INDIRECT, INCIDENTAL, SPECIAL,
 | EXEMPLARY, OR CONSEQUENTIAL DAMAGES (INCLUDING, BUT NOT LIMITED TO,
 | PROCUREMENT OF SUBSTITUTE GOODS OR SERVICES; LOSS OF USE, DATA, OR
 | PROFITS; OR BUSINESS INTERRUPTION) HOWEVER CAUSED AND ON ANY THEORY OF
 | LIABILITY, WHETHER IN CONTRACT, STRICT LIABILITY, OR TORT (INCLUDING
 | NEGLIGENCE OR OTHERWISE) ARISING IN ANY WAY OUT OF THE USE OF THIS
 | SOFTWARE, EVEN IF ADVISED OF THE POSSIBILITY OF SUCH DAMAGE.  Back to
 | Top
 //////////////////////////////////////////////////////////////////////////
-->
<opencv_storage><cascade><stageType>BOOST</stageType><featureType>HAAR</featureType><height>24</height><width>24</width><stageParams><boostType>GAB</boostType><minHitRate>9.9900E-01</minHitRate><maxFalseAlarm>5.0000E-01</maxFalseAlarm><weightTrimRate>9.5000E-01</weightTrimRate><maxDepth>1</maxDepth><maxWeakCount>100</maxWeakCount></stageParams><featureParams><maxCatCount>0</maxCatCount><featSize>1</featSize><mode>ALL</mode></featureParams><stageNum>15</stageNum><stages><_><maxWeakCount>28</maxWeakCount><stageThreshold>-2.0973E+00</stageThreshold><weakClassifiers><_><internalNodes>0 -1 388 -1.4773E-02</internalNodes><leafValues>8.4035E-01 -1.2702E-01</leafValues></_><_><internalNodes>0 -1 736 4.5832E-03</internalNodes><leafValues>-2.3792E-01 6.1979E-01</leafValues></_><_><internalNodes>0 -1 754 -1.5045E-02</internalNodes><leafValues>5.7161E-01 -2.0493E-01</leafValues></_><_><internalNodes>0 -1 437 -1.5647E-02</internalNodes><leafValues>7.6284E-01 -1.6358E-01</leafValues></_><_><internalNodes>0 -1 432 3.0782E-02</internalNodes><leafValues>-1.8159E-01 7.5051E-01</leafValues></_><_><internalNodes>0 -1 238 1.8483E-02</internalNodes><leafValues>-2.0088E-01 5.2844E-01</leafValues></_><_><internalNodes>0 -1 680 1.3191E-02</internalNodes><leafValues>-1.5245E-01 5.8166E-01</leafValues></_><_><internalNodes>0 -1 531 5.3334E-02</internalNodes><leafValues>-1.6860E-01 7.1359E-01</leafValues></_><_><internalNodes>0 -1 782 8.3917E-04</internalNodes><leafValues>-2.1746E-01 4.2143E-01</leafValues></_><_><internalNodes>0 -1 333 1.7698E-02</internalNodes><leafValues>-1.3515E-01 6.1386E-01</leafValues></_><_><internalNodes>0 -1 290 -2.8311E-02</internalNodes><leafValues>5.3606E-01 -1.5554E-01</leafValues></_><_><internalNodes>0 -1 147 4.1035E-04</internalNodes><leafValues>-2.8903E-01 3.1018E-01</leafValues></_><_><internalNodes>0 -1 537 3.9832E-02</internalNodes><leafValues>-1.8419E-01 4.3501E-01</leafValues></_><_><internalNodes>0 -1 558 -5.2750E-03</internalNodes><leafValues>-8.7773E-01 1.1704E-01</leafValues></_><_><internalNodes>0 -1 811 -3.6778E-02</internalNodes><leafValues>4.1286E-01 -2.1606E-01</leafValues></_><_><internalNodes>0 -1 324 9.4376E-02</internalNodes><leafValues>-1.0109E-01 6.0880E-01</leafValues></_><_><internalNodes>0 -1 564 -1.6133E-02</internalNodes><leafValues>5.1246E-01 -1.5504E-01</leafValues></_><_><internalNodes>0 -1 507 -6.9251E-03</internalNodes><leafValues>4.2284E-01 -1.5950E-01</leafValues></_><_><internalNodes>0 -1 882 -8.4776E-03</internalNodes><leafValues>4.0007E-01 -1.6090E-01</leafValues></_><_><internalNodes>0 -1 110 -9.0453E-03</internalNodes><leafValues>-7.6786E-01 9.3980E-02</leafValues></_><_><internalNodes>0 -1 246 3.0019E-02</internalNodes><leafValues>-1.3505E-01 4.7249E-01</leafValues></_><_><internalNodes>0 -1 804 3.6143E-03</internalNodes><leafValues>8.1218E-02 -7.7168E-01</leafValues></_><_><internalNodes>0 -1 806 -4.7643E-03</internalNodes><leafValues>-7.8210E-01 6.2778E-02</leafValues></_><_><internalNodes>0 -1 816 3.0352E-02</internalNodes><leafValues>-1.1296E-01 5.8056E-01</leafValues></_><_><internalNodes>0 -1 146 -5.9289E-02</internalNodes><leafValues>5.5030E-01 -1.1994E-01</leafValues></_><_><internalNodes>0 -1 11 2.2239E-02</internalNodes><leafValues>-1.4121E-01 4.5771E-01</leafValues></_><_><internalNodes>0 -1 294 -4.1477E-02</internalNodes><leafValues>5.7035E-01 -1.0165E-01</leafValues></_><_><internalNodes>0 -1 710 -1.1866E-03</internalNodes><leafValues>3.4065E-01 -1.6187E-01</leafValues></_></weakClassifiers></_><_><maxWeakCount>30</maxWeakCount><stageThreshold>-1.5367E+00</stageThreshold><weakClassifiers><_><internalNodes>0 -1 654 8.4006E-03</internalNodes><leafValues>-1.0249E-01 7.6660E-01</leafValues></_><_><internalNodes>0 -1 443 -1.0704E-02</internalNodes><leafValues>6.9929E-01 -1.6516E-01</leafValues></_><_><internalNodes>0 -1 1 6.3192E-03</internalNodes><leafValues>-2.2416E-01 4.3904E-01</leafValues></_><_><internalNodes>0 -1 651 2.0643E-02</internalNodes><leafValues>-1.8033E-01 5.8924E-01</leafValues></_><_><internalNodes>0 -1 378 4.0112E-03</internalNodes><leafValues>-2.4118E-01 5.4826E-01</leafValues></_><_><internalNodes>0 -1 173 2.0640E-02</internalNodes><leafValues>-2.4205E-01 4.0821E-01</leafValues></_><_><internalNodes>0 -1 116 -9.2924E-03</internalNodes><leafValues>3.6316E-01 -2.0154E-01</leafValues></_><_><internalNodes>0 -1 851 3.5130E-02</internalNodes><leafValues>-1.3476E-01 6.5953E-01</leafValues></_><_><internalNodes>0 -1 333 2.0279E-02</internalNodes><leafValues>-1.0143E-01 5.9143E-01</leafValues></_><_><internalNodes>0 -1 737 6.4986E-04</internalNodes><leafValues>-1.9717E-01 3.4135E-01</leafValues></_><_><internalNodes>0 -1 287 -6.6223E-03</internalNodes><leafValues>-6.9886E-01 9.7096E-02</leafValues></_><_><internalNodes>0 -1 82 7.4231E-03</internalNodes><leafValues>9.8552E-02 -6.5359E-01</leafValues></_><_><internalNodes>0 -1 692 -3.0081E-02</internalNodes><leafValues>4.5353E-01 -1.4969E-01</leafValues></_><_><internalNodes>0 -1 62 -6.0634E-02</internalNodes><leafValues>6.5072E-01 -9.9382E-02</leafValues></_><_><internalNodes>0 -1 814 -5.1942E-03</internalNodes><leafValues>3.9397E-01 -1.6143E-01</leafValues></_><_><internalNodes>0 -1 261 6.0986E-03</internalNodes><leafValues>8.6412E-02 -7.3879E-01</leafValues></_><_><internalNodes>0 -1 108 -8.2403E-03</internalNodes><leafValues>-7.4237E-01 6.7854E-02</leafValues></_><_><internalNodes>0 -1 908 -3.0396E-02</internalNodes><leafValues>4.9337E-01 -1.3201E-01</leafValues></_><_><internalNodes>0 -1 188 5.1567E-02</internalNodes><leafValues>-1.3632E-01 4.2621E-01</leafValues></_><_><internalNodes>0 -1 150 -9.3599E-04</internalNodes><leafValues>3.2464E-01 -2.0737E-01</leafValues></_><_><internalNodes>0 -1 905 7.0395E-03</internalNodes><leafValues>8.9326E-02 -6.1088E-01</leafValues></_><_><internalNodes>0 -1 396 -6.5202E-03</internalNodes><leafValues>3.7556E-01 -1.5274E-01</leafValues></_><_><internalNodes>0 -1 103 3.9127E-03</internalNodes><leafValues>8.3254E-02 -7.3407E-01</leafValues></_><_><internalNodes>0 -1 39 9.5308E-03</internalNodes><leafValues>-1.7046E-01 3.2230E-01</leafValues></_><_><internalNodes>0 -1 796 1.5844E-02</internalNodes><leafValues>-1.4033E-01 3.9502E-01</leafValues></_><_><internalNodes>0 -1 555 5.9642E-03</internalNodes><leafValues>6.4340E-02 -8.5146E-01</leafValues></_><_><internalNodes>0 -1 601 -4.8107E-03</internalNodes><leafValues>-6.9041E-01 6.5658E-02</leafValues></_><_><internalNodes>0 -1 731 -9.3305E-04</internalNodes><leafValues>4.1242E-01 -1.4880E-01</leafValues></_><_><internalNodes>0 -1 779 4.1273E-03</internalNodes><leafValues>-1.2624E-01 4.6513E-01</leafValues></_><_><internalNodes>0 -1 184 2.2930E-03</internalNodes><leafValues>1.0916E-01 -5.1519E-01</leafValues></_></weakClassifiers></_><_><maxWeakCount>44</maxWeakCount><stageThreshold>-1.6336E+00</stageThreshold><weakClassifiers><_><internalNodes>0 -1 334 2.5118E-02</internalNodes><leafValues>3.5861E-02 8.1682E-01</leafValues></_><_><internalNodes>0 -1 459 -6.6137E-03</internalNodes><leafValues>4.6178E-01 -2.3010E-01</leafValues></_><_><internalNodes>0 -1 394 -3.1424E-03</internalNodes><leafValues>4.0471E-01 -2.0869E-01</leafValues></_><_><internalNodes>0 -1 0 -3.7309E-03</internalNodes><leafValues>3.2831E-01 -2.6703E-01</leafValues></_><_><internalNodes>0 -1 178 7.8483E-02</internalNodes><leafValues>-1.5199E-01 4.6242E-01</leafValues></_><_><internalNodes>0 -1 772 -2.6338E-03</internalNodes><leafValues>3.1739E-01 -2.3945E-01</leafValues></_><_><internalNodes>0 -1 75 9.2347E-02</internalNodes><leafValues>-1.5558E-01 6.0793E-01</leafValues></_><_><internalNodes>0 -1 315 -1.6786E-02</internalNodes><leafValues>5.2825E-01 -1.1139E-01</leafValues></_><_><internalNodes>0 -1 755 -3.8150E-02</internalNodes><leafValues>4.3383E-01 -1.4827E-01</leafValues></_><_><internalNodes>0 -1 318 4.3136E-03</internalNodes><leafValues>1.1878E-01 -5.8886E-01</leafValues></_><_><internalNodes>0 -1 412 7.1479E-02</internalNodes><leafValues>-1.0973E-01 5.7184E-01</leafValues></_><_><internalNodes>0 -1 104 7.3613E-03</internalNodes><leafValues>9.7730E-02 -6.5627E-01</leafValues></_><_><internalNodes>0 -1 414 5.1307E-02</internalNodes><leafValues>-1.6080E-01 4.0452E-01</leafValues></_><_><internalNodes>0 -1 367 -4.7304E-03</internalNodes><leafValues>-6.5827E-01 8.7291E-02</leafValues></_><_><internalNodes>0 -1 712 -1.8284E-03</internalNodes><leafValues>3.7762E-01 -1.4564E-01</leafValues></_><_><internalNodes>0 -1 131 5.1738E-03</internalNodes><leafValues>8.7748E-02 -6.2685E-01</leafValues></_><_><internalNodes>0 -1 647 -3.2173E-03</internalNodes><leafValues>-7.3642E-01 5.7916E-02</leafValues></_><_><internalNodes>0 -1 819 -5.4385E-03</internalNodes><leafValues>4.2479E-01 -1.2763E-01</leafValues></_><_><internalNodes>0 -1 159 2.6622E-03</internalNodes><leafValues>-2.1836E-01 3.1271E-01</leafValues></_><_><internalNodes>0 -1 125 1.2338E-02</internalNodes><leafValues>7.9128E-02 -8.1892E-01</leafValues></_><_><internalNodes>0 -1 639 -1.0977E-02</internalNodes><leafValues>2.9888E-01 -1.8205E-01</leafValues></_><_><internalNodes>0 -1 646 1.4159E-03</internalNodes><leafValues>8.9181E-02 -5.9163E-01</leafValues></_><_><internalNodes>0 -1 141 -2.0067E-02</internalNodes><leafValues>2.6213E-01 -1.7981E-01</leafValues></_><_><internalNodes>0 -1 95 3.1120E-03</internalNodes><leafValues>8.4207E-02 -5.7089E-01</leafValues></_><_><internalNodes>0 -1 121 -9.9352E-03</internalNodes><leafValues>-7.2244E-01 5.1867E-02</leafValues></_><_><internalNodes>0 -1 198 1.3315E-03</internalNodes><leafValues>-1.7091E-01 2.5805E-01</leafValues></_><_><internalNodes>0 -1 211 3.5102E-02</internalNodes><leafValues>-1.1151E-01 4.2247E-01</leafValues></_><_><internalNodes>0 -1 780 2.4332E-02</internalNodes><leafValues>-1.2761E-01 3.5614E-01</leafValues></_><_><internalNodes>0 -1 913 3.4917E-03</internalNodes><leafValues>7.4708E-02 -6.2107E-01</leafValues></_><_><internalNodes>0 -1 554 3.1960E-02</internalNodes><leafValues>-8.5124E-02 5.5780E-01</leafValues></_><_><internalNodes>0 -1 210 2.5646E-02</internalNodes><leafValues>9.6616E-02 -4.8779E-01</leafValues></_><_><internalNodes>0 -1 65 4.8585E-03</internalNodes><leafValues>5.4295E-02 -6.2732E-01</leafValues></_><_><internalNodes>0 -1 525 -4.3544E-03</internalNodes><leafValues>-5.7990E-01 5.8336E-02</leafValues></_><_><internalNodes>0 -1 818 1.5393E-03</internalNodes><leafValues>-1.0273E-01 4.0287E-01</leafValues></_><_><internalNodes>0 -1 625 -3.5908E-03</internalNodes><leafValues>-5.7973E-01 7.4733E-02</leafValues></_><_><internalNodes>0 -1 742 -2.6265E-02</internalNodes><leafValues>3.9446E-01 -1.1582E-01</leafValues></_><_><internalNodes>0 -1 458 1.6059E-02</internalNodes><leafValues>-1.0168E-01 3.6267E-01</leafValues></_><_><internalNodes>0 -1 233 -4.1905E-02</internalNodes><leafValues>4.7365E-01 -8.8033E-02</leafValues></_><_><internalNodes>0 -1 42 2.0881E-02</internalNodes><leafValues>-1.2107E-01 3.8553E-01</leafValues></_><_><internalNodes>0 -1 959 3.2229E-03</internalNodes><leafValues>6.9974E-02 -6.0391E-01</leafValues></_><_><internalNodes>0 -1 830 7.0136E-03</internalNodes><leafValues>-1.0978E-01 3.7436E-01</leafValues></_><_><internalNodes>0 -1 798 -6.5330E-03</internalNodes><leafValues>-6.9873E-01 5.8302E-02</leafValues></_><_><internalNodes>0 -1 766 -6.3728E-03</internalNodes><leafValues>2.4120E-01 -1.5554E-01</leafValues></_><_><internalNodes>0 -1 598 -3.9798E-03</internalNodes><leafValues>3.2676E-01 -1.1991E-01</leafValues></_></weakClassifiers></_><_><maxWeakCount>48</maxWeakCount><stageThreshold>-1.6315E+00</stageThreshold><weakClassifiers><_><internalNodes>0 -1 398 -1.6998E-02</internalNodes><leafValues>7.5603E-01 1.9443E-03</leafValues></_><_><internalNodes>0 -1 858 -1.5087E-02</internalNodes><leafValues>6.3829E-01 -1.4419E-01</leafValues></_><_><internalNodes>0 -1 734 7.5988E-03</internalNodes><leafValues>-1.6575E-01 4.6999E-01</leafValues></_><_><internalNodes>0 -1 440 -7.5363E-03</internalNodes><leafValues>4.4424E-01 -1.8299E-01</leafValues></_><_><internalNodes>0 -1 441 1.0129E-02</internalNodes><leafValues>-2.0301E-01 5.5256E-01</leafValues></_><_><internalNodes>0 -1 732 3.0099E-02</internalNodes><leafValues>-9.0160E-02 5.2430E-01</leafValues></_><_><internalNodes>0 -1 880 1.0154E-02</internalNodes><leafValues>-2.1865E-01 3.7319E-01</leafValues></_><_><internalNodes>0 -1 753 -5.7212E-03</internalNodes><leafValues>2.9542E-01 -2.3728E-01</leafValues></_><_><internalNodes>0 -1 609 -2.3081E-03</internalNodes><leafValues>-6.5868E-01 8.6645E-02</leafValues></_><_><internalNodes>0 -1 892 3.4120E-03</internalNodes><leafValues>7.3794E-02 -6.1988E-01</leafValues></_><_><internalNodes>0 -1 423 1.1281E-03</internalNodes><leafValues>-1.7844E-01 2.9092E-01</leafValues></_><_><internalNodes>0 -1 252 3.4356E-02</internalNodes><leafValues>-1.4516E-01 3.3726E-01</leafValues></_><_><internalNodes>0 -1 583 4.2803E-02</internalNodes><leafValues>-1.0720E-01 4.7673E-01</leafValues></_><_><internalNodes>0 -1 395 -2.2777E-03</internalNodes><leafValues>3.6088E-01 -1.2924E-01</leafValues></_><_><internalNodes>0 -1 390 6.0573E-03</internalNodes><leafValues>6.6140E-02 -7.4114E-01</leafValues></_><_><internalNodes>0 -1 271 -1.0844E-02</internalNodes><leafValues>4.1087E-01 -1.3518E-01</leafValues></_><_><internalNodes>0 -1 265 2.5436E-02</internalNodes><leafValues>-1.2998E-01 3.8706E-01</leafValues></_><_><internalNodes>0 -1 649 1.6918E-03</internalNodes><leafValues>9.5909E-02 -6.5462E-01</leafValues></_><_><internalNodes>0 -1 690 2.5079E-03</internalNodes><leafValues>5.6728E-02 -6.1011E-01</leafValues></_><_><internalNodes>0 -1 77 -1.0462E-02</internalNodes><leafValues>3.6109E-01 -1.2215E-01</leafValues></_><_><internalNodes>0 -1 157 -1.6778E-02</internalNodes><leafValues>-5.3534E-01 8.2929E-02</leafValues></_><_><internalNodes>0 -1 831 -1.5040E-02</internalNodes><leafValues>2.8428E-01 -1.4686E-01</leafValues></_><_><internalNodes>0 -1 907 -6.6618E-03</internalNodes><leafValues>-5.6625E-01 7.8971E-02</leafValues></_><_><internalNodes>0 -1 695 8.1638E-03</internalNodes><leafValues>-1.6380E-01 2.6823E-01</leafValues></_><_><internalNodes>0 -1 52 1.9468E-02</internalNodes><leafValues>-1.2092E-01 3.3373E-01</leafValues></_><_><internalNodes>0 -1 164 -6.4643E-03</internalNodes><leafValues>-6.3223E-01 6.6180E-02</leafValues></_><_><internalNodes>0 -1 284 3.5925E-02</internalNodes><leafValues>-1.0187E-01 4.2579E-01</leafValues></_><_><internalNodes>0 -1 354 1.6906E-02</internalNodes><leafValues>-1.3218E-01 3.3241E-01</leafValues></_><_><internalNodes>0 -1 515 5.7177E-03</internalNodes><leafValues>6.6569E-02 -6.5681E-01</leafValues></_><_><internalNodes>0 -1 276 -1.0901E-03</internalNodes><leafValues>3.9690E-01 -1.1235E-01</leafValues></_><_><internalNodes>0 -1 760 -2.3834E-02</internalNodes><leafValues>3.8571E-01 -1.0193E-01</leafValues></_><_><internalNodes>0 -1 344 -1.4803E-02</internalNodes><leafValues>3.4206E-01 -1.4263E-01</leafValues></_><_><internalNodes>0 -1 448 3.9707E-02</internalNodes><leafValues>-9.5636E-02 4.4075E-01</leafValues></_><_><internalNodes>0 -1 547 6.4532E-03</internalNodes><leafValues>5.7593E-02 -7.0276E-01</leafValues></_><_><internalNodes>0 -1 922 -4.7811E-03</internalNodes><leafValues>2.7453E-01 -1.3652E-01</leafValues></_><_><internalNodes>0 -1 896 3.3349E-03</internalNodes><leafValues>5.8540E-02 -7.1738E-01</leafValues></_><_><internalNodes>0 -1 127 -1.0833E-02</internalNodes><leafValues>-6.2031E-01 4.7056E-02</leafValues></_><_><internalNodes>0 -1 696 -3.5385E-03</internalNodes><leafValues>2.7126E-01 -1.3403E-01</leafValues></_><_><internalNodes>0 -1 785 -2.1409E-02</internalNodes><leafValues>3.6707E-01 -1.0640E-01</leafValues></_><_><internalNodes>0 -1 617 6.6339E-02</internalNodes><leafValues>-1.0505E-01 3.3937E-01</leafValues></_><_><internalNodes>0 -1 581 2.2767E-03</internalNodes><leafValues>7.2599E-02 -5.3971E-01</leafValues></_><_><internalNodes>0 -1 626 1.6876E-03</internalNodes><leafValues>8.7736E-02 -4.0284E-01</leafValues></_><_><internalNodes>0 -1 623 8.4531E-03</internalNodes><leafValues>-9.3997E-02 4.1699E-01</leafValues></_><_><internalNodes>0 -1 429 5.5650E-03</internalNodes><leafValues>-8.7597E-02 3.8828E-01</leafValues></_><_><internalNodes>0 -1 429 -3.5470E-03</internalNodes><leafValues>3.3586E-01 -1.3659E-01</leafValues></_><_><internalNodes>0 -1 954 4.2132E-03</internalNodes><leafValues>7.2931E-02 -5.1745E-01</leafValues></_><_><internalNodes>0 -1 527 3.4533E-04</internalNodes><leafValues>-1.7970E-01 2.1011E-01</leafValues></_><_><internalNodes>0 -1 828 -4.0377E-03</internalNodes><leafValues>2.7334E-01 -1.3641E-01</leafValues></_></weakClassifiers></_><_><maxWeakCount>57</maxWeakCount><stageThreshold>-1.5860E+00</stageThreshold><weakClassifiers><_><internalNodes>0 -1 376 -1.5984E-02</internalNodes><leafValues>7.4086E-01 5.4203E-02</leafValues></_><_><internalNodes>0 -1 654 1.4519E-02</internalNodes><leafValues>-1.6583E-01 5.1249E-01</leafValues></_><_><internalNodes>0 -1 820 -1.0167E-02</internalNodes><leafValues>4.5001E-01 -1.3065E-01</leafValues></_><_><internalNodes>0 -1 493 2.7080E-02</internalNodes><leafValues>-1.6736E-01 6.3849E-01</leafValues></_><_><internalNodes>0 -1 774 1.9515E-03</internalNodes><leafValues>-1.1799E-01 3.9749E-01</leafValues></_><_><internalNodes>0 -1 332 1.3693E-02</internalNodes><leafValues>-8.5313E-02 5.4719E-01</leafValues></_><_><internalNodes>0 -1 254 6.0192E-03</internalNodes><leafValues>5.7218E-02 -6.6590E-01</leafValues></_><_><internalNodes>0 -1 139 -5.6811E-03</internalNodes><leafValues>-5.7090E-01 8.1808E-02</leafValues></_><_><internalNodes>0 -1 898 4.8241E-04</internalNodes><leafValues>-2.2116E-01 2.1609E-01</leafValues></_><_><internalNodes>0 -1 699 -6.6949E-03</internalNodes><leafValues>-6.5514E-01 7.3252E-02</leafValues></_><_><internalNodes>0 -1 607 -1.4182E-02</internalNodes><leafValues>3.2152E-01 -1.5525E-01</leafValues></_><_><internalNodes>0 -1 172 1.6028E-02</internalNodes><leafValues>-1.3886E-01 3.2297E-01</leafValues></_><_><internalNodes>0 -1 379 3.8102E-02</internalNodes><leafValues>-8.4586E-02 5.0824E-01</leafValues></_><_><internalNodes>0 -1 627 -6.8797E-03</internalNodes><leafValues>2.8459E-01 -1.6627E-01</leafValues></_><_><internalNodes>0 -1 316 -5.7870E-03</internalNodes><leafValues>-6.7562E-01 6.7126E-02</leafValues></_><_><internalNodes>0 -1 84 -1.0403E-02</internalNodes><leafValues>-6.8245E-01 5.5120E-02</leafValues></_><_><internalNodes>0 -1 253 7.2766E-02</internalNodes><leafValues>-1.2290E-01 3.4604E-01</leafValues></_><_><internalNodes>0 -1 145 -5.2833E-02</internalNodes><leafValues>3.6294E-01 -1.1916E-01</leafValues></_><_><internalNodes>0 -1 791 -2.0186E-03</internalNodes><leafValues>3.0245E-01 -1.5617E-01</leafValues></_><_><internalNodes>0 -1 606 -2.8552E-03</internalNodes><leafValues>-6.5383E-01 6.9692E-02</leafValues></_><_><internalNodes>0 -1 167 -3.6076E-03</internalNodes><leafValues>-5.5574E-01 6.0684E-02</leafValues></_><_><internalNodes>0 -1 85 -1.2506E-03</internalNodes><leafValues>2.2487E-01 -1.7714E-01</leafValues></_><_><internalNodes>0 -1 643 1.6213E-02</internalNodes><leafValues>6.7865E-02 -5.5540E-01</leafValues></_><_><internalNodes>0 -1 24 -2.7728E-02</internalNodes><leafValues>-5.8333E-01 5.7264E-02</leafValues></_><_><internalNodes>0 -1 267 -1.2376E-03</internalNodes><leafValues>2.9787E-01 -1.2998E-01</leafValues></_><_><internalNodes>0 -1 622 2.4766E-03</internalNodes><leafValues>8.8139E-02 -4.3226E-01</leafValues></_><_><internalNodes>0 -1 382 1.0034E-03</internalNodes><leafValues>-1.1116E-01 3.2714E-01</leafValues></_><_><internalNodes>0 -1 374 -6.4956E-03</internalNodes><leafValues>-7.0529E-01 6.1915E-02</leafValues></_><_><internalNodes>0 -1 409 -1.2748E-02</internalNodes><leafValues>3.6699E-01 -1.0547E-01</leafValues></_><_><internalNodes>0 -1 494 -5.6289E-03</internalNodes><leafValues>-8.3691E-01 4.8901E-02</leafValues></_><_><internalNodes>0 -1 846 -3.0219E-03</internalNodes><leafValues>2.2211E-01 -1.6297E-01</leafValues></_><_><internalNodes>0 -1 938 2.9230E-03</internalNodes><leafValues>8.0248E-02 -4.7586E-01</leafValues></_><_><internalNodes>0 -1 620 -1.6901E-02</internalNodes><leafValues>3.2135E-01 -1.1947E-01</leafValues></_><_><internalNodes>0 -1 452 -1.6434E-03</internalNodes><leafValues>3.5056E-01 -1.0065E-01</leafValues></_><_><internalNodes>0 -1 104 6.0744E-03</internalNodes><leafValues>7.7158E-02 -5.0687E-01</leafValues></_><_><internalNodes>0 -1 677 -6.2522E-02</internalNodes><leafValues>3.5146E-01 -1.0493E-01</leafValues></_><_><internalNodes>0 -1 738 1.4937E-03</internalNodes><leafValues>-1.1596E-01 3.1784E-01</leafValues></_><_><internalNodes>0 -1 935 -4.6554E-03</internalNodes><leafValues>-5.8499E-01 6.5426E-02</leafValues></_><_><internalNodes>0 -1 718 5.1631E-03</internalNodes><leafValues>4.6380E-02 -6.5921E-01</leafValues></_><_><internalNodes>0 -1 431 5.7700E-03</internalNodes><leafValues>-1.0033E-01 3.4063E-01</leafValues></_><_><internalNodes>0 -1 306 -9.6255E-03</internalNodes><leafValues>2.2360E-01 -1.5363E-01</leafValues></_><_><internalNodes>0 -1 372 -2.8062E-02</internalNodes><leafValues>2.5126E-01 -1.2988E-01</leafValues></_><_><internalNodes>0 -1 807 7.1229E-03</internalNodes><leafValues>5.3426E-02 -6.4893E-01</leafValues></_><_><internalNodes>0 -1 46 1.4473E-02</internalNodes><leafValues>-1.2797E-01 2.5789E-01</leafValues></_><_><internalNodes>0 -1 240 -4.4487E-02</internalNodes><leafValues>4.8268E-01 -7.5289E-02</leafValues></_><_><internalNodes>0 -1 408 3.3553E-03</internalNodes><leafValues>6.5223E-02 -5.3387E-01</leafValues></_><_><internalNodes>0 -1 6 2.6523E-02</internalNodes><leafValues>4.7097E-02 -5.7118E-01</leafValues></_><_><internalNodes>0 -1 407 5.3792E-03</internalNodes><leafValues>4.9663E-02 -5.0958E-01</leafValues></_><_><internalNodes>0 -1 684 -8.8641E-03</internalNodes><leafValues>3.3879E-01 -8.6965E-02</leafValues></_><_><internalNodes>0 -1 78 2.7606E-02</internalNodes><leafValues>4.4679E-02 -6.9979E-01</leafValues></_><_><internalNodes>0 -1 944 -1.1172E-02</internalNodes><leafValues>-7.3840E-01 3.0841E-02</leafValues></_><_><internalNodes>0 -1 731 -1.0616E-03</internalNodes><leafValues>3.0718E-01 -9.7261E-02</leafValues></_><_><internalNodes>0 -1 169 -7.2729E-03</internalNodes><leafValues>-7.1967E-01 4.3097E-02</leafValues></_><_><internalNodes>0 -1 924 -1.1083E-02</internalNodes><leafValues>3.8436E-01 -8.1931E-02</leafValues></_><_><internalNodes>0 -1 674 -7.1663E-03</internalNodes><leafValues>2.0970E-01 -1.5485E-01</leafValues></_><_><internalNodes>0 -1 20 8.2661E-03</internalNodes><leafValues>5.9242E-02 -5.1504E-01</leafValues></_><_><internalNodes>0 -1 748 7.3845E-03</internalNodes><leafValues>3.3728E-02 -7.2390E-01</leafValues></_></weakClassifiers></_><_><maxWeakCount>61</maxWeakCount><stageThreshold>-1.5647E+00</stageThreshold><weakClassifiers><_><internalNodes>0 -1 443 -7.5001E-03</internalNodes><leafValues>6.9736E-01 -7.0126E-03</leafValues></_><_><internalNodes>0 -1 713 -2.5447E-03</internalNodes><leafValues>5.4742E-01 -1.3767E-01</leafValues></_><_><internalNodes>0 -1 278 6.3486E-03</internalNodes><leafValues>-1.5122E-01 6.0270E-01</leafValues></_><_><internalNodes>0 -1 860 2.5572E-03</internalNodes><leafValues>-2.1578E-01 3.9898E-01</leafValues></_><_><internalNodes>0 -1 510 -6.5959E-03</internalNodes><leafValues>3.2996E-01 -2.0267E-01</leafValues></_><_><internalNodes>0 -1 857 1.5824E-02</internalNodes><leafValues>-1.4385E-01 5.4570E-01</leafValues></_><_><internalNodes>0 -1 335 3.4904E-02</internalNodes><leafValues>-1.0440E-01 5.3645E-01</leafValues></_><_><internalNodes>0 -1 2 7.4805E-03</internalNodes><leafValues>-1.7778E-01 3.0248E-01</leafValues></_><_><internalNodes>0 -1 61 -5.1247E-02</internalNodes><leafValues>5.7459E-01 -1.0999E-01</leafValues></_><_><internalNodes>0 -1 629 -5.0417E-02</internalNodes><leafValues>4.6203E-01 -8.9995E-02</leafValues></_><_><internalNodes>0 -1 177 1.2860E-02</internalNodes><leafValues>-1.5581E-01 2.6711E-01</leafValues></_><_><internalNodes>0 -1 645 2.3457E-02</internalNodes><leafValues>5.4399E-02 -7.5605E-01</leafValues></_><_><internalNodes>0 -1 775 -3.4704E-03</internalNodes><leafValues>2.3663E-01 -1.6793E-01</leafValues></_><_><internalNodes>0 -1 256 4.2369E-03</internalNodes><leafValues>6.2614E-02 -6.2294E-01</leafValues></_><_><internalNodes>0 -1 727 -8.7803E-03</internalNodes><leafValues>3.0671E-01 -1.2938E-01</leafValues></_><_><internalNodes>0 -1 38 7.3221E-03</internalNodes><leafValues>8.7675E-02 -4.8196E-01</leafValues></_><_><internalNodes>0 -1 176 5.7110E-03</internalNodes><leafValues>-1.6587E-01 2.4694E-01</leafValues></_><_><internalNodes>0 -1 393 -1.0330E-03</internalNodes><leafValues>2.8574E-01 -1.2924E-01</leafValues></_><_><internalNodes>0 -1 558 -4.1552E-03</internalNodes><leafValues>-6.7752E-01 5.5871E-02</leafValues></_><_><internalNodes>0 -1 770 -8.7040E-03</internalNodes><leafValues>2.6862E-01 -1.4459E-01</leafValues></_><_><internalNodes>0 -1 196 3.9226E-02</internalNodes><leafValues>-1.0391E-01 3.5152E-01</leafValues></_><_><internalNodes>0 -1 115 -4.7440E-03</internalNodes><leafValues>2.5986E-01 -1.4647E-01</leafValues></_><_><internalNodes>0 -1 375 -3.9256E-03</internalNodes><leafValues>-5.1698E-01 7.4197E-02</leafValues></_><_><internalNodes>0 -1 273 -1.0539E-02</internalNodes><leafValues>3.7008E-01 -1.1099E-01</leafValues></_><_><internalNodes>0 -1 336 -6.4126E-03</internalNodes><leafValues>-6.8769E-01 6.5695E-02</leafValues></_><_><internalNodes>0 -1 614 -6.6444E-03</internalNodes><leafValues>2.3942E-01 -1.5043E-01</leafValues></_><_><internalNodes>0 -1 784 3.6155E-02</internalNodes><leafValues>-9.1301E-02 4.3765E-01</leafValues></_><_><internalNodes>0 -1 321 2.0614E-03</internalNodes><leafValues>-1.0029E-01 3.4936E-01</leafValues></_><_><internalNodes>0 -1 937 -2.6316E-03</internalNodes><leafValues>-4.7377E-01 7.9684E-02</leafValues></_><_><internalNodes>0 -1 136 -6.9046E-03</internalNodes><leafValues>-5.4207E-01 5.3584E-02</leafValues></_><_><internalNodes>0 -1 792 -7.9165E-03</internalNodes><leafValues>2.3244E-01 -1.4518E-01</leafValues></_><_><internalNodes>0 -1 285 6.6963E-03</internalNodes><leafValues>5.6810E-02 -6.3260E-01</leafValues></_><_><internalNodes>0 -1 810 -1.8640E-02</internalNodes><leafValues>2.3913E-01 -1.4181E-01</leafValues></_><_><internalNodes>0 -1 451 -1.2745E-03</internalNodes><leafValues>3.5026E-01 -9.4078E-02</leafValues></_><_><internalNodes>0 -1 385 -6.6459E-03</internalNodes><leafValues>-6.4737E-01 5.4980E-02</leafValues></_><_><internalNodes>0 -1 759 5.5034E-03</internalNodes><leafValues>3.6262E-02 -7.0103E-01</leafValues></_><_><internalNodes>0 -1 371 -6.0990E-03</internalNodes><leafValues>3.1506E-01 -1.0299E-01</leafValues></_><_><internalNodes>0 -1 955 -9.5216E-04</internalNodes><leafValues>-3.3244E-01 9.4537E-02</leafValues></_><_><internalNodes>0 -1 133 -4.8709E-03</internalNodes><leafValues>-5.5287E-01 4.8858E-02</leafValues></_><_><internalNodes>0 -1 476 -1.9531E-03</internalNodes><leafValues>2.6476E-01 -1.2214E-01</leafValues></_><_><internalNodes>0 -1 852 -1.6108E-02</internalNodes><leafValues>2.4748E-01 -1.4181E-01</leafValues></_><_><internalNodes>0 -1 747 -3.3052E-02</internalNodes><leafValues>4.7527E-01 -6.3494E-02</leafValues></_><_><internalNodes>0 -1 465 -2.0969E-02</internalNodes><leafValues>3.7475E-01 -8.7979E-02</leafValues></_><_><internalNodes>0 -1 862 -1.1977E-03</internalNodes><leafValues>2.8161E-01 -1.0515E-01</leafValues></_><_><internalNodes>0 -1 937 3.0868E-03</internalNodes><leafValues>6.1260E-02 -5.0153E-01</leafValues></_><_><internalNodes>0 -1 261 5.4881E-03</internalNodes><leafValues>5.0318E-02 -5.4197E-01</leafValues></_><_><internalNodes>0 -1 302 -3.6944E-03</internalNodes><leafValues>-5.8760E-01 4.4151E-02</leafValues></_><_><internalNodes>0 -1 91 2.3760E-02</internalNodes><leafValues>-1.0200E-01 3.0311E-01</leafValues></_><_><internalNodes>0 -1 86 -2.1728E-02</internalNodes><leafValues>3.1364E-01 -1.0069E-01</leafValues></_><_><internalNodes>0 -1 36 -2.5135E-02</internalNodes><leafValues>-5.1456E-01 5.5909E-02</leafValues></_><_><internalNodes>0 -1 17 2.5713E-02</internalNodes><leafValues>-1.2262E-01 2.5486E-01</leafValues></_><_><internalNodes>0 -1 600 3.4807E-03</internalNodes><leafValues>4.3244E-02 -7.0197E-01</leafValues></_><_><internalNodes>0 -1 96 -3.8690E-03</internalNodes><leafValues>-5.8558E-01 4.0548E-02</leafValues></_><_><internalNodes>0 -1 787 -1.0774E-03</internalNodes><leafValues>3.0767E-01 -9.5468E-02</leafValues></_><_><internalNodes>0 -1 789 2.9715E-03</internalNodes><leafValues>-7.1952E-02 3.9656E-01</leafValues></_><_><internalNodes>0 -1 67 -8.8995E-03</internalNodes><leafValues>-6.3043E-01 4.7021E-02</leafValues></_><_><internalNodes>0 -1 588 6.7774E-03</internalNodes><leafValues>-7.5779E-02 3.6969E-01</leafValues></_><_><internalNodes>0 -1 508 -8.9795E-03</internalNodes><leafValues>2.2024E-01 -1.3685E-01</leafValues></_><_><internalNodes>0 -1 258 -1.4680E-02</internalNodes><leafValues>2.9657E-01 -9.4062E-02</leafValues></_><_><internalNodes>0 -1 208 -9.5530E-03</internalNodes><leafValues>2.9209E-01 -1.0542E-01</leafValues></_><_><internalNodes>0 -1 847 -1.4967E-03</internalNodes><leafValues>2.1045E-01 -1.3943E-01</leafValues></_></weakClassifiers></_><_><maxWeakCount>67</maxWeakCount><stageThreshold>-1.5504E+00</stageThreshold><weakClassifiers><_><internalNodes>0 -1 454 -1.0960E-02</internalNodes><leafValues>6.5447E-01 5.0714E-02</leafValues></_><_><internalNodes>0 -1 864 -1.1517E-02</internalNodes><leafValues>4.6028E-01 -1.5864E-01</leafValues></_><_><internalNodes>0 -1 751 3.3401E-03</internalNodes><leafValues>-2.1552E-01 3.4321E-01</leafValues></_><_><internalNodes>0 -1 154 -3.8354E-03</internalNodes><leafValues>3.3497E-01 -2.3464E-01</leafValues></_><_><internalNodes>0 -1 57 -5.9523E-03</internalNodes><leafValues>2.8272E-01 -2.0107E-01</leafValues></_><_><internalNodes>0 -1 788 -1.3916E-03</internalNodes><leafValues>3.4103E-01 -1.5116E-01</leafValues></_><_><internalNodes>0 -1 325 -2.2318E-03</internalNodes><leafValues>3.1695E-01 -1.6022E-01</leafValues></_><_><internalNodes>0 -1 677 8.3245E-02</internalNodes><leafValues>-8.9079E-02 5.3136E-01</leafValues></_><_><internalNodes>0 -1 832 4.8592E-02</internalNodes><leafValues>-1.0279E-01 3.9602E-01</leafValues></_><_><internalNodes>0 -1 921 9.5052E-03</internalNodes><leafValues>5.5168E-02 -7.4529E-01</leafValues></_><_><internalNodes>0 -1 612 -3.7636E-03</internalNodes><leafValues>-6.5435E-01 5.7056E-02</leafValues></_><_><internalNodes>0 -1 809 1.7549E-04</internalNodes><leafValues>-2.3402E-01 1.6429E-01</leafValues></_><_><internalNodes>0 -1 156 -5.4876E-02</internalNodes><leafValues>2.5605E-01 -1.5397E-01</leafValues></_><_><internalNodes>0 -1 5 -6.1811E-02</internalNodes><leafValues>4.2923E-01 -8.8362E-02</leafValues></_><_><internalNodes>0 -1 229 1.3980E-03</internalNodes><leafValues>-7.3072E-02 4.5564E-01</leafValues></_><_><internalNodes>0 -1 229 -5.5876E-04</internalNodes><leafValues>2.9506E-01 -1.2032E-01</leafValues></_><_><internalNodes>0 -1 31 -4.3149E-03</internalNodes><leafValues>-5.7403E-01 6.6134E-02</leafValues></_><_><internalNodes>0 -1 228 -5.3551E-03</internalNodes><leafValues>-5.2288E-01 6.9182E-02</leafValues></_><_><internalNodes>0 -1 117 -3.6877E-02</internalNodes><leafValues>3.3144E-01 -1.2778E-01</leafValues></_><_><internalNodes>0 -1 364 4.1613E-02</internalNodes><leafValues>-1.4964E-01 2.9361E-01</leafValues></_><_><internalNodes>0 -1 423 6.6620E-04</internalNodes><leafValues>-1.8006E-01 2.1171E-01</leafValues></_><_><internalNodes>0 -1 155 2.2131E-02</internalNodes><leafValues>5.7937E-02 -5.9411E-01</leafValues></_><_><internalNodes>0 -1 469 1.2183E-02</internalNodes><leafValues>-1.1940E-01 2.9696E-01</leafValues></_><_><internalNodes>0 -1 182 2.8001E-03</internalNodes><leafValues>-1.4504E-01 2.2682E-01</leafValues></_><_><internalNodes>0 -1 945 2.8729E-03</internalNodes><leafValues>6.5800E-02 -4.9988E-01</leafValues></_><_><internalNodes>0 -1 63 -5.0599E-01</internalNodes><leafValues>6.2000E-01 -5.6771E-02</leafValues></_><_><internalNodes>0 -1 219 -9.6984E-03</internalNodes><leafValues>3.2088E-01 -9.7375E-02</leafValues></_><_><internalNodes>0 -1 497 3.0798E-03</internalNodes><leafValues>-1.2448E-01 2.5827E-01</leafValues></_><_><internalNodes>0 -1 451 -1.5817E-03</internalNodes><leafValues>4.1314E-01 -9.0999E-02</leafValues></_><_><internalNodes>0 -1 101 -9.5680E-03</internalNodes><leafValues>-7.0232E-01 5.5185E-02</leafValues></_><_><internalNodes>0 -1 94 3.1543E-03</internalNodes><leafValues>4.8739E-02 -5.4296E-01</leafValues></_><_><internalNodes>0 -1 224 -7.8437E-04</internalNodes><leafValues>3.0287E-01 -1.0217E-01</leafValues></_><_><internalNodes>0 -1 143 4.3993E-01</internalNodes><leafValues>-4.0747E-02 7.4452E-01</leafValues></_><_><internalNodes>0 -1 565 -3.5277E-03</internalNodes><leafValues>-4.5242E-01 7.3150E-02</leafValues></_><_><internalNodes>0 -1 468 8.3879E-03</internalNodes><leafValues>3.3294E-02 -7.2619E-01</leafValues></_><_><internalNodes>0 -1 818 9.9021E-04</internalNodes><leafValues>-1.0717E-01 2.8766E-01</leafValues></_><_><internalNodes>0 -1 825 -2.9110E-03</internalNodes><leafValues>2.8587E-01 -1.1560E-01</leafValues></_><_><internalNodes>0 -1 242 -5.1426E-03</internalNodes><leafValues>-6.1107E-01 4.6431E-02</leafValues></_><_><internalNodes>0 -1 69 1.7738E-01</internalNodes><leafValues>-7.0888E-02 4.1918E-01</leafValues></_><_><internalNodes>0 -1 389 -1.1850E-02</internalNodes><leafValues>3.1747E-01 -1.0234E-01</leafValues></_><_><internalNodes>0 -1 529 -1.0039E-02</internalNodes><leafValues>2.0377E-01 -1.4408E-01</leafValues></_><_><internalNodes>0 -1 676 1.9497E-02</internalNodes><leafValues>4.7855E-02 -5.7639E-01</leafValues></_><_><internalNodes>0 -1 193 5.5466E-02</internalNodes><leafValues>-7.4624E-02 4.1104E-01</leafValues></_><_><internalNodes>0 -1 893 -3.9324E-03</internalNodes><leafValues>-5.5429E-01 5.0013E-02</leafValues></_><_><internalNodes>0 -1 662 -8.9037E-04</internalNodes><leafValues>2.0537E-01 -1.3226E-01</leafValues></_><_><internalNodes>0 -1 3 4.6563E-02</internalNodes><leafValues>-9.1294E-02 2.9736E-01</leafValues></_><_><internalNodes>0 -1 548 -1.5474E-01</internalNodes><leafValues>-8.6354E-01 3.4763E-02</leafValues></_><_><internalNodes>0 -1 893 2.4359E-03</internalNodes><leafValues>5.9722E-02 -4.1147E-01</leafValues></_><_><internalNodes>0 -1 402 1.3577E-02</internalNodes><leafValues>-9.4202E-02 3.0719E-01</leafValues></_><_><internalNodes>0 -1 456 -9.8992E-03</internalNodes><leafValues>2.6258E-01 -9.5684E-02</leafValues></_><_><internalNodes>0 -1 479 -3.0812E-03</internalNodes><leafValues>2.1775E-01 -1.1510E-01</leafValues></_><_><internalNodes>0 -1 275 -1.9958E-03</internalNodes><leafValues>3.5400E-01 -7.2067E-02</leafValues></_><_><internalNodes>0 -1 919 3.0025E-03</internalNodes><leafValues>4.2854E-02 -6.0344E-01</leafValues></_><_><internalNodes>0 -1 836 -1.1377E-03</internalNodes><leafValues>2.0120E-01 -1.2889E-01</leafValues></_><_><internalNodes>0 -1 661 3.7627E-03</internalNodes><leafValues>4.6901E-02 -5.7280E-01</leafValues></_><_><internalNodes>0 -1 724 -3.9298E-03</internalNodes><leafValues>3.5876E-01 -7.3909E-02</leafValues></_><_><internalNodes>0 -1 885 -2.5287E-02</internalNodes><leafValues>3.5752E-01 -6.7418E-02</leafValues></_><_><internalNodes>0 -1 749 -3.9540E-03</internalNodes><leafValues>2.0610E-01 -1.4521E-01</leafValues></_><_><internalNodes>0 -1 911 -5.7712E-03</internalNodes><leafValues>-5.2898E-01 4.7179E-02</leafValues></_><_><internalNodes>0 -1 701 -3.3264E-03</internalNodes><leafValues>2.2409E-01 -1.1467E-01</leafValues></_><_><internalNodes>0 -1 703 6.1332E-02</internalNodes><leafValues>3.7663E-02 -7.1231E-01</leafValues></_><_><internalNodes>0 -1 251 -1.4834E-02</internalNodes><leafValues>-5.5149E-01 3.9851E-02</leafValues></_><_><internalNodes>0 -1 7 -1.0773E-01</internalNodes><leafValues>-4.9263E-01 4.9222E-02</leafValues></_><_><internalNodes>0 -1 648 -6.5140E-03</internalNodes><leafValues>-6.7664E-01 3.3736E-02</leafValues></_><_><internalNodes>0 -1 30 -2.4243E-02</internalNodes><leafValues>-6.9797E-01 2.7110E-02</leafValues></_><_><internalNodes>0 -1 393 -1.7814E-03</internalNodes><leafValues>2.9062E-01 -8.0135E-02</leafValues></_><_><internalNodes>0 -1 801 4.7076E-03</internalNodes><leafValues>3.7101E-02 -6.7660E-01</leafValues></_></weakClassifiers></_><_><maxWeakCount>80</maxWeakCount><stageThreshold>-1.5639E+00</stageThreshold><weakClassifiers><_><internalNodes>0 -1 561 -4.3974E-03</internalNodes><leafValues>7.1588E-01 8.4949E-02</leafValues></_><_><internalNodes>0 -1 198 1.8174E-03</internalNodes><leafValues>-1.7692E-01 4.3213E-01</leafValues></_><_><internalNodes>0 -1 735 -5.5132E-03</internalNodes><leafValues>4.5491E-01 -1.4189E-01</leafValues></_><_><internalNodes>0 -1 282 1.1955E-02</internalNodes><leafValues>-2.0919E-01 4.3715E-01</leafValues></_><_><internalNodes>0 -1 819 -3.4246E-03</internalNodes><leafValues>3.5878E-01 -1.5396E-01</leafValues></_><_><internalNodes>0 -1 187 -4.3845E-02</internalNodes><leafValues>4.3700E-01 -1.2768E-01</leafValues></_><_><internalNodes>0 -1 839 -6.3556E-03</internalNodes><leafValues>2.9515E-01 -1.6442E-01</leafValues></_><_><internalNodes>0 -1 534 -2.6966E-03</internalNodes><leafValues>1.9414E-01 -2.0238E-01</leafValues></_><_><internalNodes>0 -1 460 -1.3908E-02</internalNodes><leafValues>2.5904E-01 -1.5587E-01</leafValues></_><_><internalNodes>0 -1 343 -1.4053E-02</internalNodes><leafValues>5.4957E-01 -8.1245E-02</leafValues></_><_><internalNodes>0 -1 918 -5.3005E-03</internalNodes><leafValues>-5.8529E-01 7.3731E-02</leafValues></_><_><internalNodes>0 -1 491 -3.1702E-03</internalNodes><leafValues>1.9392E-01 -1.8859E-01</leafValues></_><_><internalNodes>0 -1 474 -4.5198E-03</internalNodes><leafValues>-5.4193E-01 5.9990E-02</leafValues></_><_><internalNodes>0 -1 956 -5.4979E-02</internalNodes><leafValues>4.7812E-01 -6.7819E-02</leafValues></_><_><internalNodes>0 -1 876 8.1018E-04</internalNodes><leafValues>-9.5596E-02 3.1569E-01</leafValues></_><_><internalNodes>0 -1 841 -2.8012E-03</internalNodes><leafValues>-4.9930E-01 6.8444E-02</leafValues></_><_><internalNodes>0 -1 833 -6.0124E-03</internalNodes><leafValues>3.8720E-01 -8.9717E-02</leafValues></_><_><internalNodes>0 -1 842 3.6350E-03</internalNodes><leafValues>6.6414E-02 -4.8186E-01</leafValues></_><_><internalNodes>0 -1 452 -1.3544E-03</internalNodes><leafValues>2.5372E-01 -1.2267E-01</leafValues></_><_><internalNodes>0 -1 827 -3.1020E-03</internalNodes><leafValues>2.7389E-01 -1.1379E-01</leafValues></_><_><internalNodes>0 -1 767 1.5350E-03</internalNodes><leafValues>-1.0862E-01 2.8959E-01</leafValues></_><_><internalNodes>0 -1 170 6.4284E-03</internalNodes><leafValues>5.9736E-02 -5.6773E-01</leafValues></_><_><internalNodes>0 -1 280 -8.9296E-03</internalNodes><leafValues>-6.7041E-01 3.8284E-02</leafValues></_><_><internalNodes>0 -1 764 -1.7896E-03</internalNodes><leafValues>2.1717E-01 -1.4857E-01</leafValues></_><_><internalNodes>0 -1 523 6.2072E-03</internalNodes><leafValues>-8.8490E-02 3.3572E-01</leafValues></_><_><internalNodes>0 -1 526 1.9034E-03</internalNodes><leafValues>6.7697E-02 -4.5387E-01</leafValues></_><_><internalNodes>0 -1 524 -2.1953E-03</internalNodes><leafValues>-4.2716E-01 6.5683E-02</leafValues></_><_><internalNodes>0 -1 215 5.3395E-03</internalNodes><leafValues>-1.0161E-01 2.9586E-01</leafValues></_><_><internalNodes>0 -1 763 2.0329E-03</internalNodes><leafValues>-9.5587E-02 3.0506E-01</leafValues></_><_><internalNodes>0 -1 160 4.3489E-03</internalNodes><leafValues>7.9764E-02 -3.8652E-01</leafValues></_><_><internalNodes>0 -1 518 -4.0209E-03</internalNodes><leafValues>3.0503E-01 -8.9128E-02</leafValues></_><_><internalNodes>0 -1 234 -4.8845E-02</internalNodes><leafValues>4.2813E-01 -6.7647E-02</leafValues></_><_><internalNodes>0 -1 360 6.9916E-02</internalNodes><leafValues>-8.3985E-02 3.2602E-01</leafValues></_><_><internalNodes>0 -1 535 4.9919E-02</internalNodes><leafValues>-7.2998E-02 4.6169E-01</leafValues></_><_><internalNodes>0 -1 606 3.0069E-03</internalNodes><leafValues>5.5069E-02 -6.1966E-01</leafValues></_><_><internalNodes>0 -1 158 1.7420E-03</internalNodes><leafValues>-8.2020E-02 3.6007E-01</leafValues></_><_><internalNodes>0 -1 168 -4.1091E-03</internalNodes><leafValues>-5.2174E-01 5.6437E-02</leafValues></_><_><internalNodes>0 -1 665 -4.5903E-03</internalNodes><leafValues>2.2743E-01 -1.2062E-01</leafValues></_><_><internalNodes>0 -1 27 -2.8690E-02</internalNodes><leafValues>-3.5808E-01 7.5660E-02</leafValues></_><_><internalNodes>0 -1 926 4.1000E-02</internalNodes><leafValues>-6.2531E-02 4.5492E-01</leafValues></_><_><internalNodes>0 -1 126 -4.2531E-03</internalNodes><leafValues>-6.1826E-01 4.9511E-02</leafValues></_><_><internalNodes>0 -1 670 -1.4550E-02</internalNodes><leafValues>-7.7191E-01 2.5961E-02</leafValues></_><_><internalNodes>0 -1 288 -7.4882E-04</internalNodes><leafValues>2.8547E-01 -8.8080E-02</leafValues></_><_><internalNodes>0 -1 337 1.3214E-03</internalNodes><leafValues>-7.6634E-02 3.7057E-01</leafValues></_><_><internalNodes>0 -1 455 5.3907E-03</internalNodes><leafValues>4.9379E-02 -5.7583E-01</leafValues></_><_><internalNodes>0 -1 838 -2.4114E-03</internalNodes><leafValues>2.0830E-01 -1.3430E-01</leafValues></_><_><internalNodes>0 -1 87 1.1465E-02</internalNodes><leafValues>4.9434E-02 -6.5972E-01</leafValues></_><_><internalNodes>0 -1 486 -1.3422E-02</internalNodes><leafValues>-7.4524E-01 2.5121E-02</leafValues></_><_><internalNodes>0 -1 910 2.8627E-03</internalNodes><leafValues>6.1505E-02 -3.5306E-01</leafValues></_><_><internalNodes>0 -1 416 1.1442E-02</internalNodes><leafValues>5.3547E-02 -4.0410E-01</leafValues></_><_><internalNodes>0 -1 538 5.7390E-03</internalNodes><leafValues>-9.7106E-02 2.4727E-01</leafValues></_><_><internalNodes>0 -1 485 -1.3369E-02</internalNodes><leafValues>3.4152E-01 -9.5435E-02</leafValues></_><_><internalNodes>0 -1 611 3.3499E-03</internalNodes><leafValues>4.9336E-02 -4.9602E-01</leafValues></_><_><internalNodes>0 -1 281 1.2375E-02</internalNodes><leafValues>-5.7205E-02 5.0582E-01</leafValues></_><_><internalNodes>0 -1 500 2.7577E-02</internalNodes><leafValues>-8.7778E-02 2.9973E-01</leafValues></_><_><internalNodes>0 -1 43 2.1137E-01</internalNodes><leafValues>-6.2023E-02 4.0351E-01</leafValues></_><_><internalNodes>0 -1 221 -3.5104E-02</internalNodes><leafValues>2.9696E-01 -8.2776E-02</leafValues></_><_><internalNodes>0 -1 292 -2.8950E-03</internalNodes><leafValues>-3.7251E-01 6.6616E-02</leafValues></_><_><internalNodes>0 -1 511 3.6181E-03</internalNodes><leafValues>-9.3407E-02 2.5402E-01</leafValues></_><_><internalNodes>0 -1 445 1.1849E-02</internalNodes><leafValues>-8.2135E-02 2.9940E-01</leafValues></_><_><internalNodes>0 -1 438 -1.0208E-02</internalNodes><leafValues>2.1719E-01 -1.1622E-01</leafValues></_><_><internalNodes>0 -1 257 3.0943E-02</internalNodes><leafValues>4.5177E-02 -5.0523E-01</leafValues></_><_><internalNodes>0 -1 16 -3.1779E-01</internalNodes><leafValues>-8.8358E-01 2.1195E-02</leafValues></_><_><internalNodes>0 -1 513 -1.0037E-02</internalNodes><leafValues>-5.8986E-01 3.0863E-02</leafValues></_><_><internalNodes>0 -1 888 9.1692E-03</internalNodes><leafValues>-6.4323E-02 3.7387E-01</leafValues></_><_><internalNodes>0 -1 658 1.3658E-02</internalNodes><leafValues>-1.0158E-01 2.6782E-01</leafValues></_><_><internalNodes>0 -1 309 2.7184E-03</internalNodes><leafValues>5.5635E-02 -3.9148E-01</leafValues></_><_><internalNodes>0 -1 310 1.3893E-03</internalNodes><leafValues>-1.2400E-01 1.7072E-01</leafValues></_><_><internalNodes>0 -1 283 -1.8157E-02</internalNodes><leafValues>-6.3868E-01 3.4264E-02</leafValues></_><_><internalNodes>0 -1 408 6.4471E-03</internalNodes><leafValues>1.8928E-02 -8.5300E-01</leafValues></_><_><internalNodes>0 -1 44 1.4844E-02</internalNodes><leafValues>-1.2482E-01 1.7664E-01</leafValues></_><_><internalNodes>0 -1 50 -1.9532E-02</internalNodes><leafValues>3.1519E-01 -8.2499E-02</leafValues></_><_><internalNodes>0 -1 90 2.2133E-02</internalNodes><leafValues>-9.0633E-02 2.2813E-01</leafValues></_><_><internalNodes>0 -1 119 -5.8851E-03</internalNodes><leafValues>2.0633E-01 -1.1404E-01</leafValues></_><_><internalNodes>0 -1 773 1.4686E-03</internalNodes><leafValues>-6.8528E-02 3.6765E-01</leafValues></_><_><internalNodes>0 -1 856 -5.6168E-03</internalNodes><leafValues>2.1468E-01 -1.1975E-01</leafValues></_><_><internalNodes>0 -1 530 -1.0915E-01</internalNodes><leafValues>4.9223E-01 -4.6790E-02</leafValues></_><_><internalNodes>0 -1 638 -4.3774E-03</internalNodes><leafValues>2.6556E-01 -8.1356E-02</leafValues></_><_><internalNodes>0 -1 97 -5.5184E-03</internalNodes><leafValues>-4.7855E-01 4.9388E-02</leafValues></_><_><internalNodes>0 -1 646 -1.8073E-03</internalNodes><leafValues>-6.4402E-01 3.1085E-02</leafValues></_></weakClassifiers></_><_><maxWeakCount>91</maxWeakCount><stageThreshold>-1.5611E+00</stageThreshold><weakClassifiers><_><internalNodes>0 -1 821 -1.1308E-02</internalNodes><leafValues>6.4171E-01 6.3051E-02</leafValues></_><_><internalNodes>0 -1 454 -1.6007E-02</internalNodes><leafValues>4.6390E-01 -1.2460E-01</leafValues></_><_><internalNodes>0 -1 782 1.5087E-03</internalNodes><leafValues>-1.4271E-01 3.3293E-01</leafValues></_><_><internalNodes>0 -1 207 -5.5297E-02</internalNodes><leafValues>4.7708E-01 -1.1913E-01</leafValues></_><_><internalNodes>0 -1 209 1.3316E-02</internalNodes><leafValues>-1.6993E-01 3.8822E-01</leafValues></_><_><internalNodes>0 -1 752 8.1391E-03</internalNodes><leafValues>-1.5329E-01 2.8197E-01</leafValues></_><_><internalNodes>0 -1 313 -1.5794E-03</internalNodes><leafValues>-4.3693E-01 1.1586E-01</leafValues></_><_><internalNodes>0 -1 346 -7.4165E-03</internalNodes><leafValues>-7.0102E-01 3.1883E-02</leafValues></_><_><internalNodes>0 -1 347 2.9237E-03</internalNodes><leafValues>-1.2033E-01 3.1826E-01</leafValues></_><_><internalNodes>0 -1 412 8.3931E-02</internalNodes><leafValues>-7.1063E-02 5.1401E-01</leafValues></_><_><internalNodes>0 -1 879 5.1326E-03</internalNodes><leafValues>-1.5316E-01 2.3686E-01</leafValues></_><_><internalNodes>0 -1 10 1.2808E-02</internalNodes><leafValues>-1.2817E-01 2.8131E-01</leafValues></_><_><internalNodes>0 -1 327 5.5592E-02</internalNodes><leafValues>-9.7708E-02 3.7603E-01</leafValues></_><_><internalNodes>0 -1 650 -2.4632E-03</internalNodes><leafValues>-5.5093E-01 6.5490E-02</leafValues></_><_><internalNodes>0 -1 661 -3.1799E-03</internalNodes><leafValues>-5.6289E-01 5.3228E-02</leafValues></_><_><internalNodes>0 -1 652 -1.4346E-03</internalNodes><leafValues>-5.1233E-01 5.7506E-02</leafValues></_><_><internalNodes>0 -1 861 1.9692E-03</internalNodes><leafValues>-1.6737E-01 1.8857E-01</leafValues></_><_><internalNodes>0 -1 261 -5.5519E-03</internalNodes><leafValues>-5.2823E-01 5.2204E-02</leafValues></_><_><internalNodes>0 -1 342 3.1601E-03</internalNodes><leafValues>-8.0669E-02 3.6808E-01</leafValues></_><_><internalNodes>0 -1 144 7.3207E-03</internalNodes><leafValues>5.4135E-02 -5.3350E-01</leafValues></_><_><internalNodes>0 -1 303 3.5805E-03</internalNodes><leafValues>4.3426E-02 -5.3225E-01</leafValues></_><_><internalNodes>0 -1 368 -3.4315E-03</internalNodes><leafValues>3.3590E-01 -7.8591E-02</leafValues></_><_><internalNodes>0 -1 958 6.8408E-03</internalNodes><leafValues>4.5176E-02 -6.1210E-01</leafValues></_><_><internalNodes>0 -1 957 -4.1379E-03</internalNodes><leafValues>-5.3889E-01 4.4202E-02</leafValues></_><_><internalNodes>0 -1 350 1.3156E-02</internalNodes><leafValues>-7.9104E-02 3.3574E-01</leafValues></_><_><internalNodes>0 -1 356 3.1921E-03</internalNodes><leafValues>5.7064E-02 -5.0550E-01</leafValues></_><_><internalNodes>0 -1 906 2.3589E-02</internalNodes><leafValues>-8.3102E-02 3.0778E-01</leafValues></_><_><internalNodes>0 -1 464 -6.1599E-03</internalNodes><leafValues>1.6074E-01 -1.5700E-01</leafValues></_><_><internalNodes>0 -1 830 6.4594E-03</internalNodes><leafValues>-9.5241E-02 3.0516E-01</leafValues></_><_><internalNodes>0 -1 581 -2.0678E-03</internalNodes><leafValues>-5.0823E-01 5.9834E-02</leafValues></_><_><internalNodes>0 -1 872 2.0666E-03</internalNodes><leafValues>-7.2402E-02 3.5852E-01</leafValues></_><_><internalNodes>0 -1 231 5.3266E-03</internalNodes><leafValues>5.4929E-02 -4.8396E-01</leafValues></_><_><internalNodes>0 -1 930 -7.7359E-03</internalNodes><leafValues>-4.8261E-01 4.4207E-02</leafValues></_><_><internalNodes>0 -1 909 7.9008E-03</internalNodes><leafValues>-9.4954E-02 2.7517E-01</leafValues></_><_><internalNodes>0 -1 470 4.0566E-03</internalNodes><leafValues>4.3647E-02 -5.8921E-01</leafValues></_><_><internalNodes>0 -1 245 3.5946E-03</internalNodes><leafValues>-1.3110E-01 1.8304E-01</leafValues></_><_><internalNodes>0 -1 206 -2.6677E-02</internalNodes><leafValues>2.8980E-01 -8.3346E-02</leafValues></_><_><internalNodes>0 -1 213 5.4063E-03</internalNodes><leafValues>-9.1767E-02 2.9674E-01</leafValues></_><_><internalNodes>0 -1 230 -5.1793E-03</internalNodes><leafValues>-6.1112E-01 4.3333E-02</leafValues></_><_><internalNodes>0 -1 397 -9.1263E-03</internalNodes><leafValues>2.1878E-01 -1.1106E-01</leafValues></_><_><internalNodes>0 -1 387 9.5943E-03</internalNodes><leafValues>-8.7978E-02 3.2010E-01</leafValues></_><_><internalNodes>0 -1 668 -5.0256E-03</internalNodes><leafValues>2.1041E-01 -1.0872E-01</leafValues></_><_><internalNodes>0 -1 681 3.0062E-03</internalNodes><leafValues>-1.0700E-01 2.9317E-01</leafValues></_><_><internalNodes>0 -1 744 1.1852E-02</internalNodes><leafValues>3.9550E-02 -6.0534E-01</leafValues></_><_><internalNodes>0 -1 533 -5.2754E-02</internalNodes><leafValues>2.6370E-01 -9.2691E-02</leafValues></_><_><internalNodes>0 -1 446 3.8847E-03</internalNodes><leafValues>6.4826E-02 -4.1523E-01</leafValues></_><_><internalNodes>0 -1 556 -2.6287E-03</internalNodes><leafValues>-5.0846E-01 4.2992E-02</leafValues></_><_><internalNodes>0 -1 330 2.2053E-03</internalNodes><leafValues>-1.0581E-01 2.3079E-01</leafValues></_><_><internalNodes>0 -1 552 -3.7467E-03</internalNodes><leafValues>-5.2957E-01 4.6158E-02</leafValues></_><_><internalNodes>0 -1 501 -2.9029E-03</internalNodes><leafValues>-4.1290E-01 5.1480E-02</leafValues></_><_><internalNodes>0 -1 13 3.7801E-02</internalNodes><leafValues>-1.0680E-01 2.2418E-01</leafValues></_><_><internalNodes>0 -1 73 -8.4753E-02</internalNodes><leafValues>-7.8421E-01 3.0642E-02</leafValues></_><_><internalNodes>0 -1 619 9.6597E-03</internalNodes><leafValues>-9.7390E-02 2.4498E-01</leafValues></_><_><internalNodes>0 -1 519 7.2564E-03</internalNodes><leafValues>-9.8196E-02 2.9686E-01</leafValues></_><_><internalNodes>0 -1 33 -1.0029E-02</internalNodes><leafValues>-5.6506E-01 4.1912E-02</leafValues></_><_><internalNodes>0 -1 540 -9.7039E-03</internalNodes><leafValues>2.1148E-01 -1.0377E-01</leafValues></_><_><internalNodes>0 -1 425 -1.8890E-03</internalNodes><leafValues>2.2385E-01 -1.0598E-01</leafValues></_><_><internalNodes>0 -1 587 -1.4225E-03</internalNodes><leafValues>2.1190E-01 -1.1053E-01</leafValues></_><_><internalNodes>0 -1 301 4.3250E-03</internalNodes><leafValues>4.1859E-02 -5.3137E-01</leafValues></_><_><internalNodes>0 -1 418 -2.5747E-03</internalNodes><leafValues>-3.3481E-01 6.2653E-02</leafValues></_><_><internalNodes>0 -1 822 1.9773E-02</internalNodes><leafValues>-5.8535E-02 3.9204E-01</leafValues></_><_><internalNodes>0 -1 255 -9.6580E-03</internalNodes><leafValues>2.2002E-01 -9.4623E-02</leafValues></_><_><internalNodes>0 -1 320 1.5255E-03</internalNodes><leafValues>-8.3463E-02 3.1410E-01</leafValues></_><_><internalNodes>0 -1 136 6.2277E-03</internalNodes><leafValues>5.6847E-02 -4.1030E-01</leafValues></_><_><internalNodes>0 -1 214 9.0133E-04</internalNodes><leafValues>-8.4593E-02 2.7151E-01</leafValues></_><_><internalNodes>0 -1 953 -4.6219E-03</internalNodes><leafValues>-4.0008E-01 5.6437E-02</leafValues></_><_><internalNodes>0 -1 730 -1.5077E-02</internalNodes><leafValues>2.3747E-01 -9.1519E-02</leafValues></_><_><internalNodes>0 -1 34 2.1274E-02</internalNodes><leafValues>5.3467E-02 -4.5392E-01</leafValues></_><_><internalNodes>0 -1 227 -6.0164E-03</internalNodes><leafValues>2.3597E-01 -1.2803E-01</leafValues></_><_><internalNodes>0 -1 148 8.9328E-03</internalNodes><leafValues>4.2525E-02 -5.8664E-01</leafValues></_><_><internalNodes>0 -1 118 7.3119E-03</internalNodes><leafValues>-6.9642E-02 3.3589E-01</leafValues></_><_><internalNodes>0 -1 616 2.6425E-03</internalNodes><leafValues>3.4662E-02 -6.7860E-01</leafValues></_><_><internalNodes>0 -1 641 5.9287E-03</internalNodes><leafValues>2.7299E-02 -6.5473E-01</leafValues></_><_><internalNodes>0 -1 877 -7.8424E-03</internalNodes><leafValues>-6.3548E-01 2.7554E-02</leafValues></_><_><internalNodes>0 -1 541 -2.1586E-03</internalNodes><leafValues>2.2929E-01 -9.0029E-02</leafValues></_><_><internalNodes>0 -1 484 1.5804E-03</internalNodes><leafValues>-9.7766E-02 2.2442E-01</leafValues></_><_><internalNodes>0 -1 478 -1.2140E-02</internalNodes><leafValues>2.9934E-01 -7.2731E-02</leafValues></_><_><internalNodes>0 -1 149 2.2737E-03</internalNodes><leafValues>4.6053E-02 -4.7995E-01</leafValues></_><_><internalNodes>0 -1 229 2.0574E-03</internalNodes><leafValues>-4.9065E-02 4.6874E-01</leafValues></_><_><internalNodes>0 -1 132 5.9092E-03</internalNodes><leafValues>3.3293E-02 -6.2421E-01</leafValues></_><_><internalNodes>0 -1 569 -2.0585E-02</internalNodes><leafValues>2.6486E-01 -7.6442E-02</leafValues></_><_><internalNodes>0 -1 92 1.1120E-02</internalNodes><leafValues>4.4590E-02 -5.2196E-01</leafValues></_><_><internalNodes>0 -1 797 -3.4440E-03</internalNodes><leafValues>1.5680E-01 -1.3590E-01</leafValues></_><_><internalNodes>0 -1 963 -1.0557E-02</internalNodes><leafValues>3.0609E-01 -7.2761E-02</leafValues></_><_><internalNodes>0 -1 67 8.1239E-03</internalNodes><leafValues>4.4047E-02 -4.8990E-01</leafValues></_><_><internalNodes>0 -1 25 -1.1494E-02</internalNodes><leafValues>2.0073E-01 -1.1034E-01</leafValues></_><_><internalNodes>0 -1 586 2.3691E-02</internalNodes><leafValues>-1.2550E-01 1.8665E-01</leafValues></_><_><internalNodes>0 -1 871 1.5683E-02</internalNodes><leafValues>-7.4671E-02 2.8130E-01</leafValues></_><_><internalNodes>0 -1 399 -3.3445E-02</internalNodes><leafValues>2.6844E-01 -8.3812E-02</leafValues></_><_><internalNodes>0 -1 610 3.0884E-02</internalNodes><leafValues>-9.9225E-02 2.2485E-01</leafValues></_><_><internalNodes>0 -1 222 -4.0956E-02</internalNodes><leafValues>1.8551E-01 -1.1869E-01</leafValues></_></weakClassifiers></_><_><maxWeakCount>90</maxWeakCount><stageThreshold>-1.4453E+00</stageThreshold><weakClassifiers><_><internalNodes>0 -1 735 -4.5190E-03</internalNodes><leafValues>6.7140E-01 9.2262E-02</leafValues></_><_><internalNodes>0 -1 199 4.2574E-03</internalNodes><leafValues>-1.1548E-01 4.7693E-01</leafValues></_><_><internalNodes>0 -1 395 -3.0074E-03</internalNodes><leafValues>3.6662E-01 -1.3400E-01</leafValues></_><_><internalNodes>0 -1 185 2.0851E-01</internalNodes><leafValues>-1.7360E-01 2.8777E-01</leafValues></_><_><internalNodes>0 -1 263 -3.3409E-02</internalNodes><leafValues>4.2965E-01 -1.1280E-01</leafValues></_><_><internalNodes>0 -1 444 8.2403E-03</internalNodes><leafValues>-1.3495E-01 3.0937E-01</leafValues></_><_><internalNodes>0 -1 201 -5.4143E-03</internalNodes><leafValues>-5.0564E-01 6.3295E-02</leafValues></_><_><internalNodes>0 -1 691 -1.3662E-02</internalNodes><leafValues>2.6761E-01 -1.3282E-01</leafValues></_><_><internalNodes>0 -1 5 -6.6442E-02</internalNodes><leafValues>4.2027E-01 -9.1118E-02</leafValues></_><_><internalNodes>0 -1 363 -3.6824E-03</internalNodes><leafValues>-6.0497E-01 6.3766E-02</leafValues></_><_><internalNodes>0 -1 363 3.5008E-03</internalNodes><leafValues>5.9524E-02 -5.4523E-01</leafValues></_><_><internalNodes>0 -1 223 1.5308E-03</internalNodes><leafValues>-1.1714E-01 3.1415E-01</leafValues></_><_><internalNodes>0 -1 769 -1.7609E-02</internalNodes><leafValues>3.9622E-01 -8.1706E-02</leafValues></_><_><internalNodes>0 -1 878 2.3612E-02</internalNodes><leafValues>-1.1965E-01 2.8404E-01</leafValues></_><_><internalNodes>0 -1 9 -1.2014E-02</internalNodes><leafValues>2.7747E-01 -1.1447E-01</leafValues></_><_><internalNodes>0 -1 450 -4.6457E-03</internalNodes><leafValues>-5.3870E-01 5.2098E-02</leafValues></_><_><internalNodes>0 -1 447 5.3105E-03</internalNodes><leafValues>-1.0284E-01 3.0061E-01</leafValues></_><_><internalNodes>0 -1 463 -3.2729E-03</internalNodes><leafValues>1.9203E-01 -1.6125E-01</leafValues></_><_><internalNodes>0 -1 329 9.8468E-03</internalNodes><leafValues>4.8938E-02 -5.1129E-01</leafValues></_><_><internalNodes>0 -1 270 3.2083E-03</internalNodes><leafValues>-8.5019E-02 3.4343E-01</leafValues></_><_><internalNodes>0 -1 228 5.5270E-03</internalNodes><leafValues>6.3496E-02 -4.8667E-01</leafValues></_><_><internalNodes>0 -1 866 -2.3475E-03</internalNodes><leafValues>2.5843E-01 -1.1679E-01</leafValues></_><_><internalNodes>0 -1 689 -1.5940E-03</internalNodes><leafValues>-3.2783E-01 8.0365E-02</leafValues></_><_><internalNodes>0 -1 422 -4.1191E-03</internalNodes><leafValues>-5.5737E-01 4.6546E-02</leafValues></_><_><internalNodes>0 -1 834 1.7748E-03</internalNodes><leafValues>-7.7935E-02 3.3012E-01</leafValues></_><_><internalNodes>0 -1 789 -1.6894E-03</internalNodes><leafValues>2.2781E-01 -1.1317E-01</leafValues></_><_><internalNodes>0 -1 625 -2.0341E-03</internalNodes><leafValues>-3.8829E-01 6.9249E-02</leafValues></_><_><internalNodes>0 -1 655 -3.4458E-03</internalNodes><leafValues>-4.0544E-01 5.8194E-02</leafValues></_><_><internalNodes>0 -1 813 -9.3588E-03</internalNodes><leafValues>3.1281E-01 -7.8269E-02</leafValues></_><_><internalNodes>0 -1 322 -4.9023E-03</internalNodes><leafValues>-4.0507E-01 6.6911E-02</leafValues></_><_><internalNodes>0 -1 68 -4.8415E-01</internalNodes><leafValues>6.5363E-01 -4.0621E-02</leafValues></_><_><internalNodes>0 -1 18 2.6782E-02</internalNodes><leafValues>-1.0990E-01 2.1767E-01</leafValues></_><_><internalNodes>0 -1 800 -9.4281E-03</internalNodes><leafValues>-7.4746E-01 2.9869E-02</leafValues></_><_><internalNodes>0 -1 492 -7.7870E-03</internalNodes><leafValues>3.0222E-01 -8.3481E-02</leafValues></_><_><internalNodes>0 -1 426 3.5958E-03</internalNodes><leafValues>-8.2548E-02 2.9036E-01</leafValues></_><_><internalNodes>0 -1 487 5.8125E-03</internalNodes><leafValues>-9.7843E-02 2.6563E-01</leafValues></_><_><internalNodes>0 -1 66 -6.3765E-03</internalNodes><leafValues>-4.6169E-01 5.5747E-02</leafValues></_><_><internalNodes>0 -1 186 -7.2100E-02</internalNodes><leafValues>-7.3345E-01 2.8517E-02</leafValues></_><_><internalNodes>0 -1 120 -8.2340E-02</internalNodes><leafValues>-6.5312E-01 2.9036E-02</leafValues></_><_><internalNodes>0 -1 927 -1.5002E-02</internalNodes><leafValues>-6.3826E-01 3.2475E-02</leafValues></_><_><internalNodes>0 -1 288 1.1907E-03</internalNodes><leafValues>-7.9208E-02 2.9137E-01</leafValues></_><_><internalNodes>0 -1 594 3.1184E-03</internalNodes><leafValues>4.7656E-02 -4.7487E-01</leafValues></_><_><internalNodes>0 -1 603 8.2193E-03</internalNodes><leafValues>2.6732E-02 -7.3682E-01</leafValues></_><_><internalNodes>0 -1 264 7.1537E-02</internalNodes><leafValues>-6.6174E-02 3.4597E-01</leafValues></_><_><internalNodes>0 -1 707 -1.3247E-02</internalNodes><leafValues>2.2123E-01 -1.1526E-01</leafValues></_><_><internalNodes>0 -1 88 6.4606E-03</internalNodes><leafValues>5.1375E-02 -4.2835E-01</leafValues></_><_><internalNodes>0 -1 714 -1.9957E-03</internalNodes><leafValues>2.8388E-01 -8.6040E-02</leafValues></_><_><internalNodes>0 -1 939 2.5913E-03</internalNodes><leafValues>6.0468E-02 -3.9721E-01</leafValues></_><_><internalNodes>0 -1 716 1.9277E-02</internalNodes><leafValues>-8.2994E-02 3.0765E-01</leafValues></_><_><internalNodes>0 -1 887 -4.9097E-03</internalNodes><leafValues>2.7269E-01 -8.6131E-02</leafValues></_><_><internalNodes>0 -1 950 3.6836E-03</internalNodes><leafValues>5.9469E-02 -3.9447E-01</leafValues></_><_><internalNodes>0 -1 520 3.0758E-03</internalNodes><leafValues>-9.7390E-02 2.4346E-01</leafValues></_><_><internalNodes>0 -1 522 -4.2320E-03</internalNodes><leafValues>3.0931E-01 -7.9394E-02</leafValues></_><_><internalNodes>0 -1 405 7.2837E-03</internalNodes><leafValues>4.7933E-02 -4.8676E-01</leafValues></_><_><internalNodes>0 -1 467 -6.2544E-03</internalNodes><leafValues>-4.8621E-01 4.2083E-02</leafValues></_><_><internalNodes>0 -1 872 -1.1530E-03</internalNodes><leafValues>2.6954E-01 -8.6281E-02</leafValues></_><_><internalNodes>0 -1 560 4.0323E-02</internalNodes><leafValues>-9.4530E-02 2.3481E-01</leafValues></_><_><internalNodes>0 -1 15 -1.2282E-02</internalNodes><leafValues>-7.2538E-01 3.0702E-02</leafValues></_><_><internalNodes>0 -1 678 3.7427E-02</internalNodes><leafValues>2.9120E-02 -6.4664E-01</leafValues></_><_><internalNodes>0 -1 568 2.5721E-03</internalNodes><leafValues>4.9339E-02 -4.0852E-01</leafValues></_><_><internalNodes>0 -1 925 -2.0107E-02</internalNodes><leafValues>-6.2753E-01 3.1198E-02</leafValues></_><_><internalNodes>0 -1 936 2.5537E-03</internalNodes><leafValues>2.3093E-02 -7.4034E-01</leafValues></_><_><internalNodes>0 -1 876 -1.3628E-03</internalNodes><leafValues>3.4928E-01 -6.5548E-02</leafValues></_><_><internalNodes>0 -1 875 -9.9154E-04</internalNodes><leafValues>2.2522E-01 -9.1689E-02</leafValues></_><_><internalNodes>0 -1 965 5.0149E-03</internalNodes><leafValues>3.9176E-02 -5.5857E-01</leafValues></_><_><internalNodes>0 -1 853 9.1358E-04</internalNodes><leafValues>-1.2274E-01 1.8955E-01</leafValues></_><_><internalNodes>0 -1 762 1.6373E-02</internalNodes><leafValues>3.9830E-02 -5.7987E-01</leafValues></_><_><internalNodes>0 -1 544 1.4576E-02</internalNodes><leafValues>-8.6225E-02 2.4199E-01</leafValues></_><_><internalNodes>0 -1 967 5.1754E-04</internalNodes><leafValues>8.9499E-02 -2.1778E-01</leafValues></_><_><internalNodes>0 -1 79 -1.1098E-02</internalNodes><leafValues>2.2926E-01 -8.3800E-02</leafValues></_><_><internalNodes>0 -1 308 2.4134E-02</internalNodes><leafValues>-1.0102E-01 2.0878E-01</leafValues></_><_><internalNodes>0 -1 152 -3.7759E-02</internalNodes><leafValues>4.3368E-01 -5.1684E-02</leafValues></_><_><internalNodes>0 -1 218 9.0820E-03</internalNodes><leafValues>4.0469E-02 -5.4790E-01</leafValues></_><_><internalNodes>0 -1 385 -3.8959E-03</internalNodes><leafValues>-3.4300E-01 5.6340E-02</leafValues></_><_><internalNodes>0 -1 815 -1.0298E-02</internalNodes><leafValues>2.9085E-01 -8.1125E-02</leafValues></_><_><internalNodes>0 -1 815 8.3358E-03</internalNodes><leafValues>-6.9515E-02 3.0880E-01</leafValues></_><_><internalNodes>0 -1 805 4.1338E-02</internalNodes><leafValues>3.2240E-02 -6.5161E-01</leafValues></_><_><internalNodes>0 -1 345 2.6844E-02</internalNodes><leafValues>-6.5987E-02 3.1072E-01</leafValues></_><_><internalNodes>0 -1 93 -4.4574E-03</internalNodes><leafValues>-3.4223E-01 6.0962E-02</leafValues></_><_><internalNodes>0 -1 217 -5.6259E-03</internalNodes><leafValues>1.9680E-01 -9.9301E-02</leafValues></_><_><internalNodes>0 -1 130 -3.4068E-02</internalNodes><leafValues>-5.7343E-01 3.5371E-02</leafValues></_><_><internalNodes>0 -1 415 -4.1321E-02</internalNodes><leafValues>-5.4800E-01 3.2511E-02</leafValues></_><_><internalNodes>0 -1 702 -4.5842E-03</internalNodes><leafValues>2.0696E-01 -9.3101E-02</leafValues></_><_><internalNodes>0 -1 705 -8.6526E-03</internalNodes><leafValues>-5.2305E-01 4.0334E-02</leafValues></_><_><internalNodes>0 -1 656 -8.1808E-03</internalNodes><leafValues>3.0393E-01 -6.9615E-02</leafValues></_><_><internalNodes>0 -1 867 -6.2430E-03</internalNodes><leafValues>-5.0806E-01 4.2720E-02</leafValues></_><_><internalNodes>0 -1 660 -4.3398E-03</internalNodes><leafValues>-4.7174E-01 3.7593E-02</leafValues></_><_><internalNodes>0 -1 392 -2.4695E-03</internalNodes><leafValues>3.4972E-01 -6.2289E-02</leafValues></_><_><internalNodes>0 -1 496 4.6105E-03</internalNodes><leafValues>4.8353E-02 -3.9338E-01</leafValues></_><_><internalNodes>0 -1 368 1.5547E-03</internalNodes><leafValues>-8.5153E-02 2.4540E-01</leafValues></_></weakClassifiers></_><_><maxWeakCount>100</maxWeakCount><stageThreshold>-1.6322E+00</stageThreshold><weakClassifiers><_><internalNodes>0 -1 443 -9.9800E-03</internalNodes><leafValues>6.5110E-01 7.0069E-02</leafValues></_><_><internalNodes>0 -1 656 1.2786E-02</internalNodes><leafValues>-1.5663E-01 4.5552E-01</leafValues></_><_><internalNodes>0 -1 197 4.0613E-04</internalNodes><leafValues>-2.3327E-01 2.4265E-01</leafValues></_><_><internalNodes>0 -1 0 -4.4672E-03</internalNodes><leafValues>3.0027E-01 -1.7739E-01</leafValues></_><_><internalNodes>0 -1 733 7.1196E-03</internalNodes><leafValues>-1.3142E-01 4.3264E-01</leafValues></_><_><internalNodes>0 -1 855 7.1186E-03</internalNodes><leafValues>-1.5670E-01 3.3418E-01</leafValues></_><_><internalNodes>0 -1 725 4.5672E-03</internalNodes><leafValues>-1.2860E-01 3.1137E-01</leafValues></_><_><internalNodes>0 -1 859 -1.0436E-03</internalNodes><leafValues>1.9419E-01 -1.7872E-01</leafValues></_><_><internalNodes>0 -1 111 -8.6361E-03</internalNodes><leafValues>-6.0730E-01 3.6423E-02</leafValues></_><_><internalNodes>0 -1 685 6.4470E-03</internalNodes><leafValues>-1.7270E-01 1.8412E-01</leafValues></_><_><internalNodes>0 -1 920 -3.2128E-03</internalNodes><leafValues>-5.6947E-01 5.5858E-02</leafValues></_><_><internalNodes>0 -1 202 2.9548E-02</internalNodes><leafValues>5.4511E-02 -4.9025E-01</leafValues></_><_><internalNodes>0 -1 161 -5.3525E-03</internalNodes><leafValues>-4.3886E-01 5.9160E-02</leafValues></_><_><internalNodes>0 -1 159 2.2656E-03</internalNodes><leafValues>-1.4959E-01 1.9237E-01</leafValues></_><_><internalNodes>0 -1 272 -1.7663E-02</internalNodes><leafValues>3.4964E-01 -9.8793E-02</leafValues></_><_><internalNodes>0 -1 135 -1.4769E-01</internalNodes><leafValues>3.8789E-01 -7.4754E-02</leafValues></_><_><internalNodes>0 -1 961 -1.2649E-02</internalNodes><leafValues>3.6447E-01 -7.8627E-02</leafValues></_><_><internalNodes>0 -1 203 -1.6668E-01</internalNodes><leafValues>3.1025E-01 -9.8568E-02</leafValues></_><_><internalNodes>0 -1 823 1.5328E-03</internalNodes><leafValues>-8.7890E-02 3.3739E-01</leafValues></_><_><internalNodes>0 -1 37 -4.9399E-03</internalNodes><leafValues>-6.0583E-01 4.7072E-02</leafValues></_><_><internalNodes>0 -1 663 1.6169E-03</internalNodes><leafValues>-1.1102E-01 2.4626E-01</leafValues></_><_><internalNodes>0 -1 38 -7.9765E-03</internalNodes><leafValues>-4.5468E-01 5.6169E-02</leafValues></_><_><internalNodes>0 -1 803 2.1165E-03</internalNodes><leafValues>3.9522E-02 -5.8244E-01</leafValues></_><_><internalNodes>0 -1 423 1.2182E-03</internalNodes><leafValues>-1.1961E-01 1.8956E-01</leafValues></_><_><internalNodes>0 -1 414 6.2021E-02</internalNodes><leafValues>-9.2262E-02 2.4536E-01</leafValues></_><_><internalNodes>0 -1 98 1.5368E-02</internalNodes><leafValues>-7.4950E-02 3.8813E-01</leafValues></_><_><internalNodes>0 -1 631 -3.6117E-03</internalNodes><leafValues>-5.8402E-01 4.3881E-02</leafValues></_><_><internalNodes>0 -1 669 -5.4048E-03</internalNodes><leafValues>2.7466E-01 -8.3315E-02</leafValues></_><_><internalNodes>0 -1 190 -5.7542E-03</internalNodes><leafValues>-4.8697E-01 5.0720E-02</leafValues></_><_><internalNodes>0 -1 868 -8.8466E-04</internalNodes><leafValues>1.4998E-01 -1.4874E-01</leafValues></_><_><internalNodes>0 -1 419 -1.3691E-02</internalNodes><leafValues>-4.2396E-01 5.1716E-02</leafValues></_><_><internalNodes>0 -1 231 -9.2098E-03</internalNodes><leafValues>-6.8743E-01 2.8357E-02</leafValues></_><_><internalNodes>0 -1 433 -1.0102E-02</internalNodes><leafValues>3.0424E-01 -7.5886E-02</leafValues></_><_><internalNodes>0 -1 789 -2.1283E-03</internalNodes><leafValues>2.2551E-01 -9.5489E-02</leafValues></_><_><internalNodes>0 -1 675 2.2938E-03</internalNodes><leafValues>3.2833E-02 -6.4737E-01</leafValues></_><_><internalNodes>0 -1 795 -2.0680E-03</internalNodes><leafValues>2.9073E-01 -8.1708E-02</leafValues></_><_><internalNodes>0 -1 495 1.8802E-03</internalNodes><leafValues>-1.0236E-01 2.4279E-01</leafValues></_><_><internalNodes>0 -1 566 -1.5465E-03</internalNodes><leafValues>-3.8904E-01 5.6320E-02</leafValues></_><_><internalNodes>0 -1 630 6.3282E-03</internalNodes><leafValues>-9.9906E-02 2.2087E-01</leafValues></_><_><internalNodes>0 -1 704 3.3236E-02</internalNodes><leafValues>5.0302E-02 -4.9443E-01</leafValues></_><_><internalNodes>0 -1 894 -1.9428E-03</internalNodes><leafValues>-6.7564E-01 2.7948E-02</leafValues></_><_><internalNodes>0 -1 849 1.1729E-03</internalNodes><leafValues>-1.1950E-01 1.8506E-01</leafValues></_><_><internalNodes>0 -1 941 5.4221E-03</internalNodes><leafValues>5.0924E-02 -4.3449E-01</leafValues></_><_><internalNodes>0 -1 768 3.0700E-03</internalNodes><leafValues>-7.6846E-02 2.6929E-01</leafValues></_><_><internalNodes>0 -1 914 2.6066E-03</internalNodes><leafValues>5.5169E-02 -3.9986E-01</leafValues></_><_><internalNodes>0 -1 884 2.6848E-03</internalNodes><leafValues>2.7681E-02 -6.6644E-01</leafValues></_><_><internalNodes>0 -1 471 4.9525E-03</internalNodes><leafValues>-7.8716E-02 2.6919E-01</leafValues></_><_><internalNodes>0 -1 466 -1.2218E-02</internalNodes><leafValues>2.5042E-01 -9.2960E-02</leafValues></_><_><internalNodes>0 -1 51 -9.7618E-03</internalNodes><leafValues>-5.8083E-01 4.1861E-02</leafValues></_><_><internalNodes>0 -1 528 -3.0802E-03</internalNodes><leafValues>-5.4921E-01 3.1411E-02</leafValues></_><_><internalNodes>0 -1 499 8.8870E-03</internalNodes><leafValues>-5.7800E-02 3.5997E-01</leafValues></_><_><internalNodes>0 -1 383 -1.6894E-03</internalNodes><leafValues>1.5611E-01 -1.3526E-01</leafValues></_><_><internalNodes>0 -1 80 1.1577E-02</internalNodes><leafValues>2.6843E-02 -7.7421E-01</leafValues></_><_><internalNodes>0 -1 283 -1.0315E-02</internalNodes><leafValues>-3.7911E-01 4.7786E-02</leafValues></_><_><internalNodes>0 -1 216 9.3459E-04</internalNodes><leafValues>-1.0483E-01 1.9531E-01</leafValues></_><_><internalNodes>0 -1 225 -2.1154E-03</internalNodes><leafValues>3.2438E-01 -7.0381E-02</leafValues></_><_><internalNodes>0 -1 328 7.0915E-03</internalNodes><leafValues>3.1504E-02 -7.1499E-01</leafValues></_><_><internalNodes>0 -1 968 1.5262E-03</internalNodes><leafValues>4.3179E-02 -4.1176E-01</leafValues></_><_><internalNodes>0 -1 194 -2.6457E-03</internalNodes><leafValues>-6.6830E-01 2.7079E-02</leafValues></_><_><internalNodes>0 -1 722 1.3623E-03</internalNodes><leafValues>-9.6260E-02 1.9847E-01</leafValues></_><_><internalNodes>0 -1 672 -3.4019E-03</internalNodes><leafValues>1.3639E-01 -1.4331E-01</leafValues></_><_><internalNodes>0 -1 667 -4.2539E-02</internalNodes><leafValues>-6.8543E-01 2.7219E-02</leafValues></_><_><internalNodes>0 -1 572 5.1495E-03</internalNodes><leafValues>-8.3507E-02 2.4554E-01</leafValues></_><_><internalNodes>0 -1 509 -1.3526E-03</internalNodes><leafValues>2.0084E-01 -1.1442E-01</leafValues></_><_><internalNodes>0 -1 889 -4.7460E-03</internalNodes><leafValues>-5.8234E-01 3.3193E-02</leafValues></_><_><internalNodes>0 -1 559 -1.8419E-02</internalNodes><leafValues>2.5098E-01 -7.8264E-02</leafValues></_><_><internalNodes>0 -1 837 -3.6030E-03</internalNodes><leafValues>2.5004E-01 -7.8106E-02</leafValues></_><_><internalNodes>0 -1 12 1.0856E-02</internalNodes><leafValues>3.8722E-02 -5.0439E-01</leafValues></_><_><internalNodes>0 -1 6 3.1823E-02</internalNodes><leafValues>2.8007E-02 -6.5439E-01</leafValues></_><_><internalNodes>0 -1 35 9.0156E-02</internalNodes><leafValues>3.6854E-02 -4.6750E-01</leafValues></_><_><internalNodes>0 -1 876 8.1275E-04</internalNodes><leafValues>-8.1435E-02 2.3082E-01</leafValues></_><_><internalNodes>0 -1 843 -2.2238E-03</internalNodes><leafValues>-4.6507E-01 4.2776E-02</leafValues></_><_><internalNodes>0 -1 21 8.5266E-03</internalNodes><leafValues>-9.9069E-02 1.8662E-01</leafValues></_><_><internalNodes>0 -1 601 5.0248E-03</internalNodes><leafValues>3.5677E-02 -5.6390E-01</leafValues></_><_><internalNodes>0 -1 353 1.2137E-02</internalNodes><leafValues>2.3600E-02 -6.9947E-01</leafValues></_><_><internalNodes>0 -1 687 5.8653E-04</internalNodes><leafValues>-1.0547E-01 1.8302E-01</leafValues></_><_><internalNodes>0 -1 783 -1.2803E-02</internalNodes><leafValues>2.4170E-01 -9.3702E-02</leafValues></_><_><internalNodes>0 -1 362 1.9235E-03</internalNodes><leafValues>4.1153E-02 -5.3528E-01</leafValues></_><_><internalNodes>0 -1 413 -5.1119E-02</internalNodes><leafValues>2.0419E-01 -1.0016E-01</leafValues></_><_><internalNodes>0 -1 643 2.0428E-02</internalNodes><leafValues>3.8304E-02 -5.6753E-01</leafValues></_><_><internalNodes>0 -1 916 1.0702E-03</internalNodes><leafValues>-1.1942E-01 1.5450E-01</leafValues></_><_><internalNodes>0 -1 45 6.3908E-02</internalNodes><leafValues>-8.0574E-02 2.4724E-01</leafValues></_><_><internalNodes>0 -1 239 -8.9892E-03</internalNodes><leafValues>2.7232E-01 -7.9600E-02</leafValues></_><_><internalNodes>0 -1 181 -7.4441E-03</internalNodes><leafValues>1.7152E-01 -1.1734E-01</leafValues></_><_><internalNodes>0 -1 298 9.3748E-03</internalNodes><leafValues>-5.8857E-02 3.3994E-01</leafValues></_><_><internalNodes>0 -1 890 3.9659E-03</internalNodes><leafValues>3.7981E-02 -5.3772E-01</leafValues></_><_><internalNodes>0 -1 698 -2.7701E-03</internalNodes><leafValues>2.1687E-01 -9.1247E-02</leafValues></_><_><internalNodes>0 -1 592 -3.0084E-03</internalNodes><leafValues>-5.1034E-01 3.8352E-02</leafValues></_><_><internalNodes>0 -1 40 5.2285E-03</internalNodes><leafValues>6.6747E-02 -2.5510E-01</leafValues></_><_><internalNodes>0 -1 542 2.6635E-03</internalNodes><leafValues>-8.8651E-02 2.1261E-01</leafValues></_><_><internalNodes>0 -1 545 -3.4418E-02</internalNodes><leafValues>-6.6851E-01 3.1463E-02</leafValues></_><_><internalNodes>0 -1 550 -9.7544E-04</internalNodes><leafValues>2.0566E-01 -1.0703E-01</leafValues></_><_><internalNodes>0 -1 361 1.6098E-01</internalNodes><leafValues>-4.7827E-02 3.8994E-01</leafValues></_><_><internalNodes>0 -1 489 1.0004E-03</internalNodes><leafValues>-1.0797E-01 2.1362E-01</leafValues></_><_><internalNodes>0 -1 420 4.0136E-03</internalNodes><leafValues>-8.1376E-02 2.2794E-01</leafValues></_><_><internalNodes>0 -1 562 3.2076E-03</internalNodes><leafValues>-1.0032E-01 2.2700E-01</leafValues></_><_><internalNodes>0 -1 53 -4.1396E-03</internalNodes><leafValues>-4.5727E-01 4.4954E-02</leafValues></_><_><internalNodes>0 -1 595 4.9559E-03</internalNodes><leafValues>3.0350E-02 -5.6468E-01</leafValues></_><_><internalNodes>0 -1 835 1.9516E-03</internalNodes><leafValues>-8.4079E-02 2.1666E-01</leafValues></_><_><internalNodes>0 -1 200 2.8488E-02</internalNodes><leafValues>-5.8517E-02 3.7209E-01</leafValues></_></weakClassifiers></_><_><maxWeakCount>100</maxWeakCount><stageThreshold>-1.5314E+00</stageThreshold><weakClassifiers><_><internalNodes>0 -1 865 -1.1964E-02</internalNodes><leafValues>6.5611E-01 8.7084E-02</leafValues></_><_><internalNodes>0 -1 570 -3.6326E-03</internalNodes><leafValues>3.0753E-01 -2.0207E-01</leafValues></_><_><internalNodes>0 -1 739 1.6092E-03</internalNodes><leafValues>-2.1601E-01 2.4574E-01</leafValues></_><_><internalNodes>0 -1 151 -1.0807E-01</internalNodes><leafValues>5.8552E-01 -8.0984E-02</leafValues></_><_><internalNodes>0 -1 122 6.6386E-03</internalNodes><leafValues>-2.3309E-01 2.5712E-01</leafValues></_><_><internalNodes>0 -1 480 6.6436E-04</internalNodes><leafValues>-1.7003E-01 2.2094E-01</leafValues></_><_><internalNodes>0 -1 109 5.9624E-04</internalNodes><leafValues>-2.1072E-01 1.5259E-01</leafValues></_><_><internalNodes>0 -1 296 -2.1323E-03</internalNodes><leafValues>-3.6115E-01 7.9649E-02</leafValues></_><_><internalNodes>0 -1 102 -6.9360E-03</internalNodes><leafValues>-5.2730E-01 5.9226E-02</leafValues></_><_><internalNodes>0 -1 1 7.2746E-03</internalNodes><leafValues>-1.5285E-01 2.0500E-01</leafValues></_><_><internalNodes>0 -1 793 -2.4507E-03</internalNodes><leafValues>-4.4374E-01 6.2126E-02</leafValues></_><_><internalNodes>0 -1 677 -1.1942E-01</internalNodes><leafValues>5.9646E-01 -5.0393E-02</leafValues></_><_><internalNodes>0 -1 830 2.4320E-03</internalNodes><leafValues>-1.4628E-01 2.2021E-01</leafValues></_><_><internalNodes>0 -1 503 4.0826E-03</internalNodes><leafValues>4.6520E-02 -6.0438E-01</leafValues></_><_><internalNodes>0 -1 112 3.3597E-02</internalNodes><leafValues>5.5770E-02 -4.4832E-01</leafValues></_><_><internalNodes>0 -1 142 -4.1159E-02</internalNodes><leafValues>-4.2802E-01 5.6050E-02</leafValues></_><_><internalNodes>0 -1 357 -3.1344E-03</internalNodes><leafValues>-4.5189E-01 4.5713E-02</leafValues></_><_><internalNodes>0 -1 449 -3.9363E-03</internalNodes><leafValues>2.6333E-01 -8.6673E-02</leafValues></_><_><internalNodes>0 -1 274 -3.4228E-02</internalNodes><leafValues>2.8555E-01 -8.0962E-02</leafValues></_><_><internalNodes>0 -1 192 2.3194E-02</internalNodes><leafValues>-1.0958E-01 2.6531E-01</leafValues></_><_><internalNodes>0 -1 812 1.1790E-03</internalNodes><leafValues>-1.2578E-01 2.2350E-01</leafValues></_><_><internalNodes>0 -1 757 2.4526E-02</internalNodes><leafValues>3.9447E-02 -6.4370E-01</leafValues></_><_><internalNodes>0 -1 234 -5.5821E-02</internalNodes><leafValues>3.8405E-01 -6.1516E-02</leafValues></_><_><internalNodes>0 -1 297 8.5053E-03</internalNodes><leafValues>-1.1683E-01 2.0640E-01</leafValues></_><_><internalNodes>0 -1 28 -4.6914E-02</internalNodes><leafValues>-3.3304E-01 6.8058E-02</leafValues></_><_><internalNodes>0 -1 531 -6.0622E-02</internalNodes><leafValues>3.0634E-01 -8.0412E-02</leafValues></_><_><internalNodes>0 -1 962 3.3126E-03</internalNodes><leafValues>6.4040E-02 -3.6265E-01</leafValues></_><_><internalNodes>0 -1 923 -6.2155E-03</internalNodes><leafValues>2.6325E-01 -8.5209E-02</leafValues></_><_><internalNodes>0 -1 840 -3.6175E-03</internalNodes><leafValues>-6.3896E-01 3.7892E-02</leafValues></_><_><internalNodes>0 -1 321 -3.0695E-03</internalNodes><leafValues>2.7301E-01 -8.3169E-02</leafValues></_><_><internalNodes>0 -1 106 -1.6664E-03</internalNodes><leafValues>-4.9060E-01 4.4818E-02</leafValues></_><_><internalNodes>0 -1 36 1.6716E-02</internalNodes><leafValues>6.0621E-02 -3.4730E-01</leafValues></_><_><internalNodes>0 -1 401 1.3495E-02</internalNodes><leafValues>3.1516E-02 -6.2452E-01</leafValues></_><_><internalNodes>0 -1 321 1.9665E-03</internalNodes><leafValues>-8.6127E-02 2.5303E-01</leafValues></_><_><internalNodes>0 -1 477 -2.8691E-02</internalNodes><leafValues>2.9214E-01 -6.8188E-02</leafValues></_><_><internalNodes>0 -1 430 5.4161E-03</internalNodes><leafValues>-8.5594E-02 2.6201E-01</leafValues></_><_><internalNodes>0 -1 269 -3.6382E-02</internalNodes><leafValues>-5.9561E-01 3.6925E-02</leafValues></_><_><internalNodes>0 -1 421 -6.7270E-03</internalNodes><leafValues>-7.9720E-01 2.4374E-02</leafValues></_><_><internalNodes>0 -1 947 -7.4933E-03</internalNodes><leafValues>-8.1190E-01 1.9826E-02</leafValues></_><_><internalNodes>0 -1 165 -5.5203E-03</internalNodes><leafValues>1.8447E-01 -1.1609E-01</leafValues></_><_><internalNodes>0 -1 869 2.9039E-03</internalNodes><leafValues>6.3957E-02 -3.0787E-01</leafValues></_><_><internalNodes>0 -1 41 2.4207E-01</internalNodes><leafValues>-3.4879E-02 5.9678E-01</leafValues></_><_><internalNodes>0 -1 901 5.8509E-03</internalNodes><leafValues>-8.4465E-02 2.3756E-01</leafValues></_><_><internalNodes>0 -1 943 1.1404E-02</internalNodes><leafValues>-6.2885E-02 3.3538E-01</leafValues></_><_><internalNodes>0 -1 946 -6.4798E-03</internalNodes><leafValues>2.6907E-01 -8.0379E-02</leafValues></_><_><internalNodes>0 -1 175 -1.5257E-01</internalNodes><leafValues>3.7274E-01 -5.3594E-02</leafValues></_><_><internalNodes>0 -1 300 -7.8410E-03</internalNodes><leafValues>3.5559E-01 -6.0485E-02</leafValues></_><_><internalNodes>0 -1 895 4.6421E-04</internalNodes><leafValues>-1.3954E-01 1.4701E-01</leafValues></_><_><internalNodes>0 -1 365 -2.7929E-03</internalNodes><leafValues>-3.7794E-01 5.3649E-02</leafValues></_><_><internalNodes>0 -1 761 -6.2361E-03</internalNodes><leafValues>2.3623E-01 -8.5419E-02</leafValues></_><_><internalNodes>0 -1 758 -1.0483E-02</internalNodes><leafValues>-4.9809E-01 4.5150E-02</leafValues></_><_><internalNodes>0 -1 728 5.1559E-03</internalNodes><leafValues>-8.4864E-02 2.6941E-01</leafValues></_><_><internalNodes>0 -1 854 1.3876E-02</internalNodes><leafValues>-6.8634E-02 3.0265E-01</leafValues></_><_><internalNodes>0 -1 549 2.0932E-03</internalNodes><leafValues>-8.1714E-02 2.2649E-01</leafValues></_><_><internalNodes>0 -1 580 2.2430E-03</internalNodes><leafValues>3.2464E-02 -6.4346E-01</leafValues></_><_><internalNodes>0 -1 686 9.5148E-03</internalNodes><leafValues>2.9570E-02 -5.5541E-01</leafValues></_><_><internalNodes>0 -1 358 -1.5026E-02</internalNodes><leafValues>2.9200E-01 -6.7493E-02</leafValues></_><_><internalNodes>0 -1 576 -3.0254E-03</internalNodes><leafValues>-3.6120E-01 5.3320E-02</leafValues></_><_><internalNodes>0 -1 543 -3.7556E-03</internalNodes><leafValues>2.4652E-01 -7.6556E-02</leafValues></_><_><internalNodes>0 -1 870 5.2876E-02</internalNodes><leafValues>-6.2020E-02 3.0396E-01</leafValues></_><_><internalNodes>0 -1 915 -6.4307E-04</internalNodes><leafValues>1.4873E-01 -1.2868E-01</leafValues></_><_><internalNodes>0 -1 802 -2.7652E-02</internalNodes><leafValues>-4.7679E-01 4.2087E-02</leafValues></_><_><internalNodes>0 -1 673 -2.5210E-03</internalNodes><leafValues>-6.7401E-01 2.5271E-02</leafValues></_><_><internalNodes>0 -1 107 -1.7505E-03</internalNodes><leafValues>-6.6526E-01 2.3153E-02</leafValues></_><_><internalNodes>0 -1 137 -1.2023E-02</internalNodes><leafValues>-6.5253E-01 2.4158E-02</leafValues></_><_><internalNodes>0 -1 23 -1.6721E-02</internalNodes><leafValues>2.0145E-01 -8.8074E-02</leafValues></_><_><internalNodes>0 -1 664 -6.1156E-03</internalNodes><leafValues>2.3663E-01 -8.2179E-02</leafValues></_><_><internalNodes>0 -1 726 4.1718E-03</internalNodes><leafValues>3.0464E-02 -6.4868E-01</leafValues></_><_><internalNodes>0 -1 83 1.0462E-03</internalNodes><leafValues>-1.0332E-01 1.7262E-01</leafValues></_><_><internalNodes>0 -1 158 -7.5714E-04</internalNodes><leafValues>2.2452E-01 -9.4167E-02</leafValues></_><_><internalNodes>0 -1 377 -5.1019E-03</internalNodes><leafValues>1.7749E-01 -1.0526E-01</leafValues></_><_><internalNodes>0 -1 951 5.8564E-03</internalNodes><leafValues>2.7441E-02 -6.8669E-01</leafValues></_><_><internalNodes>0 -1 331 3.8241E-03</internalNodes><leafValues>-6.8950E-02 2.7575E-01</leafValues></_><_><internalNodes>0 -1 174 1.1478E-02</internalNodes><leafValues>3.9409E-02 -5.4300E-01</leafValues></_><_><internalNodes>0 -1 605 -1.4754E-03</internalNodes><leafValues>-4.5533E-01 3.6615E-02</leafValues></_><_><internalNodes>0 -1 605 9.4341E-04</internalNodes><leafValues>6.0545E-02 -2.9981E-01</leafValues></_><_><internalNodes>0 -1 599 -3.6591E-03</internalNodes><leafValues>2.3721E-01 -8.0204E-02</leafValues></_><_><internalNodes>0 -1 100 -3.1423E-02</internalNodes><leafValues>-7.1167E-01 2.8133E-02</leafValues></_><_><internalNodes>0 -1 403 3.5741E-03</internalNodes><leafValues>1.7520E-02 -8.3257E-01</leafValues></_><_><internalNodes>0 -1 585 -6.8606E-03</internalNodes><leafValues>-6.9204E-01 2.0873E-02</leafValues></_><_><internalNodes>0 -1 902 -8.8996E-03</internalNodes><leafValues>1.8208E-01 -9.8316E-02</leafValues></_><_><internalNodes>0 -1 881 6.5573E-03</internalNodes><leafValues>-7.4690E-02 2.5062E-01</leafValues></_><_><internalNodes>0 -1 912 1.4276E-02</internalNodes><leafValues>2.7385E-02 -6.8721E-01</leafValues></_><_><internalNodes>0 -1 241 -2.1887E-03</internalNodes><leafValues>-4.7836E-01 3.3500E-02</leafValues></_><_><internalNodes>0 -1 6 1.9213E-02</internalNodes><leafValues>5.0344E-02 -3.3105E-01</leafValues></_><_><internalNodes>0 -1 521 1.0552E-02</internalNodes><leafValues>-9.7780E-02 2.0048E-01</leafValues></_><_><internalNodes>0 -1 883 -4.9181E-04</internalNodes><leafValues>1.4232E-01 -1.3172E-01</leafValues></_><_><internalNodes>0 -1 964 3.2934E-02</internalNodes><leafValues>2.9325E-02 -5.8790E-01</leafValues></_><_><internalNodes>0 -1 305 -1.9249E-03</internalNodes><leafValues>1.5107E-01 -1.2231E-01</leafValues></_><_><internalNodes>0 -1 729 -4.4266E-03</internalNodes><leafValues>2.6083E-01 -7.3458E-02</leafValues></_><_><internalNodes>0 -1 666 -3.5673E-02</internalNodes><leafValues>-6.6919E-01 2.9961E-02</leafValues></_><_><internalNodes>0 -1 602 -8.5658E-02</internalNodes><leafValues>-5.1538E-01 2.9327E-02</leafValues></_><_><internalNodes>0 -1 348 -3.5127E-02</internalNodes><leafValues>2.3199E-01 -7.9690E-02</leafValues></_><_><internalNodes>0 -1 123 5.8310E-03</internalNodes><leafValues>3.0432E-02 -6.1856E-01</leafValues></_><_><internalNodes>0 -1 22 -4.4557E-03</internalNodes><leafValues>2.6333E-01 -7.0680E-02</leafValues></_><_><internalNodes>0 -1 373 1.2730E-02</internalNodes><leafValues>-6.6051E-02 3.1402E-01</leafValues></_><_><internalNodes>0 -1 498 -4.6875E-03</internalNodes><leafValues>1.9294E-01 -1.0185E-01</leafValues></_><_><internalNodes>0 -1 195 -2.9067E-03</internalNodes><leafValues>1.9944E-01 -9.2276E-02</leafValues></_><_><internalNodes>0 -1 482 -3.1785E-03</internalNodes><leafValues>-4.1009E-01 4.5929E-02</leafValues></_><_><internalNodes>0 -1 618 -3.7227E-03</internalNodes><leafValues>2.2946E-01 -7.6773E-02</leafValues></_></weakClassifiers></_><_><maxWeakCount>100</maxWeakCount><stageThreshold>-1.6429E+00</stageThreshold><weakClassifiers><_><internalNodes>0 -1 777 3.3434E-03</internalNodes><leafValues>7.8418E-02 6.1746E-01</leafValues></_><_><internalNodes>0 -1 171 4.1376E-03</internalNodes><leafValues>-1.0486E-01 4.9715E-01</leafValues></_><_><internalNodes>0 -1 512 -5.4358E-03</internalNodes><leafValues>2.9817E-01 -1.8134E-01</leafValues></_><_><internalNodes>0 -1 734 5.7432E-03</internalNodes><leafValues>-2.1622E-01 2.8317E-01</leafValues></_><_><internalNodes>0 -1 56 -2.2321E-03</internalNodes><leafValues>2.0751E-01 -1.5782E-01</leafValues></_><_><internalNodes>0 -1 113 1.4340E-02</internalNodes><leafValues>-9.7253E-02 4.0868E-01</leafValues></_><_><internalNodes>0 -1 205 -1.1082E-02</internalNodes><leafValues>3.3921E-01 -1.0916E-01</leafValues></_><_><internalNodes>0 -1 332 1.4586E-02</internalNodes><leafValues>-8.6110E-02 3.1800E-01</leafValues></_><_><internalNodes>0 -1 369 -1.6979E-03</internalNodes><leafValues>2.5037E-01 -1.2438E-01</leafValues></_><_><internalNodes>0 -1 708 1.2830E-02</internalNodes><leafValues>5.1119E-02 -5.4143E-01</leafValues></_><_><internalNodes>0 -1 675 -1.6196E-03</internalNodes><leafValues>-5.3632E-01 4.6281E-02</leafValues></_><_><internalNodes>0 -1 897 -2.3190E-03</internalNodes><leafValues>-4.3290E-01 6.0517E-02</leafValues></_><_><internalNodes>0 -1 212 3.5207E-02</internalNodes><leafValues>-9.1207E-02 3.1217E-01</leafValues></_><_><internalNodes>0 -1 763 3.1395E-03</internalNodes><leafValues>-7.8747E-02 3.6260E-01</leafValues></_><_><internalNodes>0 -1 262 1.1298E-02</internalNodes><leafValues>7.4857E-02 -3.7227E-01</leafValues></_><_><internalNodes>0 -1 786 4.6713E-02</internalNodes><leafValues>-9.2496E-02 2.9710E-01</leafValues></_><_><internalNodes>0 -1 323 -6.8689E-02</internalNodes><leafValues>-4.8226E-01 4.9391E-02</leafValues></_><_><internalNodes>0 -1 969 -3.5051E-03</internalNodes><leafValues>-4.8507E-01 4.1722E-02</leafValues></_><_><internalNodes>0 -1 694 1.1047E-02</internalNodes><leafValues>-5.4003E-02 4.2599E-01</leafValues></_><_><internalNodes>0 -1 26 -2.0022E-02</internalNodes><leafValues>-4.3884E-01 4.9610E-02</leafValues></_><_><internalNodes>0 -1 59 1.1851E-02</internalNodes><leafValues>-7.8089E-02 2.7603E-01</leafValues></_><_><internalNodes>0 -1 180 4.1900E-02</internalNodes><leafValues>-9.9448E-02 2.0866E-01</leafValues></_><_><internalNodes>0 -1 590 -2.9065E-02</internalNodes><leafValues>2.9171E-01 -7.3766E-02</leafValues></_><_><internalNodes>0 -1 474 -2.6618E-03</internalNodes><leafValues>-3.2551E-01 7.5278E-02</leafValues></_><_><internalNodes>0 -1 342 3.2253E-03</internalNodes><leafValues>-6.9697E-02 3.1337E-01</leafValues></_><_><internalNodes>0 -1 582 7.8913E-04</internalNodes><leafValues>6.9301E-02 -3.2841E-01</leafValues></_><_><internalNodes>0 -1 287 6.6614E-03</internalNodes><leafValues>4.5366E-02 -4.4649E-01</leafValues></_><_><internalNodes>0 -1 721 1.9417E-03</internalNodes><leafValues>-1.3087E-01 1.5360E-01</leafValues></_><_><internalNodes>0 -1 633 6.0107E-03</internalNodes><leafValues>4.8219E-02 -4.1356E-01</leafValues></_><_><internalNodes>0 -1 267 -6.8208E-04</internalNodes><leafValues>1.6169E-01 -1.2492E-01</leafValues></_><_><internalNodes>0 -1 756 1.0028E-02</internalNodes><leafValues>3.0268E-02 -6.4556E-01</leafValues></_><_><internalNodes>0 -1 948 -6.4139E-03</internalNodes><leafValues>-6.9906E-01 2.3571E-02</leafValues></_><_><internalNodes>0 -1 270 4.4392E-03</internalNodes><leafValues>-5.8655E-02 3.3790E-01</leafValues></_><_><internalNodes>0 -1 556 3.8361E-03</internalNodes><leafValues>3.1548E-02 -6.6295E-01</leafValues></_><_><internalNodes>0 -1 872 -1.0007E-03</internalNodes><leafValues>2.2688E-01 -8.8843E-02</leafValues></_><_><internalNodes>0 -1 928 4.7895E-03</internalNodes><leafValues>3.0279E-02 -6.1570E-01</leafValues></_><_><internalNodes>0 -1 946 5.6278E-03</internalNodes><leafValues>-7.8842E-02 2.4434E-01</leafValues></_><_><internalNodes>0 -1 942 -7.3230E-03</internalNodes><leafValues>3.3266E-01 -6.7664E-02</leafValues></_><_><internalNodes>0 -1 29 -4.5515E-03</internalNodes><leafValues>-4.6473E-01 4.3984E-02</leafValues></_><_><internalNodes>0 -1 293 1.8201E-03</internalNodes><leafValues>-8.1469E-02 2.3861E-01</leafValues></_><_><internalNodes>0 -1 134 -1.1704E-01</internalNodes><leafValues>-6.7044E-01 2.9206E-02</leafValues></_><_><internalNodes>0 -1 314 -5.0898E-03</internalNodes><leafValues>5.1767E-01 -4.1515E-02</leafValues></_><_><internalNodes>0 -1 72 -8.7874E-03</internalNodes><leafValues>-5.2039E-01 4.0999E-02</leafValues></_><_><internalNodes>0 -1 183 -5.6120E-03</internalNodes><leafValues>-7.3375E-01 2.1229E-02</leafValues></_><_><internalNodes>0 -1 244 1.0250E-02</internalNodes><leafValues>2.5667E-02 -6.1356E-01</leafValues></_><_><internalNodes>0 -1 771 -4.8573E-03</internalNodes><leafValues>1.6896E-01 -1.1120E-01</leafValues></_><_><internalNodes>0 -1 312 2.5750E-02</internalNodes><leafValues>3.5605E-02 -5.4536E-01</leafValues></_><_><internalNodes>0 -1 932 4.1080E-03</internalNodes><leafValues>5.0505E-02 -3.3836E-01</leafValues></_><_><internalNodes>0 -1 317 3.9434E-03</internalNodes><leafValues>-8.8689E-02 2.0660E-01</leafValues></_><_><internalNodes>0 -1 553 6.5294E-03</internalNodes><leafValues>-1.2932E-01 1.6515E-01</leafValues></_><_><internalNodes>0 -1 931 2.2269E-02</internalNodes><leafValues>-4.7367E-02 3.8508E-01</leafValues></_><_><internalNodes>0 -1 455 3.5300E-03</internalNodes><leafValues>5.3874E-02 -3.3756E-01</leafValues></_><_><internalNodes>0 -1 286 -2.4763E-02</internalNodes><leafValues>-3.2350E-01 5.6731E-02</leafValues></_><_><internalNodes>0 -1 790 3.1297E-03</internalNodes><leafValues>-6.7191E-02 2.7805E-01</leafValues></_><_><internalNodes>0 -1 621 -1.7004E-03</internalNodes><leafValues>-4.2539E-01 4.3875E-02</leafValues></_><_><internalNodes>0 -1 750 8.3634E-03</internalNodes><leafValues>3.0976E-02 -5.2820E-01</leafValues></_><_><internalNodes>0 -1 473 -8.7769E-04</internalNodes><leafValues>1.9984E-01 -9.0308E-02</leafValues></_><_><internalNodes>0 -1 874 -9.2862E-03</internalNodes><leafValues>-6.9824E-01 2.5734E-02</leafValues></_><_><internalNodes>0 -1 393 -1.1125E-03</internalNodes><leafValues>1.9901E-01 -9.2606E-02</leafValues></_><_><internalNodes>0 -1 575 -3.2134E-03</internalNodes><leafValues>2.3833E-01 -7.1891E-02</leafValues></_><_><internalNodes>0 -1 516 5.9114E-03</internalNodes><leafValues>-6.7414E-02 2.7445E-01</leafValues></_><_><internalNodes>0 -1 615 -4.5189E-03</internalNodes><leafValues>-4.0147E-01 4.4758E-02</leafValues></_><_><internalNodes>0 -1 48 2.8255E-03</internalNodes><leafValues>4.3743E-02 -3.7922E-01</leafValues></_><_><internalNodes>0 -1 637 -2.6064E-03</internalNodes><leafValues>2.0811E-01 -8.2701E-02</leafValues></_><_><internalNodes>0 -1 635 1.0517E-03</internalNodes><leafValues>-8.9636E-02 2.6205E-01</leafValues></_><_><internalNodes>0 -1 453 -1.2205E-03</internalNodes><leafValues>2.0627E-01 -8.6368E-02</leafValues></_><_><internalNodes>0 -1 765 5.0495E-03</internalNodes><leafValues>4.5426E-02 -4.1302E-01</leafValues></_><_><internalNodes>0 -1 440 -3.2243E-03</internalNodes><leafValues>1.4690E-01 -1.2588E-01</leafValues></_><_><internalNodes>0 -1 340 -2.3263E-03</internalNodes><leafValues>-4.1976E-01 4.7925E-02</leafValues></_><_><internalNodes>0 -1 307 -5.4888E-03</internalNodes><leafValues>-4.1800E-01 3.8172E-02</leafValues></_><_><internalNodes>0 -1 628 4.6792E-02</internalNodes><leafValues>-5.7824E-02 3.2189E-01</leafValues></_><_><internalNodes>0 -1 824 2.3481E-03</internalNodes><leafValues>-5.3754E-02 3.0416E-01</leafValues></_><_><internalNodes>0 -1 179 -3.5064E-03</internalNodes><leafValues>-3.8483E-01 4.7024E-02</leafValues></_><_><internalNodes>0 -1 247 1.6757E-03</internalNodes><leafValues>-1.3116E-01 1.6632E-01</leafValues></_><_><internalNodes>0 -1 232 1.1547E-02</internalNodes><leafValues>-5.0142E-02 3.1788E-01</leafValues></_><_><internalNodes>0 -1 504 1.8044E-02</internalNodes><leafValues>2.5008E-02 -7.1256E-01</leafValues></_><_><internalNodes>0 -1 204 -3.1236E-02</internalNodes><leafValues>2.1877E-01 -7.7430E-02</leafValues></_><_><internalNodes>0 -1 248 9.7836E-03</internalNodes><leafValues>-5.6041E-02 2.7670E-01</leafValues></_><_><internalNodes>0 -1 341 2.8906E-03</internalNodes><leafValues>5.1800E-02 -3.1925E-01</leafValues></_><_><internalNodes>0 -1 436 7.8793E-03</internalNodes><leafValues>-6.0856E-02 2.8146E-01</leafValues></_><_><internalNodes>0 -1 717 1.3523E-02</internalNodes><leafValues>2.4504E-02 -7.2409E-01</leafValues></_><_><internalNodes>0 -1 966 3.1049E-03</internalNodes><leafValues>4.5726E-02 -3.3752E-01</leafValues></_><_><internalNodes>0 -1 808 -1.0648E-02</internalNodes><leafValues>-5.4894E-01 2.8428E-02</leafValues></_><_><internalNodes>0 -1 49 -4.8104E-03</internalNodes><leafValues>2.0432E-01 -8.2249E-02</leafValues></_><_><internalNodes>0 -1 4 2.7336E-02</internalNodes><leafValues>-6.7068E-02 2.3702E-01</leafValues></_><_><internalNodes>0 -1 940 -1.7123E-01</internalNodes><leafValues>5.2998E-01 -3.1578E-02</leafValues></_><_><internalNodes>0 -1 781 -4.3723E-03</internalNodes><leafValues>2.8746E-01 -5.7619E-02</leafValues></_><_><internalNodes>0 -1 743 6.7969E-03</internalNodes><leafValues>-6.3941E-02 2.5016E-01</leafValues></_><_><internalNodes>0 -1 47 -1.6303E-03</internalNodes><leafValues>-2.6191E-01 6.1918E-02</leafValues></_><_><internalNodes>0 -1 712 1.7954E-03</internalNodes><leafValues>-5.3177E-02 3.0020E-01</leafValues></_><_><internalNodes>0 -1 311 6.2260E-03</internalNodes><leafValues>3.1049E-02 -5.6447E-01</leafValues></_><_><internalNodes>0 -1 712 -1.4370E-03</internalNodes><leafValues>1.8240E-01 -8.9968E-02</leafValues></_><_><internalNodes>0 -1 226 -9.0678E-03</internalNodes><leafValues>-6.3961E-01 2.3405E-02</leafValues></_><_><internalNodes>0 -1 604 -8.2532E-03</internalNodes><leafValues>-5.9389E-01 2.3573E-02</leafValues></_><_><internalNodes>0 -1 573 -2.2232E-03</internalNodes><leafValues>1.9481E-01 -8.3373E-02</leafValues></_><_><internalNodes>0 -1 355 -6.5612E-03</internalNodes><leafValues>-4.2600E-01 3.7793E-02</leafValues></_><_><internalNodes>0 -1 571 1.2283E-03</internalNodes><leafValues>-8.5199E-02 1.9754E-01</leafValues></_><_><internalNodes>0 -1 162 -1.0269E-01</internalNodes><leafValues>-3.9635E-01 4.0691E-02</leafValues></_><_><internalNodes>0 -1 711 -1.5864E-02</internalNodes><leafValues>1.9112E-01 -8.7621E-02</leafValues></_><_><internalNodes>0 -1 715 4.8305E-04</internalNodes><leafValues>-1.2652E-01 1.5627E-01</leafValues></_></weakClassifiers></_><_><maxWeakCount>100</maxWeakCount><stageThreshold>-1.5192E+00</stageThreshold><weakClassifiers><_><internalNodes>0 -1 563 -7.2760E-03</internalNodes><leafValues>6.4158E-01 1.0702E-01</leafValues></_><_><internalNodes>0 -1 713 -3.8209E-03</internalNodes><leafValues>4.9172E-01 -9.4504E-02</leafValues></_><_><internalNodes>0 -1 817 3.4226E-03</internalNodes><leafValues>-1.3256E-01 3.2899E-01</leafValues></_><_><internalNodes>0 -1 384 3.3628E-03</internalNodes><leafValues>-1.6529E-01 3.8906E-01</leafValues></_><_><internalNodes>0 -1 400 4.2875E-03</internalNodes><leafValues>6.4744E-02 -4.9828E-01</leafValues></_><_><internalNodes>0 -1 462 -3.3541E-03</internalNodes><leafValues>1.6614E-01 -1.8601E-01</leafValues></_><_><internalNodes>0 -1 683 -1.8176E-03</internalNodes><leafValues>2.6611E-01 -1.1267E-01</leafValues></_><_><internalNodes>0 -1 268 -2.2096E-02</internalNodes><leafValues>3.2449E-01 -8.3372E-02</leafValues></_><_><internalNodes>0 -1 751 5.8037E-03</internalNodes><leafValues>-1.2336E-01 