<?xml version="1.0"?>
<!--
    Stump-based 20x20 gentle adaboost frontal face detector.
    This detector uses tree of stage classifiers instead of a cascade
    Created by Rainer Lienhart.
    Minified by Satya Mallick (http://www.learnopencv.com)
 
////////////////////////////////////////////////////////////////////////////////////////

  IMPORTANT: READ BEFORE DOWNLOADING, COPYING, INSTALLING OR USING.

  By downloading, copying, installing or using the software you agree to this license.
  If you do not agree to this license, do not download, install,
  copy or use the software.


                        Intel License Agreement
                For Open Source Computer Vision Library

 Copyright (C) 2000, Intel Corporation, all rights reserved.
 Third party copyrights are property of their respective owners.

 Redistribution and use in source and binary forms, with or without modification,
 are permitted provided that the following conditions are met:

   * Redistribution's of source code must retain the above copyright notice,
     this list of conditions and the following disclaimer.

   * Redistribution's in binary form must reproduce the above copyright notice,
     this list of conditions and the following disclaimer in the documentation
     and/or other materials provided with the distribution.

   * The name of Intel Corporation may not be used to endorse or promote products
     derived from this software without specific prior written permission.

 This software is provided by the copyright holders and contributors "as is" and
 any express or implied warranties, including, but not limited to, the implied
 warranties of merchantability and fitness for a particular purpose are disclaimed.
 In no event shall the Intel Corporation or contributors be liable for any direct,
 indirect, incidental, special, exemplary, or consequential damages
 (including, but not limited to, procurement of substitute goods or services;
 loss of use, data, or profits; or business interruption) however caused
 and on any theory of liability, whether in contract, strict liability,
 or tort (including negligence or otherwise) arising in any way out of
 the use of this software, even if advised of the possibility of such damage.
-->
<opencv_storage>
    <cascade type_id="opencv-cascade-classifier"><stageType>BOOST</stageType><featureType>HAAR</featureType><height>20</height><width>20</width><stageParams><maxWeakCount>406</maxWeakCount></stageParams><featureParams><maxCatCount>0</maxCatCount></featureParams><stageNum>47</stageNum><stages><_><maxWeakCount>3</maxWeakCount><stageThreshold>-1.3443E+00</stageThreshold><weakClassifiers><_><internalNodes>0 -1 0 3.7896E-03</internalNodes><leafValues>-9.2946E-01 6.4120E-01</leafValues></_><_><internalNodes>0 -1 1 1.2098E-02</internalNodes><leafValues>-7.1810E-01 4.7141E-01</leafValues></_><_><internalNodes>0 -1 2 1.2138E-03</internalNodes><leafValues>-7.2832E-01 3.0331E-01</leafValues></_></weakClassifiers></_><_><maxWeakCount>9</maxWeakCount><stageThreshold>-1.6379E+00</stageThreshold><weakClassifiers><_><internalNodes>0 -1 3 8.7511E-03</internalNodes><leafValues>-8.5947E-01 3.6881E-01</leafValues></_><_><internalNodes>0 -1 4 2.1987E-02</internalNodes><leafValues>-6.0180E-01 3.2898E-01</leafValues></_><_><internalNodes>0 -1 5 6.4913E-04</internalNodes><leafValues>-7.9432E-01 2.5493E-01</leafValues></_><_><internalNodes>0 -1 6 -1.0192E-03</internalNodes><leafValues>2.2729E-01 -6.3628E-01</leafValues></_><_><internalNodes>0 -1 7 1.3675E-03</internalNodes><leafValues>-6.0014E-01 2.4118E-01</leafValues></_><_><internalNodes>0 -1 8 1.0245E-03</internalNodes><leafValues>-5.8542E-01 1.2550E-01</leafValues></_><_><internalNodes>0 -1 9 1.8466E-02</internalNodes><leafValues>1.9564E-01 -6.7630E-01</leafValues></_><_><internalNodes>0 -1 10 4.0902E-03</internalNodes><leafValues>-4.4916E-01 2.6678E-01</leafValues></_><_><internalNodes>0 -1 11 1.1358E-02</internalNodes><leafValues>1.8783E-01 -6.1379E-01</leafValues></_></weakClassifiers></_><_><maxWeakCount>16</maxWeakCount><stageThreshold>-1.7318E+00</stageThreshold><weakClassifiers><_><internalNodes>0 -1 12 -1.1589E-02</internalNodes><leafValues>3.4567E-01 -7.6479E-01</leafValues></_><_><internalNodes>0 -1 13 5.1810E-03</internalNodes><leafValues>2.4105E-01 -6.9624E-01</leafValues></_><_><internalNodes>0 -1 14 2.1469E-03</internalNodes><leafValues>-8.0554E-01 1.9839E-01</leafValues></_><_><internalNodes>0 -1 15 -3.6556E-03</internalNodes><leafValues>-7.1833E-01 1.2306E-01</leafValues></_><_><internalNodes>0 -1 16 -1.9702E-03</internalNodes><leafValues>2.2778E-01 -4.7520E-01</leafValues></_><_><internalNodes>0 -1 17 -3.3646E-03</internalNodes><leafValues>-4.6095E-01 2.0395E-01</leafValues></_><_><internalNodes>0 -1 18 -7.4126E-05</internalNodes><leafValues>1.8213E-01 -4.7829E-01</leafValues></_><_><internalNodes>0 -1 19 -1.7571E-02</internalNodes><leafValues>-7.1738E-01 1.1311E-01</leafValues></_><_><internalNodes>0 -1 20 6.3840E-03</internalNodes><leafValues>-4.0206E-01 2.0730E-01</leafValues></_><_><internalNodes>0 -1 21 -1.4723E-02</internalNodes><leafValues>-6.7559E-01 6.8973E-02</leafValues></_><_><internalNodes>0 -1 22 -5.2889E-03</internalNodes><leafValues>-6.2105E-01 1.3349E-01</leafValues></_><_><internalNodes>0 -1 23 2.7744E-02</internalNodes><leafValues>1.1761E-01 -5.4641E-01</leafValues></_><_><internalNodes>0 -1 24 3.9428E-02</internalNodes><leafValues>-2.1134E-01 3.9453E-01</leafValues></_><_><internalNodes>0 -1 25 8.6949E-03</internalNodes><leafValues>1.2581E-01 -4.7989E-01</leafValues></_><_><internalNodes>0 -1 26 2.8245E-03</internalNodes><leafValues>1.9653E-01 -4.0257E-01</leafValues></_><_><internalNodes>0 -1 27 -2.8915E-02</internalNodes><leafValues>-8.0617E-01 8.1882E-02</leafValues></_></weakClassifiers></_><_><maxWeakCount>29</maxWeakCount><stageThreshold>-1.9308E+00</stageThreshold><weakClassifiers><_><internalNodes>0 -1 28 8.0172E-03</internalNodes><leafValues>-6.8982E-01 2.4137E-01</leafValues></_><_><internalNodes>0 -1 29 -2.4479E-03</internalNodes><leafValues>2.1353E-01 -6.4147E-01</leafValues></_><_><internalNodes>0 -1 30 1.7918E-03</internalNodes><leafValues>-6.1445E-01 1.9237E-01</leafValues></_><_><internalNodes>0 -1 31 4.3906E-04</internalNodes><leafValues>-7.5360E-01 1.5697E-01</leafValues></_><_><internalNodes>0 -1 32 -3.6770E-04</internalNodes><leafValues>1.7381E-01 -5.8404E-01</leafValues></_><_><internalNodes>0 -1 33 -4.2802E-03</internalNodes><leafValues>-6.6969E-01 1.1290E-01</leafValues></_><_><internalNodes>0 -1 34 3.5239E-03</internalNodes><leafValues>1.2502E-01 -7.3299E-01</leafValues></_><_><internalNodes>0 -1 35 7.9300E-04</internalNodes><leafValues>-4.4966E-01 2.1591E-01</leafValues></_><_><internalNodes>0 -1 36 4.4371E-04</internalNodes><leafValues>-3.8910E-01 2.1181E-01</leafValues></_><_><internalNodes>0 -1 37 -2.7145E-03</internalNodes><leafValues>-4.6717E-01 1.5038E-01</leafValues></_><_><internalNodes>0 -1 38 -6.9272E-04</internalNodes><leafValues>-5.8597E-01 1.1714E-01</leafValues></_><_><internalNodes>0 -1 39 4.9262E-02</internalNodes><leafValues>-1.3800E-01 4.9366E-01</leafValues></_><_><internalNodes>0 -1 40 -2.2838E-02</internalNodes><leafValues>-6.3744E-01 1.2324E-01</leafValues></_><_><internalNodes>0 -1 41 4.8372E-03</internalNodes><leafValues>-1.2392E-01 1.0621E-01</leafValues></_><_><internalNodes>0 -1 42 1.0256E-02</internalNodes><leafValues>-1.8767E-01 2.9824E-01</leafValues></_><_><internalNodes>0 -1 43 1.0619E-02</internalNodes><leafValues>1.0612E-01 -3.3245E-01</leafValues></_><_><internalNodes>0 -1 44 2.4113E-02</internalNodes><leafValues>8.7201E-02 -6.6847E-01</leafValues></_><_><internalNodes>0 -1 45 -3.6755E-03</internalNodes><leafValues>1.1043E-01 -4.4582E-01</leafValues></_><_><internalNodes>0 -1 46 -3.8996E-02</internalNodes><leafValues>-7.0228E-01 8.1809E-02</leafValues></_><_><internalNodes>0 -1 47 1.5777E-03</internalNodes><leafValues>1.5954E-01 -3.2861E-01</leafValues></_><_><internalNodes>0 -1 48 9.1089E-03</internalNodes><leafValues>1.0326E-01 -4.4403E-01</leafValues></_><_><internalNodes>0 -1 49 -1.7052E-02</internalNodes><leafValues>-5.5853E-01 6.2711E-02</leafValues></_><_><internalNodes>0 -1 50 1.3653E-03</internalNodes><leafValues>-5.3934E-01 7.0840E-02</leafValues></_><_><internalNodes>0 -1 51 -1.1186E-02</internalNodes><leafValues>-4.7260E-01 8.1019E-02</leafValues></_><_><internalNodes>0 -1 52 -1.1705E-02</internalNodes><leafValues>2.4750E-01 -1.7779E-01</leafValues></_><_><internalNodes>0 -1 53 -9.7737E-02</internalNodes><leafValues>-5.6178E-01 8.0922E-02</leafValues></_><_><internalNodes>0 -1 54 -8.5228E-02</internalNodes><leafValues>-5.2233E-01 7.2821E-02</leafValues></_><_><internalNodes>0 -1 55 -3.6733E-02</internalNodes><leafValues>4.3624E-01 -9.9340E-02</leafValues></_><_><internalNodes>0 -1 56 -3.6704E-03</internalNodes><leafValues>1.4834E-01 -2.7120E-01</leafValues></_></weakClassifiers></_><_><maxWeakCount>36</maxWeakCount><stageThreshold>-2.0711E+00</stageThreshold><weakClassifiers><_><internalNodes>0 -1 57 -1.1610E-03</internalNodes><leafValues>-5.6378E-01 2.3569E-01</leafValues></_><_><internalNodes>0 -1 58 1.1830E-03</internalNodes><leafValues>1.5724E-01 -6.7728E-01</leafValues></_><_><internalNodes>0 -1 59 -2.1274E-03</internalNodes><leafValues>-6.6150E-01 1.4943E-01</leafValues></_><_><internalNodes>0 -1 60 -1.1893E-01</internalNodes><leafValues>5.3226E-01 -2.2968E-01</leafValues></_><_><internalNodes>0 -1 61 -1.3625E-02</internalNodes><leafValues>-6.0636E-01 1.7001E-01</leafValues></_><_><internalNodes>0 -1 62 -6.3199E-04</internalNodes><leafValues>-6.8972E-01 1.1585E-01</leafValues></_><_><internalNodes>0 -1 63 -4.4108E-03</internalNodes><leafValues>-6.2967E-01 1.2431E-01</leafValues></_><_><internalNodes>0 -1 64 -2.2982E-02</internalNodes><leafValues>-5.0497E-01 1.6636E-02</leafValues></_><_><internalNodes>0 -1 65 -2.3722E-03</internalNodes><leafValues>-6.2462E-01 1.3794E-01</leafValues></_><_><internalNodes>0 -1 66 8.7365E-03</internalNodes><leafValues>1.3997E-01 -5.4823E-01</leafValues></_><_><internalNodes>0 -1 67 6.7737E-02</internalNodes><leafValues>-1.9172E-01 5.4700E-01</leafValues></_><_><internalNodes>0 -1 68 -4.0138E-03</internalNodes><leafValues>-5.5429E-01 1.4517E-01</leafValues></_><_><internalNodes>0 -1 69 1.2857E-04</internalNodes><leafValues>-5.1031E-01 1.1024E-01</leafValues></_><_><internalNodes>0 -1 70 -3.9689E-02</internalNodes><leafValues>-6.1831E-01 9.6676E-02</leafValues></_><_><internalNodes>0 -1 71 -1.6646E-03</internalNodes><leafValues>1.6450E-01 -3.7186E-01</leafValues></_><_><internalNodes>0 -1 72 5.3499E-03</internalNodes><leafValues>1.1145E-01 -3.7441E-01</leafValues></_><_><internalNodes>0 -1 73 -2.2904E-02</internalNodes><leafValues>-5.8098E-01 1.1077E-01</leafValues></_><_><internalNodes>0 -1 74 1.0703E-02</internalNodes><leafValues>4.4733E-02 -5.8117E-01</leafValues></_><_><internalNodes>0 -1 75 -4.2332E-04</internalNodes><leafValues>-5.4424E-01 8.7089E-02</leafValues></_><_><internalNodes>0 -1 76 1.5554E-02</internalNodes><leafValues>5.6884E-02 -3.7645E-01</leafValues></_><_><internalNodes>0 -1 77 -2.0539E-02</internalNodes><leafValues>-3.8715E-01 1.1834E-01</leafValues></_><_><internalNodes>0 -1 78 -3.1234E-03</internalNodes><leafValues>8.3635E-02 -1.9862E-01</leafValues></_><_><internalNodes>0 -1 79 2.3933E-02</internalNodes><leafValues>7.9601E-02 -6.5370E-01</leafValues></_><_><internalNodes>0 -1 80 8.3920E-02</internalNodes><leafValues>-1.0653E-01 4.8773E-01</leafValues></_><_><internalNodes>0 -1 81 1.6003E-02</internalNodes><leafValues>8.3643E-02 -5.9208E-01</leafValues></_><_><internalNodes>0 -1 82 5.8071E-03</internalNodes><leafValues>8.7998E-02 -3.3279E-01</leafValues></_><_><internalNodes>0 -1 83 -8.1104E-02</internalNodes><leafValues>6.3775E-01 -6.7692E-02</leafValues></_><_><internalNodes>0 -1 84 4.5403E-02</internalNodes><leafValues>-5.1510E-02 3.0226E-01</leafValues></_><_><internalNodes>0 -1 85 1.3877E-02</internalNodes><leafValues>9.9968E-02 -4.6521E-01</leafValues></_><_><internalNodes>0 -1 86 3.4591E-02</internalNodes><leafValues>-9.7614E-02 3.4679E-01</leafValues></_><_><internalNodes>0 -1 87 1.5705E-02</internalNodes><leafValues>7.6344E-02 -5.3356E-01</leafValues></_><_><internalNodes>0 -1 88 -1.0421E-01</internalNodes><leafValues>6.1891E-01 -4.4260E-02</leafValues></_><_><internalNodes>0 -1 89 1.3443E-01</internalNodes><leafValues>-5.9853E-02 6.3636E-01</leafValues></_><_><internalNodes>0 -1 90 -2.5646E-03</internalNodes><leafValues>-5.3600E-01 7.3116E-02</leafValues></_><_><internalNodes>0 -1 91 1.8647E-02</internalNodes><leafValues>6.9856E-02 -5.6878E-01</leafValues></_><_><internalNodes>0 -1 92 1.5160E-02</internalNodes><leafValues>1.8206E-02 -2.7663E-01</leafValues></_></weakClassifiers></_><_><maxWeakCount>7</maxWeakCount><stageThreshold>-2.1361E+00</stageThreshold><weakClassifiers><_><internalNodes>0 -1 93 1.4778E-01</internalNodes><leafValues>-8.9933E-01 5.7036E-01</leafValues></_><_><internalNodes>0 -1 94 2.9985E-01</internalNodes><leafValues>-6.5394E-01 3.5054E-01</leafValues></_><_><internalNodes>0 -1 95 -7.9062E-02</internalNodes><leafValues>4.4085E-01 -6.5088E-01</leafValues></_><_><internalNodes>0 -1 96 5.8429E-02</internalNodes><leafValues>-4.2665E-01 5.8411E-01</leafValues></_><_><internalNodes>0 -1 97 -1.4664E-02</internalNodes><leafValues>3.2435E-01 -5.9660E-01</leafValues></_><_><internalNodes>0 -1 98 3.9517E-01</internalNodes><leafValues>-7.5798E-02 4.8660E-01</leafValues></_><_><internalNodes>0 -1 99 1.1041E-01</internalNodes><leafValues>-8.4556E-01 2.1375E-01</leafValues></_></weakClassifiers></_><_><maxWeakCount>50</maxWeakCount><stageThreshold>-1.8756E+00</stageThreshold><weakClassifiers><_><internalNodes>0 -1 100 3.7777E-03</internalNodes><leafValues>1.8744E-01 -6.5354E-01</leafValues></_><_><internalNodes>0 -1 101 5.3003E-03</internalNodes><leafValues>9.3952E-02 -5.6918E-01</leafValues></_><_><internalNodes>0 -1 102 -5.5426E-03</internalNodes><leafValues>1.6032E-01 -5.1822E-01</leafValues></_><_><internalNodes>0 -1 103 -9.1972E-03</internalNodes><leafValues>-5.7420E-01 1.4791E-01</leafValues></_><_><internalNodes>0 -1 104 5.3702E-04</internalNodes><leafValues>-7.0450E-01 1.0752E-01</leafValues></_><_><internalNodes>0 -1 105 -2.2125E-03</internalNodes><leafValues>-5.0877E-01 1.1367E-01</leafValues></_><_><internalNodes>0 -1 106 1.1676E-02</internalNodes><leafValues>8.4259E-02 -6.7385E-01</leafValues></_><_><internalNodes>0 -1 107 -2.0404E-03</internalNodes><leafValues>1.6251E-01 -4.1436E-01</leafValues></_><_><internalNodes>0 -1 108 -7.6540E-03</internalNodes><leafValues>-4.2833E-01 1.3061E-01</leafValues></_><_><internalNodes>0 -1 109 2.9370E-02</internalNodes><leafValues>5.4651E-02 -3.4795E-01</leafValues></_><_><internalNodes>0 -1 110 -9.5829E-03</internalNodes><leafValues>-4.8621E-01 1.1707E-01</leafValues></_><_><internalNodes>0 -1 111 6.0666E-03</internalNodes><leafValues>-3.6554E-01 8.7814E-02</leafValues></_><_><internalNodes>0 -1 112 1.7992E-03</internalNodes><leafValues>1.6036E-01 -3.0859E-01</leafValues></_><_><internalNodes>0 -1 113 -1.0092E-02</internalNodes><leafValues>-3.9506E-01 1.1515E-01</leafValues></_><_><internalNodes>0 -1 114 2.5172E-03</internalNodes><leafValues>-3.0043E-01 1.8256E-01</leafValues></_><_><internalNodes>0 -1 115 -1.7089E-02</internalNodes><leafValues>-5.2174E-01 9.7457E-02</leafValues></_><_><internalNodes>0 -1 116 -5.5856E-02</internalNodes><leafValues>5.3540E-01 -8.9222E-02</leafValues></_><_><internalNodes>0 -1 117 -2.3931E-03</internalNodes><leafValues>-4.7012E-01 8.6141E-02</leafValues></_><_><internalNodes>0 -1 118 3.6919E-03</internalNodes><leafValues>-2.7756E-01 1.5186E-01</leafValues></_><_><internalNodes>0 -1 119 2.1946E-03</internalNodes><leafValues>-1.6867E-01 1.1953E-01</leafValues></_><_><internalNodes>0 -1 120 2.9675E-03</internalNodes><leafValues>-3.8941E-01 1.0389E-01</leafValues></_><_><internalNodes>0 -1 121 1.9977E-03</internalNodes><leafValues>9.1141E-02 -4.1050E-01</leafValues></_><_><internalNodes>0 -1 122 -2.0370E-02</internalNodes><leafValues>-5.9969E-01 6.9302E-02</leafValues></_><_><internalNodes>0 -1 123 2.3319E-03</internalNodes><leafValues>6.1893E-02 -3.2887E-01</leafValues></_><_><internalNodes>0 -1 124 -4.2864E-02</internalNodes><leafValues>-7.3845E-01 5.7072E-02</leafValues></_><_><internalNodes>0 -1 125 1.1472E-03</internalNodes><leafValues>-5.1380E-01 7.1196E-02</leafValues></_><_><internalNodes>0 -1 126 -1.3736E-02</internalNodes><leafValues>-5.3786E-01 6.5542E-02</leafValues></_><_><internalNodes>0 -1 127 4.7166E-02</internalNodes><leafValues>4.5389E-02 -6.8945E-01</leafValues></_><_><internalNodes>0 -1 128 -1.1205E-02</internalNodes><leafValues>1.6933E-01 -2.3062E-01</leafValues></_><_><internalNodes>0 -1 129 -1.5478E-01</internalNodes><leafValues>-7.7705E-01 1.2142E-02</leafValues></_><_><internalNodes>0 -1 130 5.8086E-03</internalNodes><leafValues>1.1318E-01 -3.3206E-01</leafValues></_><_><internalNodes>0 -1 131 -2.8530E-02</internalNodes><leafValues>-5.6747E-01 4.8735E-02</leafValues></_><_><internalNodes>0 -1 132 -3.8759E-02</internalNodes><leafValues>5.9423E-01 -7.5139E-02</leafValues></_><_><internalNodes>0 -1 133 3.1038E-02</internalNodes><leafValues>5.1974E-02 -5.8553E-01</leafValues></_><_><internalNodes>0 -1 134 7.4786E-06</internalNodes><leafValues>-2.7623E-01 1.4088E-01</leafValues></_><_><internalNodes>0 -1 135 3.1000E-02</internalNodes><leafValues>3.1332E-02 -5.6860E-01</leafValues></_><_><internalNodes>0 -1 136 -4.9861E-02</internalNodes><leafValues>-8.2925E-01 3.8802E-02</leafValues></_><_><internalNodes>0 -1 137 -4.2323E-02</internalNodes><leafValues>-4.3062E-01 1.6579E-02</leafValues></_><_><internalNodes>0 -1 138 9.1987E-04</internalNodes><leafValues>-2.1154E-01 1.5518E-01</leafValues></_><_><internalNodes>0 -1 139 2.0560E-01</internalNodes><leafValues>-6.2403E-02 3.2230E-01</leafValues></_><_><internalNodes>0 -1 140 2.9118E-01</internalNodes><leafValues>3.9228E-02 -9.4128E-01</leafValues></_><_><internalNodes>0 -1 141 7.8338E-03</internalNodes><leafValues>-1.4807E-01 1.7849E-01</leafValues></_><_><internalNodes>0 -1 142 1.1393E-02</internalNodes><leafValues>7.7988E-02 -4.2424E-01</leafValues></_><_><internalNodes>0 -1 143 -9.1807E-02</internalNodes><leafValues>3.3689E-01 -5.6174E-02</leafValues></_><_><internalNodes>0 -1 144 -1.6038E-02</internalNodes><leafValues>-2.4954E-01 1.4571E-01</leafValues></_><_><internalNodes>0 -1 145 5.4830E-02</internalNodes><leafValues>-1.5496E-01 2.0330E-01</leafValues></_><_><internalNodes>0 -1 146 2.4450E-02</internalNodes><leafValues>6.0974E-02 -6.3072E-01</leafValues></_><_><internalNodes>0 -1 147 2.9261E-02</internalNodes><leafValues>4.6834E-02 -3.7985E-01</leafValues></_><_><internalNodes>0 -1 148 3.9966E-03</internalNodes><leafValues>-1.6927E-01 1.9100E-01</leafValues></_><_><internalNodes>0 -1 149 -6.9939E-02</internalNodes><leafValues>5.4656E-01 -5.4966E-02</leafValues></_></weakClassifiers></_><_><maxWeakCount>25</maxWeakCount><stageThreshold>-1.9646E+00</stageThreshold><weakClassifiers><_><internalNodes>0 -1 150 4.5836E-02</internalNodes><leafValues>-4.9983E-01 4.0961E-01</leafValues></_><_><internalNodes>0 -1 151 2.6363E-02</internalNodes><leafValues>-3.9193E-01 5.1568E-01</leafValues></_><_><internalNodes>0 -1 152 1.5190E-02</internalNodes><leafValues>-5.2216E-01 3.1368E-01</leafValues></_><_><internalNodes>0 -1 153 -2.0805E-02</internalNodes><leafValues>3.7614E-01 -4.7376E-01</leafValues></_><_><internalNodes>0 -1 154 -7.4903E-03</internalNodes><leafValues>1.6283E-01 -7.0384E-01</leafValues></_><_><internalNodes>0 -1 155 2.7719E-01</internalNodes><leafValues>-1.6404E-01 3.3482E-01</leafValues></_><_><internalNodes>0 -1 156 6.4188E-02</internalNodes><leafValues>-8.0177E-01 1.2764E-01</leafValues></_><_><internalNodes>0 -1 157 4.0668E-02</internalNodes><leafValues>-3.3387E-01 2.8456E-01</leafValues></_><_><internalNodes>0 -1 158 7.4888E-03</internalNodes><leafValues>-3.7189E-01 2.5932E-01</leafValues></_><_><internalNodes>0 -1 159 6.4943E-02</internalNodes><leafValues>1.0373E-01 -7.1671E-01</leafValues></_><_><internalNodes>0 -1 160 -2.1150E-03</internalNodes><leafValues>-7.5684E-01 7.9020E-02</leafValues></_><_><internalNodes>0 -1 161 -4.8293E-04</internalNodes><leafValues>-4.9852E-01 8.1111E-02</leafValues></_><_><internalNodes>0 -1 162 1.3996E-01</internalNodes><leafValues>8.7498E-02 -7.6389E-01</leafValues></_><_><internalNodes>0 -1 163 5.2212E-02</internalNodes><leafValues>3.1640E-02 -5.3281E-01</leafValues></_><_><internalNodes>0 -1 164 3.0680E-03</internalNodes><leafValues>-6.2459E-01 1.3870E-01</leafValues></_><_><internalNodes>0 -1 165 5.0479E-02</internalNodes><leafValues>7.9063E-02 -7.4017E-01</leafValues></_><_><internalNodes>0 -1 166 -8.5122E-03</internalNodes><leafValues>-4.9972E-01 1.1132E-01</leafValues></_><_><internalNodes>0 -1 167 7.0092E-02</internalNodes><leafValues>9.7082E-02 -6.1879E-01</leafValues></_><_><internalNodes>0 -1 168 -2.7261E-03</internalNodes><leafValues>9.7547E-02 -5.7760E-01</leafValues></_><_><internalNodes>0 -1 169 1.0677E-02</internalNodes><leafValues>-2.9058E-01 1.8426E-01</leafValues></_><_><internalNodes>0 -1 170 6.3849E-04</internalNodes><leafValues>1.3870E-01 -4.2547E-01</leafValues></_><_><internalNodes>0 -1 171 -4.7957E-02</internalNodes><leafValues>-7.3249E-01 4.1188E-02</leafValues></_><_><internalNodes>0 -1 172 1.7140E-02</internalNodes><leafValues>-3.1973E-01 1.6840E-01</leafValues></_><_><internalNodes>0 -1 173 7.8545E-02</internalNodes><leafValues>5.0053E-02 -7.1410E-01</leafValues></_><_><internalNodes>0 -1 174 -1.1343E-02</internalNodes><leafValues>-3.8811E-01 1.2976E-01</leafValues></_></weakClassifiers></_><_><maxWeakCount>53</maxWeakCount><stageThreshold>-2.1223E+00</stageThreshold><weakClassifiers><_><internalNodes>0 -1 175 -8.6752E-05</internalNodes><leafValues>2.5180E-01 -6.7723E-01</leafValues></_><_><internalNodes>0 -1 176 2.0550E-01</internalNodes><leafValues>2.0217E-02 -3.3618E-01</leafValues></_><_><internalNodes>0 -1 177 1.3893E-01</internalNodes><leafValues>1.0678E-01 -8.6710E-01</leafValues></_><_><internalNodes>0 -1 178 2.6432E-03</internalNodes><leafValues>-4.1057E-01 2.5604E-01</leafValues></_><_><internalNodes>0 -1 179 -1.6145E-03</internalNodes><leafValues>1.7448E-01 -5.0290E-01</leafValues></_><_><internalNodes>0 -1 180 -4.6493E-03</internalNodes><leafValues>-8.3961E-01 1.0410E-01</leafValues></_><_><internalNodes>0 -1 181 -5.5984E-03</internalNodes><leafValues>-5.2673E-01 1.2114E-01</leafValues></_><_><internalNodes>0 -1 182 2.1483E-03</internalNodes><leafValues>8.6832E-02 -5.2385E-01</leafValues></_><_><internalNodes>0 -1 183 -2.2942E-03</internalNodes><leafValues>1.5667E-01 -3.9388E-01</leafValues></_><_><internalNodes>0 -1 184 -1.0810E-03</internalNodes><leafValues>9.4778E-02 -5.7968E-01</leafValues></_><_><internalNodes>0 -1 185 -1.8740E-02</internalNodes><leafValues>-4.3781E-01 1.2754E-01</leafValues></_><_><internalNodes>0 -1 186 -2.0957E-03</internalNodes><leafValues>2.1276E-01 -1.7646E-01</leafValues></_><_><internalNodes>0 -1 187 -6.1370E-02</internalNodes><leafValues>-6.7008E-01 8.5291E-02</leafValues></_><_><internalNodes>0 -1 188 -4.5075E-02</internalNodes><leafValues>-4.7614E-01 3.8384E-02</leafValues></_><_><internalNodes>0 -1 189 4.5961E-03</internalNodes><leafValues>9.0777E-02 -5.3642E-01</leafValues></_><_><internalNodes>0 -1 190 -5.6205E-02</internalNodes><leafValues>-4.4128E-01 2.6341E-02</leafValues></_><_><internalNodes>0 -1 191 -1.7070E-02</internalNodes><leafValues>3.1963E-01 -1.5699E-01</leafValues></_><_><internalNodes>0 -1 192 1.3779E-02</internalNodes><leafValues>-4.1468E-01 1.0832E-01</leafValues></_><_><internalNodes>0 -1 193 5.6932E-03</internalNodes><leafValues>1.0973E-01 -4.1421E-01</leafValues></_><_><internalNodes>0 -1 194 1.1573E-03</internalNodes><leafValues>-4.6996E-01 1.4088E-01</leafValues></_><_><internalNodes>0 -1 195 -4.3259E-05</internalNodes><leafValues>-5.9117E-01 7.2209E-02</leafValues></_><_><internalNodes>0 -1 196 -1.4468E-04</internalNodes><leafValues>1.4341E-01 -2.0809E-01</leafValues></_><_><internalNodes>0 -1 197 -3.0668E-02</internalNodes><leafValues>-6.4182E-01 7.6316E-02</leafValues></_><_><internalNodes>0 -1 198 6.4002E-03</internalNodes><leafValues>-1.5426E-01 2.0619E-01</leafValues></_><_><internalNodes>0 -1 199 2.7319E-03</internalNodes><leafValues>-1.8429E-01 2.2046E-01</leafValues></_><_><internalNodes>0 -1 200 -4.1760E-02</internalNodes><leafValues>5.1285E-01 -4.3097E-02</leafValues></_><_><internalNodes>0 -1 201 -3.0174E-02</internalNodes><leafValues>-3.6135E-01 1.1633E-01</leafValues></_><_><internalNodes>0 -1 202 6.8082E-03</internalNodes><leafValues>-2.5953E-01 1.4927E-01</leafValues></_><_><internalNodes>0 -1 203 4.3430E-02</internalNodes><leafValues>6.8601E-02 -5.8221E-01</leafValues></_><_><internalNodes>0 -1 204 2.1121E-02</internalNodes><leafValues>-8.5373E-02 8.0499E-02</leafValues></_><_><internalNodes>0 -1 205 9.9840E-02</internalNodes><leafValues>5.3293E-02 -7.1820E-01</leafValues></_><_><internalNodes>0 -1 206 5.6954E-03</internalNodes><leafValues>-8.8976E-02 1.3484E-01</leafValues></_><_><internalNodes>0 -1 207 -5.9985E-02</internalNodes><leafValues>6.8324E-01 -5.1916E-02</leafValues></_><_><internalNodes>0 -1 208 5.9353E-03</internalNodes><leafValues>1.0305E-01 -2.5361E-01</leafValues></_><_><internalNodes>0 -1 209 -7.4868E-05</internalNodes><leafValues>1.3341E-01 -2.9324E-01</leafValues></_><_><internalNodes>0 -1 210 -2.5438E-04</internalNodes><leafValues>1.5336E-01 -1.9388E-01</leafValues></_><_><internalNodes>0 -1 211 7.7577E-04</internalNodes><leafValues>-3.1156E-01 1.0633E-01</leafValues></_><_><internalNodes>0 -1 212 5.4479E-02</internalNodes><leafValues>2.6277E-02 -6.6687E-01</leafValues></_><_><internalNodes>0 -1 213 1.2693E-02</internalNodes><leafValues>9.3613E-02 -3.9152E-01</leafValues></_><_><internalNodes>0 -1 214 -3.0767E-02</internalNodes><leafValues>-5.9238E-01 4.8315E-02</leafValues></_><_><internalNodes>0 -1 215 -1.9366E-02</internalNodes><leafValues>4.3662E-01 -8.8673E-02</leafValues></_><_><internalNodes>0 -1 216 -2.8706E-03</internalNodes><leafValues>1.5245E-01 -1.3861E-01</leafValues></_><_><internalNodes>0 -1 217 4.0004E-02</internalNodes><leafValues>5.8748E-02 -6.9120E-01</leafValues></_><_><internalNodes>0 -1 218 -8.1130E-02</internalNodes><leafValues>-7.8684E-01 2.0421E-03</leafValues></_><_><internalNodes>0 -1 219 -2.1018E-03</internalNodes><leafValues>1.9100E-01 -1.9660E-01</leafValues></_><_><internalNodes>0 -1 220 8.6482E-03</internalNodes><leafValues>8.8689E-02 -3.7414E-01</leafValues></_><_><internalNodes>0 -1 221 -5.2429E-02</internalNodes><leafValues>-7.2616E-01 3.9466E-02</leafValues></_><_><internalNodes>0 -1 222 3.4465E-03</internalNodes><leafValues>-1.1641E-01 2.7386E-01</leafValues></_><_><internalNodes>0 -1 223 -7.0581E-03</internalNodes><leafValues>-3.6284E-01 9.2024E-02</leafValues></_><_><internalNodes>0 -1 224 -5.7412E-02</internalNodes><leafValues>-8.8839E-01 2.6648E-02</leafValues></_><_><internalNodes>0 -1 225 3.3479E-03</internalNodes><leafValues>-1.4884E-01 1.8366E-01</leafValues></_><_><internalNodes>0 -1 226 -5.3958E-02</internalNodes><leafValues>3.8098E-01 -4.4047E-02</leafValues></_><_><internalNodes>0 -1 227 -2.5720E-02</internalNodes><leafValues>3.2571E-01 -1.0078E-01</leafValues></_></weakClassifiers></_><_><maxWeakCount>44</maxWeakCount><stageThreshold>-2.1038E+00</stageThreshold><weakClassifiers><_><internalNodes>0 -1 228 1.2441E-01</internalNodes><leafValues>-3.8574E-01 3.9274E-01</leafValues></_><_><internalNodes>0 -1 229 3.7803E-02</internalNodes><leafValues>-4.7029E-01 3.5787E-01</leafValues></_><_><internalNodes>0 -1 230 3.0441E-02</internalNodes><leafValues>-3.9460E-01 3.2519E-01</leafValues></_><_><internalNodes>0 -1 231 3.9223E-04</internalNodes><leafValues>-4.5167E-01 1.9672E-01</leafValues></_><_><internalNodes>0 -1 232 3.9078E-02</internalNodes><leafValues>-2.1073E-01 4.3865E-01</leafValues></_><_><internalNodes>0 -1 233 -8.9118E-05</internalNodes><leafValues>1.5197E-01 -5.9564E-01</leafValues></_><_><internalNodes>0 -1 234 8.8415E-03</internalNodes><leafValues>-4.9292E-01 1.7407E-01</leafValues></_><_><internalNodes>0 -1 235 1.3666E-02</internalNodes><leafValues>9.2862E-02 -5.5182E-01</leafValues></_><_><internalNodes>0 -1 236 -6.1203E-02</internalNodes><leafValues>-6.7985E-01 1.0049E-01</leafValues></_><_><internalNodes>0 -1 237 5.7720E-04</internalNodes><leafValues>-5.8302E-01 1.1090E-01</leafValues></_><_><internalNodes>0 -1 238 2.8370E-04</internalNodes><leafValues>-5.9793E-01 9.3898E-02</leafValues></_><_><internalNodes>0 -1 239 1.7666E-02</internalNodes><leafValues>-2.2015E-01 3.4533E-01</leafValues></_><_><internalNodes>0 -1 240 2.5697E-02</internalNodes><leafValues>-3.6196E-01 1.6877E-01</leafValues></_><_><internalNodes>0 -1 241 -4.0317E-02</internalNodes><leafValues>2.2964E-01 -2.9301E-01</leafValues></_><_><internalNodes>0 -1 242 4.6523E-03</internalNodes><leafValues>-5.8996E-01 1.0467E-01</leafValues></_><_><internalNodes>0 -1 243 -1.3406E-02</internalNodes><leafValues>-3.9572E-01 8.3528E-02</leafValues></_><_><internalNodes>0 -1 244 3.6127E-02</internalNodes><leafValues>9.4166E-02 -5.4097E-01</leafValues></_><_><internalNodes>0 -1 245 2.2792E-03</internalNodes><leafValues>1.2819E-01 -3.6515E-01</leafValues></_><_><internalNodes>0 -1 246 1.4454E-03</internalNodes><leafValues>-2.3282E-01 1.9830E-01</leafValues></_><_><internalNodes>0 -1 247 5.7483E-02</internalNodes><leafValues>7.5042E-02 -5.7705E-01</leafValues></_><_><internalNodes>0 -1 248 3.3361E-03</internalNodes><leafValues>8.8012E-02 -4.6779E-01</leafValues></_><_><internalNodes>0 -1 249 3.7226E-02</internalNodes><leafValues>3.2155E-02 -6.6347E-01</leafValues></_><_><internalNodes>0 -1 250 1.6613E-02</internalNodes><leafValues>9.1690E-02 -5.2128E-01</leafValues></_><_><internalNodes>0 -1 251 2.0543E-02</internalNodes><leafValues>-2.8753E-01 1.4261E-01</leafValues></_><_><internalNodes>0 -1 252 -1.5633E-04</internalNodes><leafValues>2.0247E-01 -2.2424E-01</leafValues></_><_><internalNodes>0 -1 253 1.2189E-01</internalNodes><leafValues>-1.6461E-01 1.7584E-01</leafValues></_><_><internalNodes>0 -1 254 4.6413E-02</internalNodes><leafValues>-6.8978E-01 6.4350E-02</leafValues></_><_><internalNodes>0 -1 255 1.4946E-01</internalNodes><leafValues>3.9806E-02 -7.0177E-01</leafValues></_><_><internalNodes>0 -1 256 1.4347E-02</internalNodes><leafValues>9.2629E-02 -4.6314E-01</leafValues></_><_><internalNodes>0 -1 257 3.6159E-02</internalNodes><leafValues>6.4413E-02 -6.5277E-01</leafValues></_><_><internalNodes>0 -1 258 -5.5098E-02</internalNodes><leafValues>-6.1022E-01 6.6034E-02</leafValues></_><_><internalNodes>0 -1 259 -3.2979E-03</internalNodes><leafValues>8.6580E-02 -2.1845E-01</leafValues></_><_><internalNodes>0 -1 260 4.1258E-03</internalNodes><leafValues>-4.4980E-01 9.3251E-02</leafValues></_><_><internalNodes>0 -1 261 3.3465E-02</internalNodes><leafValues>1.4524E-02 -4.0200E-01</leafValues></_><_><internalNodes>0 -1 262 -2.2585E-02</internalNodes><leafValues>-6.0068E-01 6.4417E-02</leafValues></_><_><internalNodes>0 -1 263 -7.1505E-03</internalNodes><leafValues>6.7139E-02 -1.2947E-01</leafValues></_><_><internalNodes>0 -1 264 -5.1440E-02</internalNodes><leafValues>-4.8466E-01 8.2094E-02</leafValues></_><_><internalNodes>0 -1 265 -1.9101E-02</internalNodes><leafValues>-3.5394E-01 1.0852E-01</leafValues></_><_><internalNodes>0 -1 266 6.9468E-03</internalNodes><leafValues>1.5408E-01 -2.3040E-01</leafValues></_><_><internalNodes>0 -1 267 -2.3887E-02</internalNodes><leafValues>4.9008E-01 -5.9650E-02</leafValues></_><_><internalNodes>0 -1 268 -1.3965E-03</internalNodes><leafValues>-3.3705E-01 1.1569E-01</leafValues></_><_><internalNodes>0 -1 269 2.6321E-02</internalNodes><leafValues>-3.9133E-02 3.7615E-01</leafValues></_><_><internalNodes>0 -1 270 5.0337E-03</internalNodes><leafValues>-3.5457E-01 1.0787E-01</leafValues></_><_><internalNodes>0 -1 271 -1.1524E-02</internalNodes><leafValues>3.5149E-01 -1.1374E-01</leafValues></_></weakClassifiers></_><_><maxWeakCount>72</maxWeakCount><stageThreshold>-1.9110E+00</stageThreshold><weakClassifiers><_><internalNodes>0 -1 272 -5.6698E-03</internalNodes><leafValues>2.5299E-01 -5.5377E-01</leafValues></_><_><internalNodes>0 -1 273 1.2187E-03</internalNodes><leafValues>9.1724E-02 -6.5662E-01</leafValues></_><_><internalNodes>0 -1 274 3.1903E-03</internalNodes><leafValues>1.2117E-01 -5.4405E-01</leafValues></_><_><internalNodes>0 -1 275 -1.2118E-02</internalNodes><leafValues>-6.8211E-01 1.1178E-01</leafValues></_><_><internalNodes>0 -1 276 2.2634E-03</internalNodes><leafValues>-5.6314E-01 9.9629E-02</leafValues></_><_><internalNodes>0 -1 277 2.2872E-03</internalNodes><leafValues>-5.0227E-01 1.1288E-01</leafValues></_><_><internalNodes>0 -1 278 -7.4019E-03</internalNodes><leafValues>-5.0622E-01 1.0325E-01</leafValues></_><_><internalNodes>0 -1 279 6.5726E-03</internalNodes><leafValues>3.1604E-02 -4.5879E-01</leafValues></_><_><internalNodes>0 -1 280 -1.7237E-02</internalNodes><leafValues>-3.6556E-01 1.4122E-01</leafValues></_><_><internalNodes>0 -1 281 -1.7647E-03</internalNodes><leafValues>1.8962E-01 -3.4350E-01</leafValues></_><_><internalNodes>0 -1 282 2.6086E-02</internalNodes><leafValues>8.7369E-02 -5.3332E-01</leafValues></_><_><internalNodes>0 -1 283 8.5358E-03</internalNodes><leafValues>-3.7361E-01 1.4509E-01</leafValues></_><_><internalNodes>0 -1 284 -6.2934E-03</internalNodes><leafValues>-4.5775E-01 1.0016E-01</leafValues></_><_><internalNodes>0 -1 285 9.7082E-02</internalNodes><leafValues>3.3762E-03 -8.4680E-01</leafValues></_><_><internalNodes>0 -1 286 -9.9456E-02</internalNodes><leafValues>7.7892E-01 -5.4456E-02</leafValues></_><_><internalNodes>0 -1 287 3.9129E-02</internalNodes><leafValues>3.9480E-02 -4.6620E-01</leafValues></_><_><internalNodes>0 -1 288 6.8424E-02</internalNodes><leafValues>4.8163E-02 -8.1911E-01</leafValues></_><_><internalNodes>0 -1 289 -1.7305E-02</internalNodes><leafValues>-4.6002E-01 2.1781E-02</leafValues></_><_><internalNodes>0 -1 290 4.5204E-05</internalNodes><leafValues>1.5591E-01 -2.5735E-01</leafValues></_><_><internalNodes>0 -1 291 -5.3721E-02</internalNodes><leafValues>-7.3985E-01 2.3658E-02</leafValues></_><_><internalNodes>0 -1 292 -2.1577E-04</internalNodes><leafValues>1.1804E-01 -3.5380E-01</leafValues></_><_><internalNodes>0 -1 293 1.2613E-03</internalNodes><leafValues>-1.8313E-01 1.6307E-01</leafValues></_><_><internalNodes>0 -1 294 2.2714E-02</internalNodes><leafValues>-9.5647E-02 3.8063E-01</leafValues></_><_><internalNodes>0 -1 295 2.0958E-02</internalNodes><leafValues>6.1186E-02 -5.2645E-01</leafValues></_><_><internalNodes>0 -1 296 1.5458E-02</internalNodes><leafValues>6.4467E-02 -4.7441E-01</leafValues></_><_><internalNodes>0 -1 297 -5.0829E-03</internalNodes><leafValues>1.0019E-01 -3.6397E-01</leafValues></_><_><internalNodes>0 -1 298 1.1843E-03</internalNodes><leafValues>-2.0604E-01 1.7130E-01</leafValues></_><_><internalNodes>0 -1 299 5.0188E-02</internalNodes><leafValues>-7.0925E-02 1.0435E-01</leafValues></_><_><internalNodes>0 -1 300 1.7535E-01</internalNodes><leafValues>3.7766E-02 -8.0803E-01</leafValues></_><_><internalNodes>0 -1 301 -6.8426E-02</internalNodes><leafValues>-5.0215E-01 5.4671E-02</leafValues></_><_><internalNodes>0 -1 302 2.2496E-03</internalNodes><leafValues>-2.8014E-01 1.0950E-01</leafValues></_><_><internalNodes>0 -1 303 8.5356E-02</internalNodes><leafValues>3.3377E-02 -7.3677E-01</leafValues></_><_><internalNodes>0 -1 304 -2.8826E-02</internalNodes><leafValues>-4.8528E-01 4.9596E-02</leafValues></_><_><internalNodes>0 -1 305 -1.3563E-03</internalNodes><leafValues>1.8493E-01 -1.6541E-01</leafValues></_><_><internalNodes>0 -1 306 1.5732E-03</internalNodes><leafValues>9.0432E-02 -3.0194E-01</leafValues></_><_><internalNodes>0 -1 307 -5.2912E-03</internalNodes><leafValues>-4.3964E-01 4.6881E-02</leafValues></_><_><internalNodes>0 -1 308 4.2200E-02</internalNodes><leafValues>-7.5348E-02 3.7713E-01</leafValues></_><_><internalNodes>0 -1 309 3.1031E-02</internalNodes><leafValues>6.6053E-02 -4.7378E-01</leafValues></_><_><internalNodes>0 -1 310 8.0452E-03</internalNodes><leafValues>-7.7327E-02 3.4899E-01</leafValues></_><_><internalNodes>0 -1 311 2.3791E-02</internalNodes><leafValues>4.8630E-02 -5.8155E-01</leafValues></_><_><internalNodes>0 -1 312 -2.6885E-02</internalNodes><leafValues>7.3852E-01 -4.0025E-02</leafValues></_><_><internalNodes>0 -1 313 -1.7014E-03</internalNodes><leafValues>1.4116E-01 -1.8305E-01</leafValues></_><_><internalNodes>0 -1 314 -3.2259E-02</internalNodes><leafValues>-6.4599E-01 4.1774E-02</leafValues></_><_><internalNodes>0 -1 315 -9.1720E-02</internalNodes><leafValues>6.3652E-01 -4.4406E-02</leafValues></_><_><internalNodes>0 -1 316 1.1253E-02</internalNodes><leafValues>-1.0399E-01 2.4386E-01</leafValues></_><_><internalNodes>0 -1 317 9.1702E-03</internalNodes><leafValues>-1.0142E-01 1.7326E-01</leafValues></_><_><internalNodes>0 -1 318 -3.7584E-02</internalNodes><leafValues>-6.5999E-01 3.5357E-02</leafValues></_><_><internalNodes>0 -1 319 1.4904E-04</internalNodes><leafValues>-1.2505E-01 1.0161E-01</leafValues></_><_><internalNodes>0 -1 320 5.6241E-04</internalNodes><leafValues>-2.1511E-01 1.0537E-01</leafValues></_><_><internalNodes>0 -1 321 -1.7314E-02</internalNodes><leafValues>-1.6798E-01 6.1207E-02</leafValues></_><_><internalNodes>0 -1 322 -1.5430E-02</internalNodes><leafValues>2.5674E-01 -9.7193E-02</leafValues></_><_><internalNodes>0 -1 323 -1.5612E-02</internalNodes><leafValues>-3.5798E-01 6.9260E-02</leafValues></_><_><internalNodes>0 -1 324 7.4424E-04</internalNodes><leafValues>-1.5740E-01 1.4921E-01</leafValues></_><_><internalNodes>0 -1 325 7.9008E-02</internalNodes><leafValues>3.5925E-02 -6.4908E-01</leafValues></_><_><internalNodes>0 -1 326 -3.3478E-03</internalNodes><leafValues>-2.5795E-01 8.1627E-02</leafValues></_><_><internalNodes>0 -1 327 3.5589E-02</internalNodes><leafValues>-4.6870E-02 5.3945E-01</leafValues></_><_><internalNodes>0 -1 328 7.6169E-04</internalNodes><leafValues>8.0410E-02 -2.8046E-01</leafValues></_><_><internalNodes>0 -1 329 9.6127E-03</internalNodes><leafValues>9.2716E-02 -2.2755E-01</leafValues></_><_><internalNodes>0 -1 330 3.4583E-02</internalNodes><leafValues>-9.5496E-02 2.8116E-01</leafValues></_><_><internalNodes>0 -1 331 -8.2032E-03</internalNodes><leafValues>-3.3162E-01 4.0630E-02</leafValues></_><_><internalNodes>0 -1 332 2.5540E-02</internalNodes><leafValues>7.0459E-02 -3.2799E-01</leafValues></_><_><internalNodes>0 -1 333 -3.1390E-03</internalNodes><leafValues>1.2529E-01 -6.0767E-02</leafValues></_><_><internalNodes>0 -1 334 4.5892E-03</internalNodes><leafValues>-9.5335E-02 2.4739E-01</leafValues></_><_><internalNodes>0 -1 335 -2.3260E-02</internalNodes><leafValues>-2.3823E-01 3.3503E-02</leafValues></_><_><internalNodes>0 -1 336 1.7965E-03</internalNodes><leafValues>8.9844E-02 -2.8049E-01</leafValues></_><_><internalNodes>0 -1 337 -1.0953E-01</internalNodes><leafValues>-4.6207E-01 7.4333E-03</leafValues></_><_><internalNodes>0 -1 338 6.8443E-03</internalNodes><leafValues>7.3520E-02 -3.6191E-01</leafValues></_><_><internalNodes>0 -1 339 -7.3720E-02</internalNodes><leafValues>4.1132E-01 -6.8293E-02</leafValues></_><_><internalNodes>0 -1 340 9.4485E-03</internalNodes><leafValues>-1.2132E-01 2.1492E-01</leafValues></_><_><internalNodes>0 -1 341 -7.4686E-02</internalNodes><leafValues>2.4292E-01 -3.8521E-02</leafValues></_><_><internalNodes>0 -1 342 -1.8958E-02</internalNodes><leafValues>-3.7264E-01 6.8382E-02</leafValues></_><_><internalNodes>0 -1 343 -8.3170E-04</internalNodes><leafValues>9.5785E-02 -1.0169E-01</leafValues></_></weakClassifiers></_><_><maxWeakCount>54</maxWeakCount><stageThreshold>-2.0048E+00</stageThreshold><weakClassifiers><_><internalNodes>0 -1 344 1.5233E-01</internalNodes><leafValues>-3.1805E-01 4.7040E-01</leafValues></_><_><internalNodes>0 -1 345 8.8483E-03</internalNodes><leafValues>-3.6134E-01 2.7333E-01</leafValues></_><_><internalNodes>0 -1 346 2.9788E-02</internalNodes><leafValues>-2.8059E-01 3.6270E-01</leafValues></_><_><internalNodes>0 -1 347 5.2726E-02</internalNodes><leafValues>-1.9321E-01 3.5507E-01</leafValues></_><_><internalNodes>0 -1 348 2.6077E-02</internalNodes><leafValues>-3.7120E-01 2.7038E-01</leafValues></_><_><internalNodes>0 -1 349 -4.4879E-02</internalNodes><leafValues>2.9119E-01 -3.5178E-01</leafValues></_><_><internalNodes>0 -1 350 -9.3984E-04</internalNodes><leafValues>-6.0144E-01 1.1816E-01</leafValues></_><_><internalNodes>0 -1 351 3.1817E-03</internalNodes><leafValues>-6.1633E-01 1.0581E-01</leafValues></_><_><internalNodes>0 -1 352 -6.2214E-04</internalNodes><leafValues>1.1701E-01 -6.1874E-01</leafValues></_><_><internalNodes>0 -1 353 5.4993E-03</internalNodes><leafValues>7.1741E-02 -3.2123E-01</leafValues></_><_><internalNodes>0 -1 354 7.0622E-03</internalNodes><leafValues>-3.0815E-01 1.8299E-01</leafValues></_><_><internalNodes>0 -1 355 -3.4492E-02</internalNodes><leafValues>-3.6953E-01 1.1143E-01</leafValues></_><_><internalNodes>0 -1 356 -5.3783E-02</internalNodes><leafValues>-6.6690E-01 8.4864E-02</leafValues></_><_><internalNodes>0 -1 357 -2.0195E-02</internalNodes><leafValues>-4.2300E-01 5.6325E-02</leafValues></_><_><internalNodes>0 -1 358 -7.6840E-04</internalNodes><leafValues>1.3547E-01 -3.5696E-01</leafValues></_><_><internalNodes>0 -1 359 6.6877E-03</internalNodes><leafValues>-3.4380E-01 1.3302E-01</leafValues></_><_><internalNodes>0 -1 360 1.1147E-01</internalNodes><leafValues>-4.9524E-01 9.7303E-02</leafValues></_><_><internalNodes>0 -1 361 -8.5022E-03</internalNodes><leafValues>-5.1779E-01 6.7189E-02</leafValues></_><_><internalNodes>0 -1 362 -1.8897E-02</internalNodes><leafValues>-4.7065E-01 9.0874E-02</leafValues></_><_><internalNodes>0 -1 363 5.7387E-03</internalNodes><leafValues>-1.4861E-01 3.0977E-01</leafValues></_><_><internalNodes>0 -1 364 3.2604E-02</internalNodes><leafValues>7.8678E-02 -5.4714E-01</leafValues></_><_><internalNodes>0 -1 365 1.8975E-05</internalNodes><leafValues>-2.4360E-01 9.8909E-02</leafValues></_><_><internalNodes>0 -1 366 -1.9267E-03</internalNodes><leafValues>-5.0523E-01 7.5119E-02</leafValues></_><_><internalNodes>0 -1 367 -7.7145E-03</internalNodes><leafValues>-2.5015E-01 1.0211E-01</leafValues></_><_><internalNodes>0 -1 368 -1.8807E-02</internalNodes><leafValues>-4.3269E-01 1.1148E-01</leafValues></_><_><internalNodes>0 -1 369 2.9912E-02</internalNodes><leafValues>4.6748E-02 -5.8818E-01</leafValues></_><_><internalNodes>0 -1 370 -7.4261E-04</internalNodes><leafValues>1.8389E-01 -2.0138E-01</leafValues></_><_><internalNodes>0 -1 371 4.0662E-03</internalNodes><leafValues>-4.4948E-01 8.6881E-02</leafValues></_><_><internalNodes>0 -1 372 1.8682E-02</internalNodes><leafValues>-1.7104E-01 2.2931E-01</leafValues></_><_><internalNodes>0 -1 373 4.6581E-02</internalNodes><leafValues>4.3874E-02 -6.6705E-01</leafValues></_><_><internalNodes>0 -1 374 -1.5031E-02</internalNodes><leafValues>-7.6569E-01 4.2524E-02</leafValues></_><_><internalNodes>0 -1 375 6.3603E-02</internalNodes><leafValues>3.3629E-02 -8.6777E-01</leafValues></_><_><internalNodes>0 -1 376 -3.3613E-02</internalNodes><leafValues>-6.7464E-01 4.5197E-02</leafValues></_><_><internalNodes>0 -1 377 -4.4315E-02</internalNodes><leafValues>-4.7056E-01 2.0988E-02</leafValues></_><_><internalNodes>0 -1 378 2.9176E-02</internalNodes><leafValues>5.6036E-02 -6.5746E-01</leafValues></_><_><internalNodes>0 -1 379 8.4738E-03</internalNodes><leafValues>-1.2312E-01 3.6037E-01</leafValues></_><_><internalNodes>0 -1 380 -2.6931E-02</internalNodes><leafValues>-6.5255E-01 6.0727E-02</leafValues></_><_><internalNodes>0 -1 381 3.7930E-02</internalNodes><leafValues>-1.5491E-01 2.1770E-01</leafValues></_><_><internalNodes>0 -1 382 1.6430E-02</internalNodes><leafValues>-2.5251E-01 1.5458E-01</leafValues></_><_><internalNodes>0 -1 383 5.1080E-02</internalNodes><leafValues>3.0773E-02 -6.4929E-01</leafValues></_><_><internalNodes>0 -1 384 1.6663E-03</internalNodes><leafValues>-3.7426E-01 8.1392E-02</leafValues></_><_><internalNodes>0 -1 385 -9.0897E-03</internalNodes><leafValues>1.7854E-01 -7.6578E-02</leafValues></_><_><internalNodes>0 -1 386 2.0629E-02</internalNodes><leafValues>7.2373E-02 -4.2051E-01</leafValues></_><_><internalNodes>0 -1 387 8.2410E-03</internalNodes><leafValues>3.2897E-02 -3.7325E-01</leafValues></_><_><internalNodes>0 -1 388 -4.6126E-02</internalNodes><leafValues>-3.7356E-01 7.7337E-02</leafValues></_><_><internalNodes>0 -1 389 -8.3485E-03</internalNodes><leafValues>1.8690E-01 -1.5127E-01</leafValues></_><_><internalNodes>0 -1 390 -4.7689E-02</internalNodes><leafValues>-4.0730E-01 8.7598E-02</leafValues></_><_><internalNodes>0 -1 391 -5.0166E-04</internalNodes><leafValues>1.2037E-01 -2.4718E-01</leafValues></_><_><internalNodes>0 -1 392 2.1794E-05</internalNodes><leafValues>-2.9801E-01 1.2065E-01</leafValues></_><_><internalNodes>0 -1 393 -7.0597E-02</internalNodes><leafValues>-6.8117E-01 6.4199E-02</leafValues></_><_><internalNodes>0 -1 394 -6.4999E-03</internalNodes><leafValues>2.6219E-01 -1.4015E-01</leafValues></_><_><internalNodes>0 -1 395 5.3664E-03</internalNodes><leafValues>-3.4273E-01 9.2049E-02</leafValues></_><_><internalNodes>0 -1 396 -1.3342E-02</internalNodes><leafValues>4.0258E-01 -7.2052E-02</leafValues></_><_><internalNodes>0 -1 397 1.2243E-02</internalNodes><leafValues>-8.2427E-02 3.8369E-01</leafValues></_></weakClassifiers></_><_><maxWeakCount>100</maxWeakCount><stageThreshold>-1.8743E+00</stageThreshold><weakClassifiers><_><internalNodes>0 -1 398 -2.8618E-03</internalNodes><leafValues>2.1443E-01 -5.1532E-01</leafValues></_><_><internalNodes>0 -1 399 1.9125E-03</internalNodes><leafValues>1.4483E-01 -6.1175E-01</leafValues></_><_><internalNodes>0 -1 400 4.8059E-03</internalNodes><leafValues>-4.4236E-01 1.3467E-01</leafValues></_><_><internalNodes>0 -1 401 -9.5778E-02</internalNodes><leafValues>-4.8915E-01 1.3170E-01</leafValues></_><_><internalNodes>0 -1 402 -8.9396E-03</internalNodes><leafValues>1.4791E-01 -4.6696E-01</leafValues></_><_><internalNodes>0 -1 403 8.1128E-03</internalNodes><leafValues>5.0671E-02 -4.0228E-01</leafValues></_><_><internalNodes>0 -1 404 2.2639E-04</internalNodes><leafValues>-5.0928E-01 8.2113E-02</leafValues></_><_><internalNodes>0 -1 405 -6.1516E-04</internalNodes><leafValues>-3.8137E-01 1.0158E-01</leafValues></_><_><internalNodes>0 -1 406 -3.2051E-03</internalNodes><leafValues>-5.8352E-01 6.2385E-02</leafValues></_><_><internalNodes>0 -1 407 5.4251E-04</internalNodes><leafValues>-2.5548E-01 1.4832E-01</leafValues></_><_><internalNodes>0 -1 408 1.0714E-03</internalNodes><leafValues>-3.5334E-01 1.1792E-01</leafValues></_><_><internalNodes>0 -1 409 -1.7756E-03</internalNodes><leafValues>-3.4087E-01 9.4740E-02</leafValues></_><_><internalNodes>0 -1 410 -9.3014E-02</internalNodes><leafValues>7.4685E-01 -5.2443E-02</leafValues></_><_><internalNodes>0 -1 411 -1.4192E-02</internalNodes><leafValues>-3.1434E-01 9.0452E-02</leafValues></_><_><internalNodes>0 -1 412 -5.3375E-04</internalNodes><leafValues>1.4120E-01 -2.0297E-01</leafValues></_><_><internalNodes>0 -1 413 9.4845E-02</internalNodes><leafValues>1.4626E-02 -6.2215E-01</leafValues></_><_><internalNodes>0 -1 414 1.1853E-03</internalNodes><leafValues>-2.5984E-01 1.2153E-01</leafValues></_><_><internalNodes>0 -1 415 -2.4541E-03</internalNodes><leafValues>7.1895E-02 -3.9804E-01</leafValues></_><_><internalNodes>0 -1 416 6.8703E-03</internalNodes><leafValues>6.8626E-02 -3.8566E-01</leafValues></_><_><internalNodes>0 -1 417 -6.0411E-02</internalNodes><leafValues>-4.8482E-01 2.0706E-02</leafValues></_><_><internalNodes>0 -1 418 -4.6826E-04</internalNodes><leafValues>9.5856E-02 -3.1230E-01</leafValues></_><_><internalNodes>0 -1 419 -3.3507E-04</internalNodes><leafValues>7.8129E-02 -9.4751E-02</leafValues></_><_><internalNodes>0 -1 420 3.6313E-02</internalNodes><leafValues>4.4824E-02 -6.3693E-01</leafValues></_><_><internalNodes>0 -1 421 3.8053E-04</internalNodes><leafValues>-2.1931E-01 1.1781E-01</leafValues></_><_><internalNodes>0 -1 422 -5.0965E-02</internalNodes><leafValues>5.5783E-01 -4.3870E-02</leafValues></_><_><internalNodes>0 -1 423 -7.6199E-02</internalNodes><leafValues>6.7790E-01 -1.7936E-02</leafValues></_><_><internalNodes>0 -1 424 -1.2677E-02</internalNodes><leafValues>-6.0731E-01 4.9086E-02</leafValues></_><_><internalNodes>0 -1 425 -3.6767E-03</internalNodes><leafValues>1.5227E-01 -1.9954E-01</leafValues></_><_><internalNodes>0 -1 426 -3.8847E-02</internalNodes><leafValues>-7.7045E-01 3.3732E-02</leafValues></_><_><internalNodes>0 -1 427 9.4217E-03</internalNodes><leafValues>-6.9929E-02 1.3669E-01</leafValues></_><_><internalNodes>0 -1 428 7.3391E-03</internalNodes><leafValues>-1.2133E-01 2.1175E-01</leafValues></_><_><internalNodes>0 -1 429 1.2211E-02</internalNodes><leafValues>6.7637E-02 -4.3354E-01</leafValues></_><_><internalNodes>0 -1 430 -9.3065E-03</internalNodes><leafValues>-3.4682E-01 6.4062E-02</leafValues></_><_><internalNodes>0 -1 431 5.2111E-02</internalNodes><leafValues>-3.4147E-02 3.8905E-01</leafValues></_><_><internalNodes>0 -1 432 -4.3582E-04</internalNodes><leafValues>1.3957E-01 -1.8289E-01</leafValues></_><_><internalNodes>0 -1 433 -1.0575E-02</internalNodes><leafValues>-2.7782E-01 8.5667E-02</leafValues></_><_><internalNodes>0 -1 434 1.4794E-03</internalNodes><leafValues>-2.3155E-01 1.1766E-01</leafValues></_><_><internalNodes>0 -1 435 9.4747E-03</internalNodes><leafValues>-1.3345E-01 1.8067E-01</leafValues></_><_><internalNodes>0 -1 436 8.3355E-02</internalNodes><leafValues>3.3564E-02 -7.2861E-01</leafValues></_><_><internalNodes>0 -1 437 -6.6629E-02</internalNodes><leafValues>3.8058E-01 -3.3491E-02</leafValues></_><_><internalNodes>0 -1 438 5.0287E-03</internalNodes><leafValues>-1.1418E-01 2.1535E-01</leafValues></_><_><internalNodes>0 -1 439 5.1222E-01</internalNodes><leafValues>7.6377E-03 -6.5068E-01</leafValues></_><_><internalNodes>0 -1 440 1.2300E-01</internalNodes><leafValues>3.8879E-02 -5.9420E-01</leafValues></_><_><internalNodes>0 -1 441 -1.1227E-03</internalNodes><leafValues>1.0235E-01 -1.1208E-01</leafValues></_><_><internalNodes>0 -1 442 -6.2221E-02</internalNodes><leafValues>-5.1173E-01 4.1880E-02</leafValues></_><_><internalNodes>0 -1 443 -2.6323E-02</internalNodes><leafValues>3.4006E-01 -5.0624E-02</leafValues></_><_><internalNodes>0 -1 444 -1.8875E-02</internalNodes><leafValues>-5.4551E-01 4.1525E-02</leafValues></_><_><internalNodes>0 -1 445 -3.4035E-01</internalNodes><leafValues>-9.1542E-01 1.6561E-02</leafValues></_><_><internalNodes>0 -1 446 -8.0456E-04</internalNodes><leafValues>1.4271E-01 -1.2901E-01</leafValues></_><_><internalNodes>0 -1 447 -3.9580E-03</internalNodes><leafValues>-3.3408E-01 5.8638E-02</leafValues></_><_><internalNodes>0 -1 448 1.8337E-02</internalNodes><leafValues>-4.5632E-02 5.2696E-01</leafValues></_><_><internalNodes>0 -1 449 -5.7686E-02</internalNodes><leafValues>-5.7604E-01 3.9550E-02</leafValues></_><_><internalNodes>0 -1 450 -8.6882E-03</internalNodes><leafValues>2.0930E-01 -1.0309E-01</leafValues></_><_><internalNodes>0 -1 451 2.0319E-01</internalNodes><leafValues>9.4081E-03 -9.9390E-01</leafValues></_><_><internalNodes>0 -1 452 2.0098E-02</internalNodes><leafValues>5.6577E-02 -3.7819E-01</leafValues></_><_><internalNodes>0 -1 453 1.3217E-02</internalNodes><leafValues>-7.4322E-02 1.7875E-01</leafValues></_><_><internalNodes>0 -1 454 -9.1347E-03</internalNodes><leafValues>-4.9357E-01 3.7799E-02</leafValues></_><_><internalNodes>0 -1 455 8.7239E-04</internalNodes><leafValues>-1.3849E-01 1.1517E-01</leafValues></_><_><internalNodes>0 -1 456 -3.4609E-04</internalNodes><leafValues>-1.6372E-01 1.1950E-01</leafValues></_><_><internalNodes>0 -1 457 -9.8571E-04</internalNodes><leafValues>-5.4643E-01 4.4689E-02</leafValues></_><_><internalNodes>0 -1 458 1.0219E-02</internalNodes><leafValues>-1.1570E-01 1.6724E-01</leafValues></_><_><internalNodes>0 -1 459 2.6703E-02</internalNodes><leafValues>4.3922E-02 -4.5120E-01</leafValues></_><_><internalNodes>0 -1 460 -2.0299E-03</internalNodes><leafValues>1.1932E-01 -1.6979E-01</leafValues></_><_><internalNodes>0 -1 461 -8.8024E-02</internalNodes><leafValues>-8.0280E-01 9.4295E-03</leafValues></_><_><internalNodes>0 -1 462 -1.3109E-02</internalNodes><leafValues>-3.0865E-01 6.0802E-02</leafValues></_><_><internalNodes>0 -1 463 -9.9502E-03</internalNodes><leafValues>1.8401E-01 -4.6465E-02</leafValues></_><_><internalNodes>0 -1 464 -3.4294E-03</internalNodes><leafValues>2.6683E-01 -9.9339E-02</leafValues></_><_><internalNodes>0 -1 465 5.4729E-02</internalNodes><leafValues>2.8731E-02 -7.7746E-01</leafValues></_><_><internalNodes>0 -1 466 7.2013E-03</internalNodes><leafValues>4.4892E-02 -3.8289E-01</leafValues></_><_><internalNodes>0 -1 467 4.2047E-02</internalNodes><leafValues>-2.2562E-02 4.0647E-01</leafValues></_><_><internalNodes>0 -1 468 4.4444E-03</internalNodes><leafValues>9.1204E-02 -1.8748E-01</leafValues></_><_><internalNodes>0 -1 469 2.8442E-02</internalNodes><leafValues>4.0668E-02 -4.0552E-01</leafValues></_><_><internalNodes>0 -1 470 -1.5142E-02</internalNodes><leafValues>2.4800E-01 -8.3607E-02</leafValues></_><_><internalNodes>0 -1 471 3.9388E-02</internalNodes><leafValues>2.4279E-02 -7.6827E-01</leafValues></_><_><internalNodes>0 -1 472 6.1649E-04</internalNodes><leafValues>-1.7250E-01 1.0312E-01</leafValues></_><_><internalNodes>0 -1 473 2.6002E-02</internalNodes><leafValues>2.2825E-02 -7.7545E-01</leafValues></_><_><internalNodes>0 -1 474 1.4940E-03</internalNodes><leafValues>-1.1028E-01 1.6967E-01</leafValues></_><_><internalNodes>0 -1 475 -1.3777E-02</internalNodes><leafValues>-3.8425E-01 3.0320E-02</leafValues></_><_><internalNodes>0 -1 476 9.9620E-03</internalNodes><leafValues>-5.3765E-02 3.7887E-01</leafValues></_><_><internalNodes>0 -1 477 3.2952E-03</internalNodes><leafValues>9.4384E-02 -3.2763E-01</leafValues></_><_><internalNodes>0 -1 478 5.7747E-03</internalNodes><leafValues>5.7115E-02 -3.0720E-01</leafValues></_><_><internalNodes>0 -1 479 -4.8393E-02</internalNodes><leafValues>1.7021E-01 -8.7046E-02</leafValues></_><_><internalNodes>0 -1 480 5.6376E-04</internalNodes><leafValues>-9.3816E-02 2.0642E-01</leafValues></_><_><internalNodes>0 -1 481 -2.3874E-02</internalNodes><leafValues>-3.0082E-01 1.7478E-02</leafValues></_><_><internalNodes>0 -1 482 -1.0527E-02</internalNodes><leafValues>-3.4419E-01 5.7996E-02</leafValues></_><_><internalNodes>0 -1 483 2.2289E-02</internalNodes><leafValues>-5.7180E-02 1.9740E-01</leafValues></_><_><internalNodes>0 -1 484 -1.4589E-02</internalNodes><leafValues>-4.5169E-01 4.1490E-02</leafValues></_><_><internalNodes>0 -1 485 -4.6936E-02</internalNodes><leafValues>2.0458E-01 -5.1769E-02</leafValues></_><_><internalNodes>0 -1 486 5.3778E-04</internalNodes><leafValues>-3.9481E-01 4.5077E-02</leafValues></_><_><internalNodes>0 -1 487 -2.2181E-03</internalNodes><leafValues>-2.4576E-01 1.0261E-01</leafValues></_><_><internalNodes>0 -1 488 3.5077E-01</internalNodes><leafValues>1.9791E-02 -9.5161E-01</leafValues></_><_><internalNodes>0 -1 489 -2.6712E-02</internalNodes><leafValues>2.2393E-01 -4.5580E-02</leafValues></_><_><internalNodes>0 -1 490 -3.9627E-03</internalNodes><leafValues>-2.4207E-01 7.6589E-02</leafValues></_><_><internalNodes>0 -1 491 -4.7879E-03</internalNodes><leafValues>1.2655E-01 -1.1965E-01</leafValues></_><_><internalNodes>0 -1 492 7.1043E-03</internalNodes><leafValues>-9.2130E-02 2.1519E-01</leafValues></_><_><internalNodes>0 -1 493 -2.2582E-05</internalNodes><leafValues>6.0635E-02 -1.5849E-01</leafValues></_><_><internalNodes>0 -1 494 -7.8061E-02</internalNodes><leafValues>3.4822E-01 -5.3174E-02</leafValues></_><_><internalNodes>0 -1 495 2.7556E-01</internalNodes><leafValues>7.4112E-03 -1.0000E+00</leafValues></_><_><internalNodes>0 -1 496 1.9652E-01</internalNodes><leafValues>2.0131E-02 -8.5327E-01</leafValues></_><_><internalNodes>0 -1 497 -1.6802E-03</internalNodes><leafValues>7.7082E-02 -2.2620E-01</leafValues></_></weakClassifiers></_><_><maxWeakCount>71</maxWeakCount><stageThreshold>-1.9983E+00</stageThreshold><weakClassifiers><_><internalNodes>0 -1 498 -1.8815E-02</internalNodes><leafValues>3.7744E-01 -4.0771E-01</leafValues></_><_><internalNodes>0 -1 499 -2.3191E-02</internalNodes><leafValues>3.4049E-01 -3.6145E-01</leafValues></_><_><internalNodes>0 -1 500 3.1333E-02</internalNodes><leafValues>-4.3614E-01 1.9669E-01</leafValues></_><_><internalNodes>0 -1 501 -1.1319E-02</internalNodes><leafValues>1.1685E-01 -5.6360E-01</leafValues></_><_><internalNodes>0 -1 502 -3.1084E-04</internalNodes><leafValues>-4.3396E-01 1.4264E-01</leafValues></_><_><internalNodes>0 -1 503 8.7350E-02</internalNodes><leafValues>-1.9953E-01 3.3044E-01</leafValues></_><_><internalNodes>0 -1 504 -2.9019E-02</internalNodes><leafValues>3.2315E-01 -2.1707E-01</leafValues></_><_><internalNodes>0 -1 505 5.9861E-02</internalNodes><leafValues>-1.8765E-01 2.7651E-01</leafValues></_><_><internalNodes>0 -1 506 -2.9682E-02</internalNodes><leafValues>-4.6436E-01 1.1129E-01</leafValues></_><_><internalNodes>0 -1 507 -2.2648E-03</internalNodes><leafValues>-2.7163E-01 8.6917E-02</leafValues></_><_><internalNodes>0 -1 508 -1.6870E-03</internalNodes><leafValues>1.7999E-01 -2.7153E-01</leafValues></_><_><internalNodes>0 -1 509 1.0256E-03</internalNodes><leafValues>-4.3248E-01 1.0257E-01</leafValues></_><_><internalNodes>0 -1 510 -3.1763E-02</internalNodes><leafValues>-6.4419E-01 6.7505E-02</leafValues></_><_><internalNodes>0 -1 511 -8.5913E-03</internalNodes><leafValues>-3.7673E-01 7.2901E-02</leafValues></_><_><internalNodes>0 -1 512 -2.1636E-03</internalNodes><leafValues>-4.2210E-01 1.0725E-01</leafValues></_><_><internalNodes>0 -1 513 6.0111E-04</internalNodes><leafValues>6.1302E-02 -3.8005E-01</leafValues></_><_><internalNodes>0 -1 514 -6.1244E-05</internalNodes><leafValues>7.4766E-02 -5.2644E-01</leafValues></_><_><internalNodes>0 -1 515 -2.3666E-02</internalNodes><leafValues>-5.6801E-01 3.6378E-02</leafValues></_><_><internalNodes>0 -1 516 -1.4257E-02</internalNodes><leafValues>-5.3447E-01 6.2769E-02</leafValues></_><_><internalNodes>0 -1 517 -1.5714E-02</internalNodes><leafValues>3.1899E-01 -1.1541E-01</leafValues></_><_><internalNodes>0 -1 518 -5.9286E-02</internalNodes><leafValues>-5.7136E-01 8.1776E-02</leafValues></_><_><internalNodes>0 -1 519 -4.4123E-02</internalNodes><leafValues>-7.0591E-01 2.0833E-02</leafValues></_><_><internalNodes>0 -1 520 -7.2728E-04</internalNodes><leafValues>1.0820E-01 -3.8077E-01</leafValues></_><_><internalNodes>0 -1 521 -6.6654E-02</internalNodes><leafValues>-6.0825E-01 4.3249E-02</leafValues></_><_><internalNodes>0 -1 522 2.3680E-03</internalNodes><leafValues>-2.9793E-01 1.2092E-01</leafValues></_><_><internalNodes>0 -1 523 3.3566E-02</internalNodes><leafValues>3.6465E-02 -5.5767E-01</leafValues></_><_><internalNodes>0 -1 524 -5.3139E-02</internalNodes><leafValues>-5.6245E-01 6.5296E-02</leafValues></_><_><internalNodes>0 -1 525 -2.9402E-04</internalNodes><leafValues>-5.8418E-01 5.0006E-02</leafValues></_><_><internalNodes>0 -1 526 -4.8085E-04</internalNodes><leafValues>1.4019E-01 -2.4793E-01</leafValues></_><_><internalNodes>0 -1 527 4.7777E-02</internalNodes><leafValues>5.5673E-02 -5.9541E-01</leafValues></_><_><internalNodes>0 -1 528 3.3424E-02</internalNodes><leafValues>-1.4370E-01 2.3301E-01</leafValues></_><_><internalNodes>0 -1 529 2.0433E-01</internalNodes><leafValues>4.5327E-02 -7.4164E-01</leafValues></_><_><internalNodes>0 -1 530 1.4106E-01</internalNodes><leafValues>-3.9674E-01 8.1693E-02</leafValues></_><_><internalNodes>0 -1 531 1.0006E-04</internalNodes><leafValues>-2.2318E-01 1.3918E-01</leafValues></_><_><internalNodes>0 -1 532 6.0689E-02</internalNodes><leafValues>3.4325E-02 -8.2797E-01</leafValues></_><_><internalNodes>0 -1 533 -3.6456E-03</internalNodes><leafValues>1.5286E-01 -1.4006E-01</leafValues></_><_><internalNodes>0 -1 534 3.1945E-02</internalNodes><leafValues>6.5344E-02 -4.4296E-01</leafValues></_><_><internalNodes>0 -1 535 2.3428E-02</internalNodes><leafValues>2.5527E-02 -6.3271E-01</leafValues></_><_><internalNodes>0 -1 536 4.6068E-02</internalNodes><leafValues>4.3579E-02 -6.4930E-01</leafValues></_><_><internalNodes>0 -1 537 -5.8055E-02</internalNodes><leafValues>-6.3958E-01 1.4029E-02</leafValues></_><_><internalNodes>0 -1 538 3.8784E-02</internalNodes><leafValues>5.1234E-02 -5.4144E-01</leafValues></_><_><internalNodes>0 -1 539 -1.2766E-02</internalNodes><leafValues>2.7083E-01 -9.1928E-02</leafValues></_><_><internalNodes>0 -1 540 -3.1401E-03</internalNodes><leafValues>-3.4680E-01 8.3974E-02</leafValues></_><_><internalNodes>0 -1 541 -1.9720E-02</internalNodes><leafValues>-2.0477E-01 6.3232E-02</leafValues></_><_><internalNodes>0 -1 542 3.2241E-03</internalNodes><leafValues>9.6260E-02 -2.8098E-01</leafValues></_><_><internalNodes>0 -1 543 -5.9272E-02</internalNodes><leafValues>-2.6687E-01 3.2907E-02</leafValues></_><_><internalNodes>0 -1 544 1.5637E-02</internalNodes><leafValues>6.9188E-02 -4.1762E-01</leafValues></_><_><internalNodes>0 -1 545 -8.8900E-03</internalNodes><leafValues>1.9604E-01 -1.1250E-01</leafValues></_><_><internalNodes>0 -1 546 2.4459E-02</internalNodes><leafValues>5.6989E-02 -5.1025E-01</leafValues></_><_><internalNodes>0 -1 547 1.0101E-01</internalNodes><leafValues>9.4210E-03 -3.6691E-01</leafValues></_><_><internalNodes>0 -1 548 9.0740E-02</internalNodes><leafValues>5.4000E-02 -5.1181E-01</leafValues></_><_><internalNodes>0 -1 549 -4.9558E-02</internalNodes><leafValues>-6.2467E-01 4.0988E-02</leafValues></_><_><internalNodes>0 -1 550 2.6558E-01</internalNodes><leafValues>-8.6137E-02 3.2438E-01</leafValues></_><_><internalNodes>0 -1 551 1.8632E-03</internalNodes><leafValues>-5.4563E-01 5.8684E-02</leafValues></_><_><internalNodes>0 -1 552 1.1805E-02</internalNodes><leafValues>-2.0604E-01 1.4167E-01</leafValues></_><_><internalNodes>0 -1 553 6.8137E-04</internalNodes><leafValues>-2.0806E-01 9.2627E-02</leafValues></_><_><internalNodes>0 -1 554 5.7278E-04</internalNodes><leafValues>-4.3171E-01 6.3360E-02</leafValues></_><_><internalNodes>0 -1 555 -1.1042E-02</internalNodes><leafValues>1.8144E-01 -4.1708E-02</leafValues></_><_><internalNodes>0 -1 556 9.5697E-03</internalNodes><leafValues>-1.2098E-01 2.1608E-01</leafValues></_><_><internalNodes>0 -1 557 7.4274E-02</internalNodes><leafValues>2.6400E-02 -7.7602E-01</leafValues></_><_><internalNodes>0 -1 558 -2.5816E-02</internalNodes><leafValues>5.3497E-01 -5.2025E-02</leafValues></_><_><internalNodes>0 -1 559 -6.3315E-02</internalNodes><leafValues>5.1900E-01 -1.9330E-02</leafValues></_><_><internalNodes>0 -1 560 -6.6432E-02</internalNodes><leafValues>7.2141E-01 -3.2882E-02</leafValues></_><_><internalNodes>0 -1 561 -7.5749E-02</internalNodes><leafValues>4.1485E-01 -5.5452E-02</leafValues></_><_><internalNodes>0 -1 562 -2.0296E-02</internalNodes><leafValues>-3.3251E-01 8.2398E-02</leafValues></_><_><internalNodes>0 -1 563 2.2173E-02</internalNodes><leafValues>-1.4419E-01 1.7281E-01</leafValues></_><_><internalNodes>0 -1 564 4.2086E-03</internalNodes><leafValues>-3.0237E-01 8.6699E-02</leafValues></_><_><internalNodes>0 -1 565 6.8267E-02</internalNodes><leafValues>8.7291E-03 -3.6956E-01</leafValues></_><_><internalNodes>0 -1 566 5.1220E-03</internalNodes><leafValues>-2.0825E-01 1.4530E-01</leafValues></_><_><internalNodes>0 -1 567 -5.3114E-02</internalNodes><leafValues>-5.5142E-01 4.3421E-02</leafValues></_><_><internalNodes>0 -1 568 -4.9740E-02</internalNodes><leafValues>4.4077E-01 -6.4350E-02</leafValues></_></weakClassifiers></_><_><maxWeakCount>94</maxWeakCount><stageThreshold>-1.8378E+00</stageThreshold><weakClassifiers><_><internalNodes>0 -1 569 -3.3883E-04</internalNodes><leafValues>1.8998E-01 -4.6185E-01</leafValues></_><_><internalNodes>0 -1 570 -1.5632E-03</internalNodes><leafValues>1.9381E-01 -4.3519E-01</leafValues></_><_><internalNodes>0 -1 571 1.5553E-03</internalNodes><leafValues>-4.7420E-01 1.2138E-01</leafValues></_><_><internalNodes>0 -1 572 -3.1417E-02</internalNodes><leafValues>-3.9097E-01 1.0952E-01</leafValues></_><_><internalNodes>0 -1 573 -3.2835E-03</internalNodes><leafValues>1.6429E-01 -3.2752E-01</leafValues></_><_><internalNodes>0 -1 574 5.8749E-03</internalNodes><leafValues>7.6226E-02 -4.3471E-01</leafValues></_><_><internalNodes>0 -1 575 4.4847E-03</internalNodes><leafValues>1.2198E-01 -4.4872E-01</leafValues></_><_><internalNodes>0 -1 576 1.9836E-03</internalNodes><leafValues>-6.2911E-01 1.0123E-01</leafValues></_><_><internalNodes>0 -1 577 1.2609E-02</internalNodes><leafValues>1.0438E-01 -3.5015E-01</leafValues></_><_><internalNodes>0 -1 578 -4.7476E-04</internalNodes><leafValues>1.1008E-01 -3.0430E-01</leafValues></_><_><internalNodes>0 -1 579 3.2357E-03</internalNodes><leafValues>-2.7058E-01 1.2746E-01</leafValues></_><_><internalNodes>0 -1 580 9.9899E-03</internalNodes><leafValues>6.3907E-02 -4.7118E-01</leafValues></_><_><internalNodes>0 -1 581 5.6069E-04</internalNodes><leafValues>-3.1783E-01 1.0404E-01</leafValues></_><_><internalNodes>0 -1 582 -5.7695E-02</internalNodes><leafValues>-5.1343E-01 2.6395E-02</leafValues></_><_><internalNodes>0 -1 583 5.5948E-03</internalNodes><leafValues>7.6775E-02 -4.3374E-01</leafValues></_><_><internalNodes>0 -1 584 -3.8771E-03</internalNodes><leafValues>1.3988E-01 -2.0222E-01</leafValues></_><_><internalNodes>0 -1 585 -4.7874E-02</internalNodes><leafValues>-4.7928E-01 6.8043E-02</leafValues></_><_><internalNodes>0 -1 586 2.5818E-02</internalNodes><leafValues>-4.5524E-02 3.9453E-01</leafValues></_><_><internalNodes>0 -1 587 1.6697E-04</internalNodes><leafValues>-3.0881E-01 1.0875E-01</leafValues></_><_><internalNodes>0 -1 588 9.8889E-04</internalNodes><leafValues>6.8699E-02 -4.1813E-01</leafValues></_><_><internalNodes>0 -1 589 -3.4261E-03</internalNodes><leafValues>-2.8930E-01 1.1480E-01</leafValues></_><_><internalNodes>0 -1 590 6.6044E-02</internalNodes><leafValues>1.6809E-02 -3.3535E-01</leafValues></_><_><internalNodes>0 -1 591 2.8318E-03</internalNodes><leafValues>-3.9482E-01 8.5599E-02</leafValues></_><_><internalNodes>0 -1 592 4.2681E-01</internalNodes><leafValues>5.0978E-03 -5.9331E-01</leafValues></_><_><internalNodes>0 -1 593 1.1961E-01</internalNodes><leafValues>2.7438E-02 -7.6616E-01</leafValues></_><_><internalNodes>0 -1 594 1.9571E-02</internalNodes><leafValues>-1.1966E-01 2.3962E-01</leafValues></_><_><internalNodes>0 -1 595 -1.7432E-02</internalNodes><leafValues>-5.8530E-01 5.6400E-02</leafValues></_><_><internalNodes>0 -1 596 -1.1197E-01</internalNodes><leafValues>-6.7248E-01 2.9151E-02</leafValues></_><_><internalNodes>0 -1 597 -4.5748E-03</internalNodes><leafValues>-4.7730E-01 5.6613E-02</leafValues></_><_><internalNodes>0 -1 598 -5.1502E-03</internalNodes><leafValues>1.1511E-01 -1.0732E-01</leafValues></_><_><internalNodes>0 -1 599 2.9034E-02</internalNodes><leafValues>-5.3369E-02 6.4226E-01</leafValues></_><_><internalNodes>0 -1 600 -1.8051E-03</internalNodes><leafValues>1.2795E-01 -1.2329E-01</leafValues></_><_><internalNodes>0 -1 601 -2.4375E-03</internalNodes><leafValues>-3.5312E-01 8.7703E-02</leafValues></_><_><internalNodes>0 -1 602 -1.9070E-02</internalNodes><leafValues>-4.0662E-01 4.3273E-02</leafValues></_><_><internalNodes>0 -1 603 -5.0454E-02</internalNodes><leafValues>-8.1198E-01 2.8289E-02</leafValues></_><_><internalNodes>0 -1 604 1.6544E-03</internalNodes><leafValues>-1.6964E-01 1.2195E-01</leafValues></_><_><internalNodes>0 -1 605 -4.6791E-02</internalNodes><leafValues>4.0614E-01 -6.1175E-02</leafValues></_><_><internalNodes>0 -1 606 -5.5954E-02</internalNodes><leafValues>-8.2663E-01 2.7775E-02</leafValues></_><_><internalNodes>0 -1 607 1.4470E-03</internalNodes><leafValues>-1.4954E-01 1.5967E-01</leafValues></_><_><internalNodes>0 -1 608 -1.2529E-02</internalNodes><leafValues>-4.2505E-01 2.1658E-02</leafValues></_><_><internalNodes>0 -1 609 1.1087E-03</internalNodes><leafValues>-3.6007E-01 6.4415E-02</leafValues></_><_><internalNodes>0 -1 610 3.9362E-02</internalNodes><leafValues>8.2419E-03 -7.5303E-01</leafValues></_><_><internalNodes>0 -1 611 1.8824E-02</internalNodes><leafValues>4.4821E-02 -5.0604E-01</leafValues></_><_><internalNodes>0 -1 612 -3.2083E-02</internalNodes><leafValues>3.1431E-01 -3.9182E-02</leafValues></_><_><internalNodes>0 -1 613 -3.1082E-02</internalNodes><leafValues>-7.6904E-01 3.0743E-02</leafValues></_><_><internalNodes>0 -1 614 2.3218E-02</internalNodes><leafValues>-5.7749E-02 2.8955E-01</leafValues></_><_><internalNodes>0 -1 615 -1.1492E-03</internalNodes><leafValues>1.1501E-01 -1.9311E-01</leafValues></_><_><internalNodes>0 -1 616 -1.6594E-02</internalNodes><leafValues>-4.2299E-01 4.3739E-02</leafValues></_><_><internalNodes>0 -1 617 -1.0147E-02</internalNodes><leafValues>2.5580E-01 -9.1966E-02</leafValues></_><_><internalNodes>0 -1 618 -1.3054E-02</internalNodes><leafValues>1.8340E-01 -4.0161E-02</leafValues></_><_><internalNodes>0 -1 619 3.7464E-03</internalNodes><leafValues>-1.2587E-01 2.2247E-01</leafValues></_><_><internalNodes>0 -1 620 -4.8464E-02</internalNodes><leafValues>-5.8156E-01 2.9713E-02</leafValues></_><_><internalNodes>0 -1 621 6.4649E-03</internalNodes><leafValues>9.3169E-02 -2.9047E-01</leafValues></_><_><internalNodes>0 -1 622 1.5608E-02</internalNodes><leafValues>4.7332E-02 -4.4806E-01</leafValues></_><_><internalNodes>0 -1 623 -5.8315E-03</internalNodes><leafValues>9.8942E-02 -2.2057E-01</leafValues></_><_><internalNodes>0 -1 624 7.3608E-02</internalNodes><leafValues>1.6780E-02 -5.4953E-01</leafValues></_><_><internalNodes>0 -1 625 -6.4223E-03</internalNodes><leafValues>-2.9648E-01 7.3540E-02</leafValues></_><_><internalNodes>0 -1 626 2.2267E-05</internalNodes><leafValues>-3.4212E-01 4.1858E-02</leafValues></_><_><internalNodes>0 -1 627 3.7274E-02</internalNodes><leafValues>2.7458E-02 -7.8552E-01</leafValues></_><_><internalNodes>0 -1 628 4.2739E-03</internalNodes><leafValues>-8.2515E-02 1.0405E-01</leafValues></_><_><internalNodes>0 -1 629 1.1906E-03</internalNodes><leafValues>-1.6300E-01 1.5301E-01</leafValues></_><_><internalNodes>0 -1 630 8.7800E-03</internalNodes><leafValues>-9.2886E-02 1.3148E-01</leafValues></_><_><internalNodes>0 -1 631 2.4151E-03</internalNodes><leafValues>4.7599E-02 -4.4830E-01</leafValues></_><_><internalNodes>0 -1 632 -2.7428E-02</internalNodes><leafValues>1.9811E-01 -5.5980E-02</leafValues></_><_><internalNodes>0 -1 633 -1.4117E-03</internalNodes><leafValues>-2.1139E-01 1.0410E-01</leafValues></_><_><internalNodes>0 -1 634 -2.0210E-01</internalNodes><leafValues>-7.7120E-01 7.0582E-03</leafValues></_><_><internalNodes>0 -1 635 -4.1451E-02</internalNodes><leafValues>2.8295E-01 -7.1324E-02</leafValues></_><_><internalNodes>0 -1 636 4.8562E-03</internalNodes><leafValues>8.6694E-02 -2.3542E-01</leafValues></_><_><internalNodes>0 -1 637 -4.4663E-05</internalNodes><leafValues>1.3257E-01 -2.0169E-01</leafValues></_><_><internalNodes>0 -1 638 3.7672E-02</internalNodes><leafValues>-7.4952E-02 3.3843E-01</leafValues></_><_><internalNodes>0 -1 639 7.4343E-02</internalNodes><leafValues>3.2905E-02 -7.3537E-01</leafValues></_><_><internalNodes>0 -1 640 -1.0186E-02</internalNodes><leafValues>-3.1277E-01 4.4164E-02</leafValues></_><_><internalNodes>0 -1 641 -2.4507E-02</internalNodes><leafValues>-6.1347E-01 2.9692E-02</leafValues></_><_><internalNodes>0 -1 642 -3.8238E-02</internalNodes><leafValues>3.5584E-01 -4.8389E-02</leafValues></_><_><internalNodes>0 -1 643 1.7984E-01</internalNodes><leafValues>1.9502E-02 -9.8486E-01</leafValues></_><_><internalNodes>0 -1 644 8.4766E-04</internalNodes><leafValues>-2.7960E-01 7.8323E-02</leafValues></_><_><internalNodes>0 -1 645 3.7179E-03</internalNodes><leafValues>7.2525E-02 -2.4067E-01</leafValues></_><_><internalNodes>0 -1 646 -9.0932E-02</internalNodes><leafValues>-7.1539E-01 8.8080E-03</leafValues></_><_><internalNodes>0 -1 647 -8.0088E-02</internalNodes><leafValues>-6.7831E-01 2.4904E-02</leafValues></_><_><internalNodes>0 -1 648 7.6924E-03</internalNodes><leafValues>-5.0967E-02 1.1953E-01</leafValues></_><_><internalNodes>0 -1 649 4.1485E-02</internalNodes><leafValues>-4.9494E-02 3.5387E-01</leafValues></_><_><internalNodes>0 -1 650 3.4052E-02</internalNodes><leafValues>4.2201E-02 -5.0111E-01</leafValues></_><_><internalNodes>0 -1 651 -2.6236E-02</internalNodes><leafValues>4.4935E-01 -4.1851E-02</leafValues></_><_><internalNodes>0 -1 652 -5.1374E-02</internalNodes><leafValues>-9.5943E-01 1.7193E-02</leafValues></_><_><internalNodes>0 -1 653 -2.6743E-02</internalNodes><leafValues>-6.5632E-01 2.1778E-02</leafValues></_><_><internalNodes>0 -1 654 -1.3731E-03</internalNodes><leafValues>-1.8639E-01 4.1139E-02</leafValues></_><_><internalNodes>0 -1 655 1.0963E-03</internalNodes><leafValues>-1.4219E-01 1.3832E-01</leafValues></_><_><internalNodes>0 -1 656 -4.5012E-03</internalNodes><leafValues>-1.8469E-01 9.1024E-02</leafValues></_><_><internalNodes>0 -1 657 4.4253E-04</internalNodes><leafValues>-1.2737E-01 1.3655E-01</leafValues></_><_><internalNodes>0 -1 658 3.0501E-02</internalNodes><leafValues>-5.8146E-02 2.4190E-01</leafValues></_><_><internalNodes>0 -1 659 -1.1692E-01</internalNodes><leafValues>-5.5466E-01 3.0249E-02</leafValues></_><_><internalNodes>0 -1 660 -9.5685E-04</internalNodes><leafValues>5.1900E-02 -1.4153E-01</leafValues></_><_><internalNodes>0 -1 661 1.3096E-03</internalNodes><leafValues>-1.4248E-01 1.2228E-01</leafValues></_><_><internalNodes>0 -1 662 3.4989E-02</internalNodes><leafValues>2.7653E-02 -6.1739E-01</leafValues></_></weakClassifiers></_><_><maxWeakCount>82</maxWeakCount><stageThreshold>-1.9031E+00</stageThreshold><weakClassifiers><_><internalNodes>0 -1 663 1.6489E-01</internalNodes><leafValues>-2.5657E-01 4.1278E-01</leafValues></_><_><internalNodes>0 -1 664 2.0585E-02</internalNodes><leafValues>-5.2442E-01 1.4911E-01</leafValues></_><_><internalNodes>0 -1 665 8.8765E-04</internalNodes><leafValues>1.3335E-01 -5.2260E-01</leafValues></_><_><internalNodes>0 -1 666 -1.3321E-03</internalNodes><leafValues>-3.6569E-01 2.0482E-01</leafValues></_><_><internalNodes>0 -1 667 7.7916E-02</internalNodes><leafValues>-2.1557E-01 3.1070E-01</leafValues></_><_><internalNodes>0 -1 668 2.4321E-03</internalNodes><leafValues>-4.4743E-01 1.0638E-01</leafValues></_><_><internalNodes>0 -1 669 -5.8699E-03</internalNodes><leafValues>-3.8801E-01 1.4411E-01</leafValues></_><_><internalNodes>0 -1 670 6.9754E-02</internalNodes><leafValues>1.3225E-02 -8.0097E-01</leafValues></_><_><internalNodes>0 -1 671 3.8338E-03</internalNodes><leafValues>-4.3139E-01 1.4254E-01</leafValues></_><_><internalNodes>0 -1 672 -1.5829E-02</internalNodes><leafValues>3.0955E-01 -1.2233E-01</leafValues></_><_><internalNodes>0 -1 673 6.6198E-02</internalNodes><leafValues>-2.0558E-01 1.9531E-01</leafValues></_><_><internalNodes>0 -1 674 1.7640E-02</internalNodes><leafValues>1.0771E-01 -4.3488E-01</leafValues></_><_><internalNodes>0 -1 675 -1.1083E-02</internalNodes><leafValues>-3.6150E-01 1.1327E-01</leafValues></_><_><internalNodes>0 -1 676 -3.6515E-02</internalNodes><leafValues>-4.3912E-01 5.5279E-02</leafValues></_><_><internalNodes>0 -1 677 -3.3373E-02</internalNodes><leafValues>-5.6869E-01 8.4044E-02</leafValues></_><_><internalNodes>0 -1 678 8.1396E-02</internalNodes><leafValues>-1.4235E-01 2.8748E-01</leafValues></_><_><internalNodes>0 -1 679 -4.3892E-03</internalNodes><leafValues>-3.4860E-01 1.1650E-01</leafValues></_><_><internalNodes>0 -1 680 -6.3558E-03</internalNodes><leafValues>-3.3823E-01 1.1005E-01</leafValues></_><_><internalNodes>0 -1 681 2.0912E-02</internalNodes><leafValues>7.8198E-02 -4.6338E-01</leafValues></_><_><internalNodes>0 -1 682 1.1600E-01</internalNodes><leafValues>-2.0529E-01 1.5923E-01</leafValues></_><_><internalNodes>0 -1 683 1.6317E-02</internalNodes><leafValues>-1.0634E-01 3.3454E-01</leafValues></_><_><internalNodes>0 -1 684 -2.8488E-01</internalNodes><leafValues>5.1638E-01 -3.9358E-03</leafValues></_><_><internalNodes>0 -1 685 2.4155E-02</internalNodes><leafValues>-7.1670E-01 5.0032E-02</leafValues></_><_><internalNodes>0 -1 686 1.1413E-02</internalNodes><leafValues>5.9236E-02 -3.8142E-01</leafValues></_><_><internalNodes>0 -1 687 -2.4304E-02</internalNodes><leafValues>4.3476E-01 -8.6574E-02</leafValues></_><_><internalNodes>0 -1 688 -1.5268E-03</internalNodes><leafValues>-6.4308E-01 5.1643E-02</leafValues></_><_><internalNodes>0 -1 689 1.0073E-02</internalNodes><leafValues>7.5743E-02 -4.2903E-01</leafValues></_><_><internalNodes>0 -1 690 -8.1225E-02</internalNodes><leafValues>-4.0827E-01 5.5445E-02</leafValues></_><_><internalNodes>0 -1 691 1.5149E-02</internalNodes><leafValues>5.3085E-02 -5.4495E-01</leafValues></_><_><internalNodes>0 -1 692 -5.3491E-02</internalNodes><leafValues>-4.7422E-01 3.9421E-02</leafValues></_><_><internalNodes>0 -1 693 -4.0884E-02</internalNodes><leafValues>-8.8558E-01 3.2043E-02</leafValues></_><_><internalNodes>0 -1 694 -4.2769E-04</internalNodes><leafValues>-3.0554E-01 5.1433E-02</leafValues></_><_><internalNodes>0 -1 695 1.8441E-02</internalNodes><leafValues>8.0688E-02 -3.5884E-01</leafValues></_><_><internalNodes>0 -1 696 -4.7631E-02</internalNodes><leafValues>-4.6132E-01 6.0593E-02</leafValues></_><_><internalNodes>0 -1 697 8.2442E-03</internalNodes><leafValues>8.9794E-02 -3.7606E-01</leafValues></_><_><internalNodes>0 -1 698 1.0004E-01</internalNodes><leafValues>-8.3760E-02 3.9222E-01</leafValues></_><_><internalNodes>0 -1 699 -2.8421E-02</internalNodes><leafValues>-6.9484E-01 4.9100E-02</leafValues></_><_><internalNodes>0 -1 700 5.6486E-02</internalNodes><leafValues>4.4796E-03 -7.5373E-01</leafValues></_><_><internalNodes>0 -1 701 1.0085E-03</internalNodes><leafValues>-3.7881E-01 7.8377E-02</leafValues></_><_><internalNodes>0 -1 702 -1.2644E-03</internalNodes><leafValues>7.5486E-02 -3.1016E-01</leafValues></_><_><internalNodes>0 -1 703 1.4146E-02</internalNodes><leafValues>-8.1805E-02 3.7314E-01</leafValues></_><_><internalNodes>0 -1 704 -3.1549E-03</internalNodes><leafValues>-2.1242E-01 8.9130E-02</leafValues></_><_><internalNodes>0 -1 705 1.4796E-03</internalNodes><leafValues>-2.1479E-01 1.3543E-01</leafValues></_><_><internalNodes>0 -1 706 -3.1344E-02</internalNodes><leafValues>-5.8115E-01 4.8576E-02</leafValues></_><_><internalNodes>0 -1 707 -7.6150E-02</internalNodes><leafValues>-5.3775E-01 4.8339E-02</leafValues></_><_><internalNodes>0 -1 708 -6.1669E-02</internalNodes><leafValues>-8.4526E-01 1.7449E-04</leafValues></_><_><internalNodes>0 -1 709 -2.7085E-02</internalNodes><leafValues>-5.0659E-01 4.7709E-02</leafValues></_><_><internalNodes>0 -1 710 -2.4241E-02</internalNodes><leafValues>-3.8534E-01 5.0301E-02</leafValues></_><_><internalNodes>0 -1 711 4.1979E-02</internalNodes><leafValues>-1.0378E-01 2.6236E-01</leafValues></_><_><internalNodes>0 -1 712 2.3718E-02</internalNodes><leafValues>5.6897E-02 -2.8959E-01</leafValues></_><_><internalNodes>0 -1 713 -1.8670E-02</internalNodes><leafValues>-3.9925E-01 7.3442E-02</leafValues></_><_><internalNodes>0 -1 714 -1.4987E-02</internalNodes><leafValues>-3.2297E-01 4.1677E-02</leafValues></_><_><internalNodes>0 -1 715 8.7210E-03</internalNodes><leafValues>1.3521E-01 -1.8225E-01</leafValues></_><_><internalNodes>0 -1 716 -1.2239E-02</internalNodes><leafValues>1.5541E-01 -1.5208E-01</leafValues></_><_><internalNodes>0 -1 717 -4.8745E-02</internalNodes><leafValues>-3.6607E-01 6.3153E-02</leafValues></_><_><internalNodes>0 -1 718 -3.8250E-03</internalNodes><leafValues>8.3473E-02 -2.4186E-01</leafValues></_><_><internalNodes>0 -1 719 1.5582E-01</internalNodes><leafValues>3.1954E-02 -6.7813E-01</leafValues></_><_><internalNodes>0 -1 720 6.8242E-02</internalNodes><leafValues>1.5478E-02 -4.2030E-01</leafValues></_><_><internalNodes>0 -1 721 -9.5975E-02</internalNodes><leafValues>-9.5648E-01 2.1445E-02</leafValues></_><_><internalNodes>0 -1 722 -1.2618E-02</internalNodes><leafValues>-5.0545E-01 3.0875E-02</leafValues></_><_><internalNodes>0 -1 723 7.2728E-02</internalNodes><leafValues>4.7215E-02 -4.5075E-01</leafValues></_><_><internalNodes>0 -1 724 2.9923E-02</internalNodes><leafValues>-8.1444E-02 3.1656E-01</leafValues></_><_><internalNodes>0 -1 725 1.9138E-02</internalNodes><leafValues>6.8187E-02 -3.4877E-01</leafValues></_><_><internalNodes>0 -1 726 -3.4315E-02</internalNodes><leafValues>-5.5220E-01 3.7325E-02</leafValues></_><_><internalNodes>0 -1 727 5.2559E-03</internalNodes><leafValues>6.4787E-02 -3.6364E-01</leafValues></_><_><internalNodes>0 -1 728 1.4092E-02</internalNodes><leafValues>-4.8704E-02 2.7678E-01</leafValues></_><_><internalNodes>0 -1 729 -9.0101E-03</internalNodes><leafValues>2.3453E-01 -1.3140E-01</leafValues></_><_><internalNodes>0 -1 730 9.6720E-02</internalNodes><leafValues>2.6661E-02 -7.7423E-01</leafValues></_><_><internalNodes>0 -1 731 8.5365E-02</internalNodes><leafValues>2.3530E-02 -7.0711E-01</leafValues></_><_><internalNodes>0 -1 732 2.4384E-02</internalNodes><leafValues>-6.2648E-02 3.7252E-01</leafValues></_><_><internalNodes>0 -1 733 3.6381E-02</internalNodes><leafValues>4.3359E-02 -6.0222E-01</leafValues></_><_><internalNodes>0 -1 734 -5.3780E-02</internalNodes><leafValues>-3.3441E-01 3.5701E-02</leafValues></_><_><internalNodes>0 -1 735 -1.4787E-02</internalNodes><leafValues>2.9136E-01 -7.4075E-02</leafValues></_><_><internalNodes>0 -1 736 1.2491E-03</internalNodes><leafValues>4.1654E-02 -9.3759E-02</leafValues></_><_><internalNodes>0 -1 737 -2.7573E-02</internalNodes><leafValues>-3.1398E-01 7.2412E-02</leafValues></_><_><internalNodes>0 -1 738 -7.8866E-02</internalNodes><leafValues>6.0656E-01 -2.3838E-02</leafValues></_><_><internalNodes>0 -1 739 -6.9339E-02</internalNodes><leafValues>7.1138E-01 -2.9814E-02</leafValues></_><_><internalNodes>0 -1 740 9.4373E-02</internalNodes><leafValues>3.3579E-02 -5.9774E-01</leafValues></_><_><internalNodes>0 -1 741 -2.6049E-02</internalNodes><leafValues>-4.0575E-01 5.5604E-02</leafValues></_><_><internalNodes>0 -1 742 -7.3630E-02</internalNodes><leafValues>-6.0780E-01 2.5252E-02</leafValues></_><_><internalNodes>0 -1 743 -1.8610E-02</internalNodes><leafValues>2.4014E-01 -9.5390E-02</leafValues></_><_><internalNodes>0 -1 744 1.3330E-01</internalNodes><leafValues>-6.9742E-02 1.3323E-01</leafValues></_></weakClassifiers></_><_><maxWeakCount>112</maxWeakCount><stageThreshold>-1.6910E+00</stageThreshold><weakClassifiers><_><internalNodes>0 -1 745 -4.1725E-03</internalNodes><leafValues>1.9311E-01 -4.9631E-01</leafValues></_><_><internalNodes>0 -1 746 9.6607E-04</internalNodes><leafValues>-5.4340E-01 1.2434E-01</leafValues></_><_><internalNodes>0 -1 747 1.0262E-03</internalNodes><leafValues>-4.6322E-01 1.1160E-01</leafValues></_><_><internalNodes>0 -1 748 3.6368E-03</internalNodes><leafValues>8.2919E-02 -3.6663E-01</leafValues></_><_><internalNodes>0 -1 749 -2.8365E-03</internalNodes><leafValues>-6.7366E-01 6.5546E-02</leafValues></_><_><internalNodes>0 -1 750 -1.0112E-03</internalNodes><leafValues>1.4055E-01 -3.5270E-01</leafValues></_><_><internalNodes>0 -1 751 -2.5435E-03</internalNodes><leafValues>1.4191E-01 -2.8351E-01</leafValues></_><_><internalNodes>0 -1 752 3.3015E-03</internalNodes><leafValues>4.6554E-02 -4.8537E-01</leafValues></_><_><internalNodes>0 -1 753 -1.1803E-02</internalNodes><leafValues>-3.7959E-01 9.2072E-02</leafValues></_><_><internalNodes>0 -1 754 -1.3293E-03</internalNodes><leafValues>1.7311E-01 -1.6890E-01</leafValues></_><_><internalNodes>0 -1 755 1.4958E-01</internalNodes><leafValues>3.7627E-02 -8.0017E-01</leafValues></_><_><internalNodes>0 -1 756 1.6352E-03</internalNodes><leafValues>-2.0858E-01 1.5985E-01</leafValues></_><_><internalNodes>0 -1 757 1.5483E-03</internalNodes><leafValues>-1.7578E-01 1.7560E-01</leafValues></_><_><internalNodes>0 -1 758 -3.5674E-02</internalNodes><leafValues>-4.6058E-01 4.3984E-02</leafValues></_><_><internalNodes>0 -1 759 -1.4559E-02</internalNodes><leafValues>-3.3587E-01 8.3965E-02</leafValues></_><_><internalNodes>0 -1 760 5.2891E-03</internalNodes><leafValues>-3.5635E-01 9.4102E-02</leafValues></_><_><internalNodes>0 -1 761 -9.8066E-04</internalNodes><leafValues>-4.4302E-01 6.4368E-02</leafValues></_><_><internalNodes>0 -1 762 -4.0705E-02</internalNodes><leafValues>-5.9700E-01 1.7847E-02</leafValues></_><_><internalNodes>0 -1 763 2.9682E-02</internalNodes><leafValues>3.8127E-02 -6.6795E-01</leafValues></_><_><internalNodes>0 -1 764 -1.7841E-04</internalNodes><leafValues>7.4119E-02 -3.2121E-01</leafValues></_><_><internalNodes>0 -1 765 1.0051E-03</internalNodes><leafValues>-2.0642E-01 1.2194E-01</leafValues></_><_><internalNodes>0 -1 766 -1.6712E-03</internalNodes><leafValues>-2.6586E-01 7.1883E-02</leafValues></_><_><internalNodes>0 -1 767 -6.9955E-02</internalNodes><leafValues>5.0097E-01 -5.2173E-02</leafValues></_><_><internalNodes>0 -1 768 8.3407E-03</internalNodes><leafValues>-6.9546E-02 1.6949E-01</leafValues></_><_><internalNodes>0 -1 769 1.5483E-02</internalNodes><leafValues>-9.5866E-02 2.8737E-01</leafValues></_><_><internalNodes>0 -1 770 -4.2622E-02</internalNodes><leafValues>-2.5161E-01 1.1382E-01</leafValues></_><_><internalNodes>0 -1 771 3.6459E-03</internalNodes><leafValues>7.0138E-02 -4.0376E-01</leafValues></_><_><internalNodes>0 -1 772 -1.8890E-03</internalNodes><leafValues>1.4696E-01 -1.7880E-01</leafValues></_><_><internalNodes>0 -1 773 -3.4749E-03</internalNodes><leafValues>-2.4986E-01 1.0350E-01</leafValues></_><_><internalNodes>0 -1 774 -3.7792E-02</internalNodes><leafValues>-6.5756E-01 2.3008E-02</leafValues></_><_><internalNodes>0 -1 775 -4.0167E-04</internalNodes><leafValues>1.4988E-01 -1.4528E-01</leafValues></_><_><internalNodes>0 -1 776 3.4891E-02</internalNodes><leafValues>-4.5208E-02 5.1296E-01</leafValues></_><_><internalNodes>0 -1 777 -9.5965E-04</internalNodes><leafValues>1.4688E-01 -1.7245E-01</leafValues></_><_><internalNodes>0 -1 778 -9.6461E-02</internalNodes><leafValues>-7.1814E-01 3.2588E-02</leafValues></_><_><internalNodes>0 -1 779 -1.1925E-03</internalNodes><leafValues>1.3805E-01 -1.4162E-01</leafValues></_><_><internalNodes>0 -1 780 -1.6420E-02</internalNodes><leafValues>-4.1955E-01 4.3041E-02</leafValues></_><_><internalNodes>0 -1 781 -6.1112E-02</internalNodes><leafValues>3.7761E-01 -5.6265E-02</leafValues></_><_><internalNodes>0 -1 782 -3.1682E-02</internalNodes><leafValues>2.1039E-01 -5.4475E-02</leafValues></_><_><internalNodes>0 -1 783 -7.4059E-03</internalNodes><leafValues>-1.8710E-01 1.0876E-01</leafValues></_><_><internalNodes>0 -1 784 -2.8892E-04</internalNodes><leafValues>6.9734E-02 -2.4517E-01</leafValues></_><_><internalNodes>0 -1 785 -7.9922E-03</internalNodes><leafValues>-2.4070E-01 8.8012E-02</leafValues></_><_><internalNodes>0 -1 786 -6.4671E-03</internalNodes><leafValues>2.0820E-01 -6.9062E-02</leafValues></_><_><internalNodes>0 -1 787 -5.3345E-03</internalNodes><leafValues>3.2469E-01 -7.4059E-02</leafValues></_><_><internalNodes>0 -1 788 -6.7914E-03</internalNodes><leafValues>-1.7014E-01 3.7378E-02</leafValues></_><_><internalNodes>0 -1 789 1.6338E-01</internalNodes><leafValues>1.9682E-02 -9.1652E-01</leafValues></_><_><internalNodes>0 -1 790 1.1760E-01</internalNodes><leafValues>8.8446E-04 -7.8051E-01</leafValues></_><_><internalNodes>0 -1 791 -1.1682E-01</internalNodes><leafValues>-9.6010E-01 1.7070E-02</leafValues></_><_><internalNodes>0 -1 792 4.6899E-02</internalNodes><leafValues>4.7892E-02 -3.2045E-01</leafValues></_><_><internalNodes>0 -1 793 -4.0059E-03</internalNodes><leafValues>1.1414E-01 -1.5711E-01</leafValues></_><_><internalNodes>0 -1 794 -4.4986E-05</internalNodes><leafValues>2.9008E-01 -4.2413E-02</leafValues></_><_><internalNodes>0 -1 795 2.1421E-03</internalNodes><leafValues>-3.3138E-01 5.3944E-02</leafValues></_><_><internalNodes>0 -1 796 -7.1409E-02</internalNodes><leafValues>-8.8519E-01 9.3488E-03</leafValues></_><_><internalNodes>0 -1 797 -1.3734E-01</internalNodes><leafValues>-8.3242E-01 1.7800E-02</leafValues></_><_><internalNodes>0 -1 798 6.1766E-04</internalNodes><leafValues>-1.9419E-01 6.8035E-02</leafValues></_><_><internalNodes>0 -1 799 -6.7171E-02</internalNodes><leafValues>-5.7243E-01 3.0334E-02</leafValues></_><_><internalNodes>0 -1 800 2.4611E-03</internalNodes><leafValues>-1.0570E-01 1.8802E-01</leafValues></_><_><internalNodes>0 -1 801 5.0574E-03</internalNodes><leafValues>-6.5922E-02 2.9869E-01</leafValues></_><_><internalNodes>0 -1 802 1.4214E-02</internalNodes><leafValues>6.3768E-02 -2.1217E-01</leafValues></_><_><internalNodes>0 -1 803 -2.0630E-03</internalNodes><leafValues>-2.6714E-01 7.6818E-02</leafValues></_><_><internalNodes>0 -1 804 3.3788E-02</internalNodes><leafValues>2.1774E-02 -7.4938E-01</leafValues></_><_><internalNodes>0 -1 805 -2.7372E-02</internalNodes><leafValues>3.2008E-01 -5.9623E-02</leafValues></_><_><internalNodes>0 -1 806 2.8310E-02</internalNodes><leafValues>4.4151E-02 -4.4279E-01</leafValues></_><_><internalNodes>0 -1 807 3.7205E-03</internalNodes><leafValues>-1.3136E-01 1.5448E-01</leafValues></_><_><internalNodes>0 -1 808 2.3321E-03</internalNodes><leafValues>-1.0849E-01 2.2683E-01</leafValues></_><_><internalNodes>0 -1 809 7.6775E-03</internalNodes><leafValues>4.9520E-02 -3.8855E-01</leafValues></_><_><internalNodes>0 -1 810 -2.9863E-04</internalNodes><leafValues>-1.9633E-01 8.3449E-02</leafValues></_><_><internalNodes>0 -1 811 6.1346E-03</internalNodes><leafValues>5.1433E-02 -3.0832E-01</leafValues></_><_><internalNodes>0 -1 812 3.1091E-02</internalNodes><leafValues>2.4181E-02 -6.0184E-01</leafValues></_><_><internalNodes>0 -1 813 2.9320E-01</internalNodes><leafValues>1.1811E-02 -9.6254E-01</leafValues></_><_><internalNodes>0 -1 814 -6.6322E-04</internalNodes><leafValues>1.0245E-01 -1.4201E-01</leafValues></_><_><internalNodes>0 -1 815 4.4736E-02</internalNodes><leafValues>-1.1239E-01 1.7392E-01</leafValues></_><_><internalNodes>0 -1 816 -1.5153E-02</internalNodes><leafValues>-1.6100E-01 3.1117E-02</leafValues></_><_><internalNodes>0 -1 817 -1.1029E-03</internalNodes><leafValues>1.2129E-01 -1.6182E-01</leafValues></_><_><internalNodes>0 -1 818 -2.8974E-03</internalNodes><leafValues>1.0828E-01 -5.3621E-02</leafValues></_><_><internalNodes>0 -1 819 -9.5785E-03</internalNodes><leafValues>-1.6808E-01 8.5054E-02</leafValues></_><_><internalNodes>0 -1 820 9.9092E-02</internalNodes><leafValues>-1.5470E-02 4.1139E-01</leafValues></_><_><internalNodes>0 -1 821 3.7230E-02</internalNodes><leafValues>-5.2866E-02 3.1804E-01</leafValues></_><_><internalNodes>0 -1 822 -2.4716E-02</internalNodes><leafValues>-4.0339E-01 2.9965E-02</leafValues></_><_><internalNodes>0 -1 823 -9.8965E-02</internalNodes><leafValues>5.8510E-01 -2.6924E-02</leafValues></_><_><internalNodes>0 -1 824 -9.6338E-03</internalNodes><leafValues>-1.7467E-01 7.5127E-02</leafValues></_><_><internalNodes>0 -1 825 1.0484E-03</internalNodes><leafValues>-1.3728E-01 1.0685E-01</leafValues></_><_><internalNodes>0 -1 826 4.2524E-02</internalNodes><leafValues>1.6579E-02 -5.6333E-01</leafValues></_><_><internalNodes>0 -1 827 -3.0866E-03</internalNodes><leafValues>7.5265E-02 -1.9477E-01</leafValues></_><_><internalNodes>0 -1 828 2.8643E-02</internalNodes><leafValues>-6.7578E-02 2.5766E-01</leafValues></_><_><internalNodes>0 -1 829 -1.0627E-02</internalNodes><leafValues>-2.2385E-01 7.2172E-02</leafValues></_><_><internalNodes>0 -1 830 4.6081E-03</internalNodes><leafValues>5.0876E-02 -1.4076E-01</leafValues></_><_><internalNodes>0 -1 831 2.9914E-03</internalNodes><leafValues>-9.7338E-02 1.7666E-01</leafValues></_><_><internalNodes>0 -1 832 -7.7903E-03</internalNodes><leafValues>-9.8008E-02 3.7403E-02</leafValues></_><_><internalNodes>0 -1 833 -6.1339E-04</internalNodes><leafValues>9.9036E-02 -1.6266E-01</leafValues></_><_><internalNodes>0 -1 834 -1.0234E-02</internalNodes><leafValues>2.3655E-01 -3.7817E-02</leafValues></_><_><internalNodes>0 -1 835 -1.1867E-02</internalNodes><leafValues>-8.5035E-01 1.9063E-02</leafValues></_><_><internalNodes>0 -1 836 4.1438E-03</internalNodes><leafValues>8.7878E-02 -9.4405E-02</leafValues></_><_><internalNodes>0 -1 837 -5.1356E-03</internalNodes><leafValues>-3.5700E-01 4.1546E-02</leafValues></_><_><internalNodes>0 -1 838 -1.5296E-03</internalNodes><leafValues>7.7695E-02 -4.3187E-02</leafValues></_><_><internalNodes>0 -1 839 -2.7581E-03</internalNodes><leafValues>1.9066E-01 -8.0680E-02</leafValues></_><_><internalNodes>0 -1 840 2.8375E-01</internalNodes><leafValues>6.2292E-03 -8.8578E-01</leafValues></_><_><internalNodes>0 -1 841 -2.4612E-01</internalNodes><leafValues>-7.0548E-01 2.1799E-02</leafValues></_><_><internalNodes>0 -1 842 -3.9966E-03</internalNodes><leafValues>-1.9711E-01 8.0301E-02</leafValues></_><_><internalNodes>0 -1 843 -8.4951E-03</internalNodes><leafValues>2.1297E-01 -8.2975E-02</leafValues></_><_><internalNodes>0 -1 844 4.7206E-02</internalNodes><leafValues>9.7466E-03 -7.0066E-01</leafValues></_><_><internalNodes>0 -1 845 3.7803E-03</internalNodes><leafValues>7.7479E-02 -2.3372E-01</leafValues></_><_><internalNodes>0 -1 846 4.4632E-02</internalNodes><leafValues>-2.1465E-02 3.2136E-01</leafValues></_><_><internalNodes>0 -1 847 6.8157E-04</internalNodes><leafValues>1.2177E-01 -1.2063E-01</leafValues></_><_><internalNodes>0 -1 848 -6.9712E-02</internalNodes><leafValues>-9.4828E-01 1.2017E-02</leafValues></_><_><internalNodes>0 -1 849 -4.8822E-03</internalNodes><leafValues>-2.1775E-01 7.7113E-02</leafValues></_><_><internalNodes>0 -1 850 3.4388E-03</internalNodes><leafValues>-1.8094E-01 9.3596E-02</leafValues></_><_><internalNodes>0 -1 851 -2.5216E-02</internalNodes><leafValues>-5.5715E-01 2.7421E-02</leafValues></_><_><internalNodes>0 -1 852 7.4310E-03</internalNodes><leafValues>-4.6630E-02 2.1025E-01</leafValues></_><_><internalNodes>0 -1 853 -1.5790E-02</internalNodes><leafValues>-3.3443E-01 4.6292E-02</leafValues></_><_><internalNodes>0 -1 854 3.5080E-03</internalNodes><leafValues>-6.4613E-02 2.2738E-01</leafValues></_><_><internalNodes>0 -1 855 4.4291E-02</internalNodes><leafValues>2.2643E-02 -7.0683E-01</leafValues></_><_><internalNodes>0 -1 856 1.9108E-02</internalNodes><leafValues>-3.5893E-02 1.4614E-01</leafValues></_></weakClassifiers></_><_><maxWeakCount>99</maxWeakCount><stageThreshold>-1.8725E+00</stageThreshold><weakClassifiers><_><internalNodes>0 -1 857 -1.6637E-02</internalNodes><leafValues>2.5967E-01 -4.1162E-01</leafValues></_><_><internalNodes>0 -1 858 2.9866E-02</internalNodes><leafValues>-3.3183E-01 2.0546E-01</leafValues></_><_><internalNodes>0 -1 859 9.1892E-03</internalNodes><leafValues>-3.4482E-01 1.8149E-01</leafValues></_><_><internalNodes>0 -1 860 2.8451E-03</internalNodes><leafValues>-3.2905E-01 9.4392E-02</leafValues></_><_><internalNodes>0 -1 861 3.4258E-02</internalNodes><leafValues>-3.2213E-01 1.7332E-01</leafValues></_><_><internalNodes>0 -1 862 3.4368E-02</internalNodes><leafValues>-3.2594E-01 1.7473E-01</leafValues></_><_><internalNodes>0 -1 863 9.0882E-03</internalNodes><leafValues>1.0527E-01 -4.8131E-01</leafValues></_><_><internalNodes>0 -1 864 -5.0940E-03</internalNodes><leafValues>1.7375E-01 -2.7883E-01</leafValues></_><_><internalNodes>0 -1 865 1.1774E-03</internalNodes><leafValues>-4.2217E-01 1.0232E-01</leafValues></_><_><internalNodes>0 -1 866 3.6798E-02</internalNodes><leafValues>1.1229E-01 -3.8409E-01</leafValues></_><_><internalNodes>0 -1 867 -7.2485E-04</internalNodes><leafValues>-4.4795E-01 8.5080E-02</leafValues></_><_><internalNodes>0 -1 868 1.2603E-02</internalNodes><leafValues>6.0475E-02 -3.5328E-01</leafValues></_><_><internalNodes>0 -1 869 5.1926E-04</internalNodes><leafValues>-3.1916E-01 1.1903E-01</leafValues></_><_><internalNodes>0 -1 870 -1.3244E-02</internalNodes><leafValues>2.1976E-01 -9.5026E-02</leafValues></_><_><internalNodes>0 -1 871 -2.7882E-03</internalNodes><leafValues>-2.7295E-01 1.2420E-01</leafValues></_><_><internalNodes>0 -1 872 2.6591E-02</internalNodes><leafValues>6.0452E-02 -3.9637E-01</leafValues></_><_><internalNodes>0 -1 873 1.2505E-02</internalNodes><leafValues>7.8631E-02 -4.0304E-01</leafValues></_><_><internalNodes>0 -1 874 -1.3857E-02</internalNodes><leafValues>2.5760E-01 -1.0351E-01</leafValues></_><_><internalNodes>0 -1 875 7.2100E-02</internalNodes><leafValues>-5.5194E-01 6.0021E-02</leafValues></_><_><internalNodes>0 -1 876 -9.8339E-04</internalNodes><leafValues>-3.1915E-01 8.7978E-02</leafValues></_><_><internalNodes>0 -1 877 -5.8390E-02</internalNodes><leafValues>-5.5989E-01 5.2990E-02</leafValues></_><_><internalNodes>0 -1 878 4.2504E-03</internalNodes><leafValues>-2.8897E-01 9.2817E-02</leafValues></_><_><internalNodes>0 -1 879 -3.2333E-02</internalNodes><leafValues>-4.8714E-01 6.0788E-02</leafValues></_><_><internalNodes>0 -1 880 4.7366E-02</internalNodes><leafValues>-1.0112E-01 3.2598E-01</leafValues></_><_><internalNodes>0 -1 881 -3.8943E-03</internalNodes><leafValues>1.9173E-01 -1.6729E-01</leafValues></_><_><internalNodes>0 -1 882 5.7729E-02</internalNodes><leafValues>3.6343E-02 -7.3161E-01</leafValues></_><_><internalNodes>0 -1 883 -1.8926E-02</internalNodes><leafValues>3.2471E-01 -8.6188E-02</leafValues></_><_><internalNodes>0 -1 884 -3.9680E-02</internalNodes><leafValues>-4.1827E-01 5.3354E-02</leafValues></_><_><internalNodes>0 -1 885 -2.0734E-02</internalNodes><leafValues>-4.1205E-01 6.3597E-02</leafValues></_><_><internalNodes>0 -1 886 1.5388E-01</internalNodes><leafValues>1.9954E-02 -5.7643E-01</leafValues></_><_><internalNodes>0 -1 887 1.2131E-01</internalNodes><leafValues>4.4516E-02 -5.9093E-01</leafValues></_><_><internalNodes>0 -1 888 2.7479E-05</internalNodes><leafValues>-4.0688E-01 5.2828E-02</leafValues></_><_><internalNodes>0 -1 889 8.8894E-02</internalNodes><leafValues>5.1985E-02 -5.0229E-01</leafValues></_><_><internalNodes>0 -1 890 2.8169E-03</internalNodes><leafValues>6.7726E-02 -1.3582E-01</leafValues></_><_><internalNodes>0 -1 891 -1.7215E-04</internalNodes><leafValues>8.9617E-02 -2.9589E-01</leafValues></_><_><internalNodes>0 -1 892 -3.1831E-02</internalNodes><leafValues>-5.6434E-01 2.2822E-02</leafValues></_><_><internalNodes>0 -1 893 -6.3334E-02</internalNodes><leafValues>-8.2372E-01 2.7576E-02</leafValues></_><_><internalNodes>0 -1 894 -6.9033E-02</internalNodes><leafValues>-6.9788E-01 3.3771E-03</leafValues></_><_><internalNodes>0 -1 895 2.1022E-03</internalNodes><leafValues>-2.7244E-01 8.6923E-02</leafValues></_><_><internalNodes>0 -1 896 3.4066E-02</internalNodes><leafValues>1.7671E-02 -4.3001E-01</leafValues></_><_><internalNodes>0 -1 897 8.1215E-03</internalNodes><leafValues>-1.5943E-01 1.6256E-01</leafValues></_><_><internalNodes>0 -1 898 -1.6329E-03</internalNodes><leafValues>4.2010E-02 -3.2923E-01</leafValues></_><_><internalNodes>0 -1 899 -3.9110E-02</internalNodes><leafValues>-6.0666E-01 4.1249E-02</leafValues></_><_><internalNodes>0 -1 900 -2.3189E-02</internalNodes><leafValues>-5.5365E-01 1.7316E-02</leafValues></_><_><internalNodes>0 -1 901 -6.2944E-02</internalNodes><leafValues>-5.3854E-01 4.1758E-02</leafValues></_><_><internalNodes>0 -1 902 -8.5414E-02</internalNodes><leafValues>-9.3122E-01 -9.1123E-04</leafValues></_><_><internalNodes>0 -1 903 -4.1963E-02</internalNodes><leafValues>-5.6721E-01 3.9176E-02</leafValues></_><_><internalNodes>0 -1 904 1.1166E-02</internalNodes><leafValues>-6.7816E-02 2.9004E-01</leafValues></_><_><internalNodes>0 -1 905 -1.3731E-02</internalNodes><leafValues>3.2328E-01 -1.0593E-01</leafValues></_><_><internalNodes>0 -1 906 -7.5793E-02</internalNodes><leafValues>5.5546E-01 -3.2934E-03</leafValues></_><_><internalNodes>0 -1 907 2.7008E-03</internalNodes><leafValues>1.5311E-01 -1.6604E-01</leafValues></_><_><internalNodes>0 -1 908 1.0165E-02</internalNodes><leafValues>7.6405E-02 -2.8746E-01</leafValues></_><_><internalNodes>0 -1 909 -5.9808E-02</internalNodes><leafValues>-7.3487E-01 3.0371E-02</leafValues></_><_><internalNodes>0 -1 910 9.6448E-02</internalNodes><leafValues>2.6199E-02 -6.6001E-01</leafValues></_><_><internalNodes>0 -1 911 3.2350E-02</internalNodes><leafValues>4.1408E-02 -4.7442E-01</leafValues></_><_><internalNodes>0 -1 912 2.3717E-01</internalNodes><leafValues>-9.5941E-02 2.4070E-01</leafValues></_><_><internalNodes>0 -1 913 