<?xml version="1.0"?>
<!--
 A frontal cat face detector using the basic set of Haar features, i.e.
 horizontal and vertical features but not diagonal features.

 Contributed by Joseph Howse (josephhowse@nummist.com).

 More information can be found in the following publications and
 presentations:

 Joseph Howse. OpenCV for Secret Agents (book). Packt Publishing, January
   2015.
 Joseph Howse. "Training Detectors and Recognizers in Python and OpenCV"
   (tutorial). ISMAR 2014. September 9, 2014.
   http://nummist.com/opencv/Howse_ISMAR_20140909.pdf
 Joseph Howse. "Training Intelligent Camera Systems with Python and OpenCV"
   (webcast). O’Reilly Media. June 17, 2014.
   http://www.oreilly.com/pub/e/3077

 Build scripts and demo applications can be found in the following repository:
 https://bitbucket.org/Joe_Howse/angora-blue

 KNOWN LIMITATIONS:

 Sometimes, the detector mistakenly thinks that a human face is a cat face. In
 situations where either a human or a cat might be encountered, use both a
 human face detector and a cat face detector. Then, if a detected human face
 and a detected cat face intersect, reject the cat face.

 An upright subject is assumed. In situations where the cat's face might be
 sideways or upside down (e.g. the cat is rolling over), try various rotations
 of the input image.

 //////////////////////////////////////////////////////////////////////////
 | Contributors License Agreement
 | IMPORTANT: READ BEFORE DOWNLOADING, COPYING, INSTALLING OR USING.
 |   By downloading, copying, installing or using the software you agree
 |   to this license.
 |   If you do not agree to this license, do not download, install,
 |   copy or use the software.
 |
 | Copyright (c) 2014, Joseph Howse (Nummist Media Corporation Limited,
 | Halifax, Nova Scotia, Canada). All rights reserved.
 |
 | Redistribution and use in source and binary forms, with or without
 | modification, are permitted provided that the following conditions are
 | met:
 |
 |    * Redistributions of source code must retain the above copyright
 |       notice, this list of conditions and the following disclaimer.
 |    * Redistributions in binary form must reproduce the above
 |      copyright notice, this list of conditions and the following
 |      disclaimer in the documentation and/or other materials provided
 |      with the distribution.
 |    * The name of Contributor may not used to endorse or promote products
 |      derived from this software without specific prior written permission.
 |
 | THIS SOFTWARE IS PROVIDED BY THE COPYRIGHT HOLDERS AND CONTRIBUTORS
 | "AS IS" AND ANY EXPRESS OR IMPLIED WARRANTIES, INCLUDING, BUT NOT
 | LIMITED TO, THE IMPLIED WARRANTIES OF MERCHANTABILITY AND FITNESS FOR
 | A PARTICULAR PURPOSE ARE DISCLAIMED. IN NO EVENT SHALL THE
 | CONTRIBUTORS BE LIABLE FOR ANY DIRECT, INDIRECT, INCIDENTAL, SPECIAL,
 | EXEMPLARY, OR CONSEQUENTIAL DAMAGES (INCLUDING, BUT NOT LIMITED TO,
 | PROCUREMENT OF SUBSTITUTE GOODS OR SERVICES; LOSS OF USE, DATA, OR
 | PROFITS; OR BUSINESS INTERRUPTION) HOWEVER CAUSED AND ON ANY THEORY OF
 | LIABILITY, WHETHER IN CONTRACT, STRICT LIABILITY, OR TORT (INCLUDING
 | NEGLIGENCE OR OTHERWISE) ARISING IN ANY WAY OUT OF THE USE OF THIS
 | SOFTWARE, EVEN IF ADVISED OF THE POSSIBILITY OF SUCH DAMAGE.  Back to
 | Top
 //////////////////////////////////////////////////////////////////////////
Minified by Satya Mallick ( Big Vision LLC )--><opencv_storage><cascade><stageType>BOOST</stageType><featureType>HAAR</featureType><height>24</height><width>24</width><stageParams><boostType>GAB</boostType><minHitRate>9.9900E-01</minHitRate><maxFalseAlarm>5.0000E-01</maxFalseAlarm><weightTrimRate>9.5000E-01</weightTrimRate><maxDepth>1</maxDepth><maxWeakCount>100</maxWeakCount></stageParams><featureParams><maxCatCount>0</maxCatCount><featSize>1</featSize><mode>BASIC</mode></featureParams><stageNum>15</stageNum><stages><_><maxWeakCount>25</maxWeakCount><stageThreshold>-1.7761E+00</stageThreshold><weakClassifiers><_><internalNodes>0 -1 445 -1.4773E-02</internalNodes><leafValues>8.4035E-01 -1.2702E-01</leafValues></_><_><internalNodes>0 -1 792 4.5832E-03</internalNodes><leafValues>-2.3792E-01 6.1979E-01</leafValues></_><_><internalNodes>0 -1 813 -1.5045E-02</internalNodes><leafValues>5.7161E-01 -2.0493E-01</leafValues></_><_><internalNodes>0 -1 367 -1.2275E-02</internalNodes><leafValues>5.7243E-01 -1.9821E-01</leafValues></_><_><internalNodes>0 -1 842 8.3929E-04</internalNodes><leafValues>-2.7865E-01 4.3508E-01</leafValues></_><_><internalNodes>0 -1 231 1.5758E-02</internalNodes><leafValues>-2.2697E-01 4.9479E-01</leafValues></_><_><internalNodes>0 -1 581 5.0026E-02</internalNodes><leafValues>-1.5533E-01 6.8104E-01</leafValues></_><_><internalNodes>0 -1 727 1.3195E-02</internalNodes><leafValues>-1.7704E-01 5.8702E-01</leafValues></_><_><internalNodes>0 -1 5 2.8080E-02</internalNodes><leafValues>-1.6798E-01 5.7502E-01</leafValues></_><_><internalNodes>0 -1 704 2.1941E-02</internalNodes><leafValues>-1.4689E-01 5.2395E-01</leafValues></_><_><internalNodes>0 -1 279 -4.7664E-02</internalNodes><leafValues>6.5711E-01 -1.1820E-01</leafValues></_><_><internalNodes>0 -1 278 3.5374E-02</internalNodes><leafValues>-9.7323E-02 7.4618E-01</leafValues></_><_><internalNodes>0 -1 254 1.4257E-04</internalNodes><leafValues>-2.8883E-01 2.8289E-01</leafValues></_><_><internalNodes>0 -1 253 3.8170E-02</internalNodes><leafValues>-1.4375E-01 4.9740E-01</leafValues></_><_><internalNodes>0 -1 142 6.5596E-03</internalNodes><leafValues>1.2217E-01 -6.4209E-01</leafValues></_><_><internalNodes>0 -1 753 -7.5261E-03</internalNodes><leafValues>-7.7928E-01 8.4750E-02</leafValues></_><_><internalNodes>0 -1 754 1.1343E-02</internalNodes><leafValues>-2.2101E-01 3.4455E-01</leafValues></_><_><internalNodes>0 -1 645 -1.8046E-03</internalNodes><leafValues>-7.8646E-01 9.7392E-02</leafValues></_><_><internalNodes>0 -1 457 -6.6228E-03</internalNodes><leafValues>3.1783E-01 -2.0666E-01</leafValues></_><_><internalNodes>0 -1 50 1.0336E-02</internalNodes><leafValues>9.1841E-02 -7.7336E-01</leafValues></_><_><internalNodes>0 -1 552 -2.4217E-02</internalNodes><leafValues>3.6742E-01 -1.9340E-01</leafValues></_><_><internalNodes>0 -1 64 1.4515E-02</internalNodes><leafValues>-1.3652E-01 4.2312E-01</leafValues></_><_><internalNodes>0 -1 645 2.1729E-03</internalNodes><leafValues>7.9096E-02 -7.6427E-01</leafValues></_><_><internalNodes>0 -1 467 -3.9529E-02</internalNodes><leafValues>5.7756E-01 -1.0801E-01</leafValues></_><_><internalNodes>0 -1 640 1.5566E-02</internalNodes><leafValues>-1.0259E-01 4.9773E-01</leafValues></_></weakClassifiers></_><_><maxWeakCount>34</maxWeakCount><stageThreshold>-1.6417E+00</stageThreshold><weakClassifiers><_><internalNodes>0 -1 699 8.2648E-03</internalNodes><leafValues>-1.0914E-01 7.7393E-01</leafValues></_><_><internalNodes>0 -1 697 1.4094E-02</internalNodes><leafValues>-1.4462E-01 7.1109E-01</leafValues></_><_><internalNodes>0 -1 4 6.3192E-03</internalNodes><leafValues>-2.3035E-01 4.4546E-01</leafValues></_><_><internalNodes>0 -1 227 2.0388E-02</internalNodes><leafValues>-2.6456E-01 3.6559E-01</leafValues></_><_><internalNodes>0 -1 206 1.4827E-02</internalNodes><leafValues>-2.0881E-01 4.6143E-01</leafValues></_><_><internalNodes>0 -1 821 2.1516E-02</internalNodes><leafValues>-1.4785E-01 6.4221E-01</leafValues></_><_><internalNodes>0 -1 919 1.4721E-03</internalNodes><leafValues>-2.2546E-01 3.6676E-01</leafValues></_><_><internalNodes>0 -1 814 -2.6045E-02</internalNodes><leafValues>4.1465E-01 -1.5356E-01</leafValues></_><_><internalNodes>0 -1 202 -1.0589E-02</internalNodes><leafValues>4.1223E-01 -1.6899E-01</leafValues></_><_><internalNodes>0 -1 203 6.9683E-03</internalNodes><leafValues>1.0855E-01 -7.1555E-01</leafValues></_><_><internalNodes>0 -1 326 1.1014E-02</internalNodes><leafValues>-1.7491E-01 4.4723E-01</leafValues></_><_><internalNodes>0 -1 387 -1.1037E-02</internalNodes><leafValues>4.4174E-01 -1.3835E-01</leafValues></_><_><internalNodes>0 -1 581 6.2014E-02</internalNodes><leafValues>-1.1346E-01 6.1101E-01</leafValues></_><_><internalNodes>0 -1 318 6.0413E-03</internalNodes><leafValues>1.0155E-01 -7.2788E-01</leafValues></_><_><internalNodes>0 -1 281 -5.8583E-03</internalNodes><leafValues>-6.0383E-01 8.4109E-02</leafValues></_><_><internalNodes>0 -1 885 7.3200E-04</internalNodes><leafValues>-1.6661E-01 3.7945E-01</leafValues></_><_><internalNodes>0 -1 702 1.9083E-02</internalNodes><leafValues>-1.2449E-01 4.2328E-01</leafValues></_><_><internalNodes>0 -1 978 6.8236E-03</internalNodes><leafValues>1.0009E-01 -5.7412E-01</leafValues></_><_><internalNodes>0 -1 655 -8.0357E-03</internalNodes><leafValues>3.5114E-01 -1.5985E-01</leafValues></_><_><internalNodes>0 -1 476 5.3237E-02</internalNodes><leafValues>-1.1999E-01 4.5053E-01</leafValues></_><_><internalNodes>0 -1 380 -2.5084E-02</internalNodes><leafValues>4.2925E-01 -1.3847E-01</leafValues></_><_><internalNodes>0 -1 834 -7.7097E-03</internalNodes><leafValues>4.2246E-01 -1.4711E-01</leafValues></_><_><internalNodes>0 -1 22 1.1427E-02</internalNodes><leafValues>7.3092E-02 -7.6902E-01</leafValues></_><_><internalNodes>0 -1 980 -4.7868E-03</internalNodes><leafValues>-5.4499E-01 8.9875E-02</leafValues></_><_><internalNodes>0 -1 797 9.9205E-04</internalNodes><leafValues>-1.5134E-01 3.5266E-01</leafValues></_><_><internalNodes>0 -1 747 -7.3156E-03</internalNodes><leafValues>-7.7262E-01 7.4859E-02</leafValues></_><_><internalNodes>0 -1 239 5.6916E-03</internalNodes><leafValues>5.7125E-02 -6.7258E-01</leafValues></_><_><internalNodes>0 -1 854 -9.5818E-03</internalNodes><leafValues>3.5281E-01 -1.5295E-01</leafValues></_><_><internalNodes>0 -1 155 2.3030E-02</internalNodes><leafValues>8.0654E-02 -6.6331E-01</leafValues></_><_><internalNodes>0 -1 63 8.3063E-03</internalNodes><leafValues>-1.8261E-01 2.9242E-01</leafValues></_><_><internalNodes>0 -1 166 1.2941E-02</internalNodes><leafValues>6.2764E-02 -7.9859E-01</leafValues></_><_><internalNodes>0 -1 855 4.5794E-03</internalNodes><leafValues>-1.6762E-01 2.8498E-01</leafValues></_><_><internalNodes>0 -1 639 3.1312E-03</internalNodes><leafValues>6.4963E-02 -7.1869E-01</leafValues></_><_><internalNodes>0 -1 438 6.2794E-04</internalNodes><leafValues>-1.4611E-01 3.1873E-01</leafValues></_></weakClassifiers></_><_><maxWeakCount>47</maxWeakCount><stageThreshold>-1.8195E+00</stageThreshold><weakClassifiers><_><internalNodes>0 -1 389 2.8033E-02</internalNodes><leafValues>3.9795E-02 7.6528E-01</leafValues></_><_><internalNodes>0 -1 512 -1.3778E-02</internalNodes><leafValues>4.8011E-01 -2.0892E-01</leafValues></_><_><internalNodes>0 -1 768 -1.5192E-03</internalNodes><leafValues>4.3562E-01 -1.9826E-01</leafValues></_><_><internalNodes>0 -1 234 5.4982E-02</internalNodes><leafValues>-1.9596E-01 5.1034E-01</leafValues></_><_><internalNodes>0 -1 2 -3.8968E-03</internalNodes><leafValues>3.6699E-01 -2.1704E-01</leafValues></_><_><internalNodes>0 -1 875 -1.0690E-02</internalNodes><leafValues>5.7506E-01 -1.2323E-01</leafValues></_><_><internalNodes>0 -1 423 -3.6212E-03</internalNodes><leafValues>3.9190E-01 -2.0496E-01</leafValues></_><_><internalNodes>0 -1 368 -5.6232E-03</internalNodes><leafValues>-7.0911E-01 8.9781E-02</leafValues></_><_><internalNodes>0 -1 311 7.6950E-02</internalNodes><leafValues>-1.6087E-01 3.9858E-01</leafValues></_><_><internalNodes>0 -1 211 -9.4812E-03</internalNodes><leafValues>4.4440E-01 -1.4388E-01</leafValues></_><_><internalNodes>0 -1 637 4.8636E-03</internalNodes><leafValues>8.3069E-02 -7.4363E-01</leafValues></_><_><internalNodes>0 -1 616 -2.9443E-03</internalNodes><leafValues>-6.1577E-01 8.1917E-02</leafValues></_><_><internalNodes>0 -1 573 -2.0939E-03</internalNodes><leafValues>-5.7727E-01 9.1148E-02</leafValues></_><_><internalNodes>0 -1 796 2.7704E-03</internalNodes><leafValues>-1.9286E-01 3.1007E-01</leafValues></_><_><internalNodes>0 -1 386 1.2979E-02</internalNodes><leafValues>-1.4129E-01 3.8875E-01</leafValues></_><_><internalNodes>0 -1 61 -1.1832E-02</internalNodes><leafValues>-7.8204E-01 7.2950E-02</leafValues></_><_><internalNodes>0 -1 265 3.3956E-02</internalNodes><leafValues>-1.3893E-01 3.9773E-01</leafValues></_><_><internalNodes>0 -1 650 4.9064E-03</internalNodes><leafValues>8.1132E-02 -7.2758E-01</leafValues></_><_><internalNodes>0 -1 649 -2.3897E-03</internalNodes><leafValues>-6.3438E-01 7.6958E-02</leafValues></_><_><internalNodes>0 -1 27 2.7627E-02</internalNodes><leafValues>-1.7219E-01 3.7337E-01</leafValues></_><_><internalNodes>0 -1 539 3.9900E-03</internalNodes><leafValues>7.0483E-02 -6.6334E-01</leafValues></_><_><internalNodes>0 -1 503 -1.3985E-03</internalNodes><leafValues>4.2501E-01 -1.2215E-01</leafValues></_><_><internalNodes>0 -1 878 1.3497E-03</internalNodes><leafValues>-1.1210E-01 4.0831E-01</leafValues></_><_><internalNodes>0 -1 709 -3.9142E-03</internalNodes><leafValues>-5.3291E-01 9.4374E-02</leafValues></_><_><internalNodes>0 -1 153 4.9623E-02</internalNodes><leafValues>-9.4220E-02 4.9831E-01</leafValues></_><_><internalNodes>0 -1 89 -6.2201E-02</internalNodes><leafValues>5.1749E-01 -9.4066E-02</leafValues></_><_><internalNodes>0 -1 100 -9.0873E-03</internalNodes><leafValues>-6.6817E-01 7.1877E-02</leafValues></_><_><internalNodes>0 -1 142 7.8745E-03</internalNodes><leafValues>6.2572E-02 -6.6563E-01</leafValues></_><_><internalNodes>0 -1 489 6.6907E-03</internalNodes><leafValues>-1.0588E-01 4.0729E-01</leafValues></_><_><internalNodes>0 -1 811 8.9093E-03</internalNodes><leafValues>-1.3462E-01 3.1838E-01</leafValues></_><_><internalNodes>0 -1 908 3.9682E-03</internalNodes><leafValues>7.1943E-02 -6.0183E-01</leafValues></_><_><internalNodes>0 -1 547 1.1530E-02</internalNodes><leafValues>-1.2776E-01 3.0783E-01</leafValues></_><_><internalNodes>0 -1 497 -3.0327E-02</internalNodes><leafValues>3.6778E-01 -1.4219E-01</leafValues></_><_><internalNodes>0 -1 765 -8.5609E-04</internalNodes><leafValues>2.3869E-01 -1.7459E-01</leafValues></_><_><internalNodes>0 -1 30 -8.7313E-03</internalNodes><leafValues>-5.7229E-01 6.7568E-02</leafValues></_><_><internalNodes>0 -1 515 3.6238E-02</internalNodes><leafValues>-9.3857E-02 4.3806E-01</leafValues></_><_><internalNodes>0 -1 859 -1.7244E-02</internalNodes><leafValues>3.2672E-01 -1.2466E-01</leafValues></_><_><internalNodes>0 -1 571 3.0146E-03</internalNodes><leafValues>8.4438E-02 -4.7966E-01</leafValues></_><_><internalNodes>0 -1 390 -6.5813E-03</internalNodes><leafValues>-6.5076E-01 5.2507E-02</leafValues></_><_><internalNodes>0 -1 379 -2.6519E-03</internalNodes><leafValues>3.9998E-01 -1.2199E-01</leafValues></_><_><internalNodes>0 -1 336 2.2569E-03</internalNodes><leafValues>-1.1875E-01 3.6033E-01</leafValues></_><_><internalNodes>0 -1 342 7.8724E-03</internalNodes><leafValues>6.2931E-02 -7.2076E-01</leafValues></_><_><internalNodes>0 -1 826 5.7557E-04</internalNodes><leafValues>-1.9064E-01 1.9888E-01</leafValues></_><_><internalNodes>0 -1 197 -4.9874E-02</internalNodes><leafValues>3.3845E-01 -1.0515E-01</leafValues></_><_><internalNodes>0 -1 934 -5.1496E-03</internalNodes><leafValues>2.3594E-01 -1.7098E-01</leafValues></_><_><internalNodes>0 -1 800 -4.2707E-03</internalNodes><leafValues>3.9195E-01 -9.3349E-02</leafValues></_><_><internalNodes>0 -1 493 -1.0737E-01</internalNodes><leafValues>5.6014E-01 -6.5083E-02</leafValues></_></weakClassifiers></_><_><maxWeakCount>54</maxWeakCount><stageThreshold>-1.6578E+00</stageThreshold><weakClassifiers><_><internalNodes>0 -1 508 -9.3684E-03</internalNodes><leafValues>7.2174E-01 -1.8106E-02</leafValues></_><_><internalNodes>0 -1 255 1.2989E-03</internalNodes><leafValues>-2.0532E-01 4.2473E-01</leafValues></_><_><internalNodes>0 -1 795 3.6646E-02</internalNodes><leafValues>-1.6230E-01 5.1025E-01</leafValues></_><_><internalNodes>0 -1 163 7.4746E-03</internalNodes><leafValues>-2.5622E-01 3.1707E-01</leafValues></_><_><internalNodes>0 -1 812 -6.4315E-03</internalNodes><leafValues>3.1292E-01 -2.2839E-01</leafValues></_><_><internalNodes>0 -1 341 3.9291E-02</internalNodes><leafValues>-1.3426E-01 5.8238E-01</leafValues></_><_><internalNodes>0 -1 459 7.8859E-02</internalNodes><leafValues>-1.5873E-01 4.5478E-01</leafValues></_><_><internalNodes>0 -1 528 -2.8797E-02</internalNodes><leafValues>5.3398E-01 -1.1107E-01</leafValues></_><_><internalNodes>0 -1 376 -1.0816E-02</internalNodes><leafValues>4.7243E-01 -9.8347E-02</leafValues></_><_><internalNodes>0 -1 5 2.8448E-02</internalNodes><leafValues>-1.5696E-01 3.9995E-01</leafValues></_><_><internalNodes>0 -1 594 -4.1473E-03</internalNodes><leafValues>-6.5492E-01 8.9378E-02</leafValues></_><_><internalNodes>0 -1 780 3.7437E-03</internalNodes><leafValues>-1.6716E-01 2.9252E-01</leafValues></_><_><internalNodes>0 -1 958 6.8117E-03</internalNodes><leafValues>8.5507E-02 -6.0907E-01</leafValues></_><_><internalNodes>0 -1 128 4.9824E-03</internalNodes><leafValues>6.6679E-02 -5.8637E-01</leafValues></_><_><internalNodes>0 -1 401 4.1812E-03</internalNodes><leafValues>-1.0231E-01 4.5616E-01</leafValues></_><_><internalNodes>0 -1 162 -1.0445E-02</internalNodes><leafValues>-7.6295E-01 5.7753E-02</leafValues></_><_><internalNodes>0 -1 315 -6.1920E-03</internalNodes><leafValues>-6.6523E-01 5.2042E-02</leafValues></_><_><internalNodes>0 -1 925 -2.3359E-03</internalNodes><leafValues>3.2779E-01 -1.3041E-01</leafValues></_><_><internalNodes>0 -1 314 -5.6658E-03</internalNodes><leafValues>-6.8134E-01 5.6512E-02</leafValues></_><_><internalNodes>0 -1 819 -1.0911E-02</internalNodes><leafValues>3.3161E-01 -1.2575E-01</leafValues></_><_><internalNodes>0 -1 765 -1.7958E-03</internalNodes><leafValues>3.0493E-01 -1.5026E-01</leafValues></_><_><internalNodes>0 -1 961 -4.0859E-03</internalNodes><leafValues>-5.3060E-01 7.3518E-02</leafValues></_><_><internalNodes>0 -1 232 -2.0980E-02</internalNodes><leafValues>3.0611E-01 -1.2851E-01</leafValues></_><_><internalNodes>0 -1 452 -7.3018E-03</internalNodes><leafValues>3.7514E-01 -1.2826E-01</leafValues></_><_><internalNodes>0 -1 465 -2.9183E-02</internalNodes><leafValues>4.8723E-01 -8.4735E-02</leafValues></_><_><internalNodes>0 -1 609 4.1866E-03</internalNodes><leafValues>7.4396E-02 -5.8253E-01</leafValues></_><_><internalNodes>0 -1 662 -1.3150E-02</internalNodes><leafValues>2.9924E-01 -1.3688E-01</leafValues></_><_><internalNodes>0 -1 209 2.3595E-02</internalNodes><leafValues>6.2198E-02 -6.3623E-01</leafValues></_><_><internalNodes>0 -1 630 -1.7678E-02</internalNodes><leafValues>3.3281E-01 -1.2176E-01</leafValues></_><_><internalNodes>0 -1 544 -1.0657E-02</internalNodes><leafValues>3.7734E-01 -1.0491E-01</leafValues></_><_><internalNodes>0 -1 710 5.6399E-03</internalNodes><leafValues>5.4276E-02 -7.2660E-01</leafValues></_><_><internalNodes>0 -1 536 5.9759E-02</internalNodes><leafValues>-9.3571E-02 4.3768E-01</leafValues></_><_><internalNodes>0 -1 836 1.5958E-03</internalNodes><leafValues>-7.4857E-02 4.6115E-01</leafValues></_><_><internalNodes>0 -1 331 -3.4797E-02</internalNodes><leafValues>4.3322E-01 -1.0314E-01</leafValues></_><_><internalNodes>0 -1 357 7.0810E-02</internalNodes><leafValues>-1.3931E-01 2.7839E-01</leafValues></_><_><internalNodes>0 -1 688 1.0996E-03</internalNodes><leafValues>8.2520E-02 -4.6115E-01</leafValues></_><_><internalNodes>0 -1 271 1.1323E-03</internalNodes><leafValues>-1.1880E-01 3.1659E-01</leafValues></_><_><internalNodes>0 -1 59 2.5820E-02</internalNodes><leafValues>-1.0563E-01 3.3344E-01</leafValues></_><_><internalNodes>0 -1 127 -3.0109E-03</internalNodes><leafValues>-4.3363E-01 9.0101E-02</leafValues></_><_><internalNodes>0 -1 738 6.4697E-03</internalNodes><leafValues>4.3470E-02 -6.7987E-01</leafValues></_><_><internalNodes>0 -1 659 1.6816E-02</internalNodes><leafValues>-9.4611E-02 3.5601E-01</leafValues></_><_><internalNodes>0 -1 642 -1.0638E-02</internalNodes><leafValues>1.9809E-01 -1.5571E-01</leafValues></_><_><internalNodes>0 -1 433 -4.1953E-03</internalNodes><leafValues>-5.3476E-01 6.5040E-02</leafValues></_><_><internalNodes>0 -1 442 -1.5135E-03</internalNodes><leafValues>4.2553E-01 -8.3483E-02</leafValues></_><_><internalNodes>0 -1 375 -1.1658E-03</internalNodes><leafValues>2.4901E-01 -1.2862E-01</leafValues></_><_><internalNodes>0 -1 495 5.2369E-03</internalNodes><leafValues>5.4265E-02 -6.5448E-01</leafValues></_><_><internalNodes>0 -1 325 3.1858E-03</internalNodes><leafValues>-1.0423E-01 3.4729E-01</leafValues></_><_><internalNodes>0 -1 468 3.2316E-03</internalNodes><leafValues>7.3592E-02 -4.5663E-01</leafValues></_><_><internalNodes>0 -1 61 8.1546E-03</internalNodes><leafValues>5.8343E-02 -4.7462E-01</leafValues></_><_><internalNodes>0 -1 261 1.2796E-02</internalNodes><leafValues>-1.0277E-01 3.4186E-01</leafValues></_><_><internalNodes>0 -1 321 -2.3663E-02</internalNodes><leafValues>2.8975E-01 -1.2336E-01</leafValues></_><_><internalNodes>0 -1 648 -1.9081E-03</internalNodes><leafValues>-7.0497E-01 5.8831E-02</leafValues></_><_><internalNodes>0 -1 633 3.0501E-03</internalNodes><leafValues>5.1351E-02 -5.2438E-01</leafValues></_><_><internalNodes>0 -1 204 -4.1300E-02</internalNodes><leafValues>-4.2262E-01 6.5464E-02</leafValues></_></weakClassifiers></_><_><maxWeakCount>66</maxWeakCount><stageThreshold>-1.6744E+00</stageThreshold><weakClassifiers><_><internalNodes>0 -1 699 1.3901E-02</internalNodes><leafValues>4.2875E-02 7.1057E-01</leafValues></_><_><internalNodes>0 -1 444 -1.0641E-02</internalNodes><leafValues>5.9901E-01 -1.4476E-01</leafValues></_><_><internalNodes>0 -1 763 -4.2352E-03</internalNodes><leafValues>4.9660E-01 -1.1619E-01</leafValues></_><_><internalNodes>0 -1 834 1.3073E-02</internalNodes><leafValues>-1.6429E-01 5.0241E-01</leafValues></_><_><internalNodes>0 -1 879 -5.0385E-03</internalNodes><leafValues>4.1822E-01 -1.4691E-01</leafValues></_><_><internalNodes>0 -1 443 1.2403E-03</internalNodes><leafValues>-2.0296E-01 2.7519E-01</leafValues></_><_><internalNodes>0 -1 688 -1.8025E-03</internalNodes><leafValues>-7.3610E-01 7.6008E-02</leafValues></_><_><internalNodes>0 -1 282 9.2999E-02</internalNodes><leafValues>-1.4368E-01 3.3687E-01</leafValues></_><_><internalNodes>0 -1 293 2.1399E-02</internalNodes><leafValues>-1.6605E-01 3.0148E-01</leafValues></_><_><internalNodes>0 -1 703 9.3348E-03</internalNodes><leafValues>-1.6568E-01 3.0876E-01</leafValues></_><_><internalNodes>0 -1 382 -5.8922E-03</internalNodes><leafValues>-5.6215E-01 8.5347E-02</leafValues></_><_><internalNodes>0 -1 260 -1.4118E-03</internalNodes><leafValues>2.6531E-01 -1.8439E-01</leafValues></_><_><internalNodes>0 -1 360 -1.1061E-02</internalNodes><leafValues>2.5005E-01 -1.7930E-01</leafValues></_><_><internalNodes>0 -1 751 -3.8228E-03</internalNodes><leafValues>-6.9964E-01 6.4229E-02</leafValues></_><_><internalNodes>0 -1 900 -8.4846E-03</internalNodes><leafValues>-6.6004E-01 5.2849E-02</leafValues></_><_><internalNodes>0 -1 21 6.9844E-03</internalNodes><leafValues>5.5427E-02 -6.1069E-01</leafValues></_><_><internalNodes>0 -1 952 4.8601E-04</internalNodes><leafValues>-1.8981E-01 2.1059E-01</leafValues></_><_><internalNodes>0 -1 111 3.5325E-02</internalNodes><leafValues>-8.3993E-02 5.1942E-01</leafValues></_><_><internalNodes>0 -1 97 3.9002E-03</internalNodes><leafValues>7.6368E-02 -5.7813E-01</leafValues></_><_><internalNodes>0 -1 374 -4.5399E-03</internalNodes><leafValues>3.3430E-01 -1.2332E-01</leafValues></_><_><internalNodes>0 -1 652 -3.1904E-03</internalNodes><leafValues>-5.5546E-01 7.3628E-02</leafValues></_><_><internalNodes>0 -1 14 -7.7976E-02</internalNodes><leafValues>4.8881E-01 -8.1378E-02</leafValues></_><_><internalNodes>0 -1 7 -1.1979E-02</internalNodes><leafValues>2.7510E-01 -1.6614E-01</leafValues></_><_><internalNodes>0 -1 29 -8.3152E-03</internalNodes><leafValues>-5.9314E-01 7.2015E-02</leafValues></_><_><internalNodes>0 -1 466 1.3828E-02</internalNodes><leafValues>-1.2803E-01 2.9466E-01</leafValues></_><_><internalNodes>0 -1 356 2.0104E-02</internalNodes><leafValues>6.9176E-02 -5.6206E-01</leafValues></_><_><internalNodes>0 -1 530 -4.7183E-02</internalNodes><leafValues>3.6450E-01 -1.0481E-01</leafValues></_><_><internalNodes>0 -1 613 9.7303E-03</internalNodes><leafValues>-9.7578E-02 3.6822E-01</leafValues></_><_><internalNodes>0 -1 667 -3.9134E-03</internalNodes><leafValues>-5.1443E-01 7.2868E-02</leafValues></_><_><internalNodes>0 -1 666 3.0237E-03</internalNodes><leafValues>5.5799E-02 -5.3572E-01</leafValues></_><_><internalNodes>0 -1 304 4.3436E-03</internalNodes><leafValues>-1.5580E-01 2.0469E-01</leafValues></_><_><internalNodes>0 -1 51 1.4063E-02</internalNodes><leafValues>3.6827E-02 -8.5656E-01</leafValues></_><_><internalNodes>0 -1 842 1.3389E-03</internalNodes><leafValues>-1.2770E-01 2.8885E-01</leafValues></_><_><internalNodes>0 -1 791 -1.0684E-03</internalNodes><leafValues>3.4348E-01 -9.6543E-02</leafValues></_><_><internalNodes>0 -1 779 -2.3755E-03</internalNodes><leafValues>-5.2730E-01 6.6802E-02</leafValues></_><_><internalNodes>0 -1 549 -4.5107E-03</internalNodes><leafValues>-5.4067E-01 5.1075E-02</leafValues></_><_><internalNodes>0 -1 487 5.6550E-03</internalNodes><leafValues>-9.0249E-02 3.5250E-01</leafValues></_><_><internalNodes>0 -1 494 -3.3719E-03</internalNodes><leafValues>2.8908E-01 -1.1475E-01</leafValues></_><_><internalNodes>0 -1 135 1.2221E-02</internalNodes><leafValues>-1.0579E-01 3.0013E-01</leafValues></_><_><internalNodes>0 -1 79 3.2931E-03</internalNodes><leafValues>7.7675E-02 -4.1642E-01</leafValues></_><_><internalNodes>0 -1 79 -3.7332E-03</internalNodes><leafValues>-4.6958E-01 7.6013E-02</leafValues></_><_><internalNodes>0 -1 15 -3.0090E-02</internalNodes><leafValues>-6.2377E-01 4.4618E-02</leafValues></_><_><internalNodes>0 -1 538 -1.1998E-02</internalNodes><leafValues>3.4001E-01 -9.7472E-02</leafValues></_><_><internalNodes>0 -1 592 2.5055E-02</internalNodes><leafValues>-7.5191E-02 4.1994E-01</leafValues></_><_><internalNodes>0 -1 233 9.7162E-03</internalNodes><leafValues>5.5983E-02 -6.0615E-01</leafValues></_><_><internalNodes>0 -1 198 -8.3486E-02</internalNodes><leafValues>3.7427E-01 -8.7825E-02</leafValues></_><_><internalNodes>0 -1 110 3.8953E-03</internalNodes><leafValues>-1.3330E-01 2.6032E-01</leafValues></_><_><internalNodes>0 -1 648 -9.8262E-04</internalNodes><leafValues>-3.9981E-01 8.2922E-02</leafValues></_><_><internalNodes>0 -1 58 8.4215E-03</internalNodes><leafValues>-1.3371E-01 2.4221E-01</leafValues></_><_><internalNodes>0 -1 287 1.2292E-03</internalNodes><leafValues>-7.7718E-02 3.8343E-01</leafValues></_><_><internalNodes>0 -1 682 -1.2375E-02</internalNodes><leafValues>2.3886E-01 -1.2221E-01</leafValues></_><_><internalNodes>0 -1 292 5.4269E-03</internalNodes><leafValues>5.5338E-02 -5.6287E-01</leafValues></_><_><internalNodes>0 -1 418 -5.5063E-03</internalNodes><leafValues>-5.7845E-01 4.2599E-02</leafValues></_><_><internalNodes>0 -1 614 1.0439E-02</internalNodes><leafValues>-8.1216E-02 3.8116E-01</leafValues></_><_><internalNodes>0 -1 296 -2.6399E-03</internalNodes><leafValues>-4.5002E-01 6.7338E-02</leafValues></_><_><internalNodes>0 -1 898 2.6167E-03</internalNodes><leafValues>5.5317E-02 -4.4959E-01</leafValues></_><_><internalNodes>0 -1 759 5.4496E-03</internalNodes><leafValues>-8.1449E-02 3.8301E-01</leafValues></_><_><internalNodes>0 -1 762 3.4203E-03</internalNodes><leafValues>-8.8027E-02 3.0552E-01</leafValues></_><_><internalNodes>0 -1 19 9.3909E-03</internalNodes><leafValues>5.8738E-02 -4.9438E-01</leafValues></_><_><internalNodes>0 -1 276 9.6319E-03</internalNodes><leafValues>-1.0816E-01 2.7724E-01</leafValues></_><_><internalNodes>0 -1 87 1.9004E-02</internalNodes><leafValues>-8.2864E-02 3.1289E-01</leafValues></_><_><internalNodes>0 -1 580 -8.5283E-03</internalNodes><leafValues>2.9951E-01 -8.9407E-02</leafValues></_><_><internalNodes>0 -1 242 6.2621E-02</internalNodes><leafValues>-1.0107E-01 2.6782E-01</leafValues></_><_><internalNodes>0 -1 372 1.5605E-02</internalNodes><leafValues>-1.0081E-01 2.9597E-01</leafValues></_><_><internalNodes>0 -1 351 1.3034E-01</internalNodes><leafValues>-8.0540E-02 3.4444E-01</leafValues></_><_><internalNodes>0 -1 53 4.5187E-02</internalNodes><leafValues>5.8132E-02 -5.4694E-01</leafValues></_></weakClassifiers></_><_><maxWeakCount>72</maxWeakCount><stageThreshold>-1.6701E+00</stageThreshold><weakClassifiers><_><internalNodes>0 -1 763 -2.0018E-03</internalNodes><leafValues>6.7057E-01 1.8884E-02</leafValues></_><_><internalNodes>0 -1 508 -1.5712E-02</internalNodes><leafValues>5.8155E-01 -1.4274E-01</leafValues></_><_><internalNodes>0 -1 146 2.4972E-03</internalNodes><leafValues>-1.8454E-01 3.4282E-01</leafValues></_><_><internalNodes>0 -1 824 5.7406E-03</internalNodes><leafValues>-1.7857E-01 5.1571E-01</leafValues></_><_><internalNodes>0 -1 869 8.1183E-04</internalNodes><leafValues>-2.6076E-01 2.2161E-01</leafValues></_><_><internalNodes>0 -1 889 1.9958E-03</internalNodes><leafValues>-1.6690E-01 3.1084E-01</leafValues></_><_><internalNodes>0 -1 943 7.9798E-03</internalNodes><leafValues>-1.7904E-01 2.7573E-01</leafValues></_><_><internalNodes>0 -1 733 1.0206E-02</internalNodes><leafValues>-9.3843E-02 5.3359E-01</leafValues></_><_><internalNodes>0 -1 388 3.4904E-02</internalNodes><leafValues>-8.6875E-02 5.0340E-01</leafValues></_><_><internalNodes>0 -1 564 -3.8091E-03</internalNodes><leafValues>2.3382E-01 -1.7857E-01</leafValues></_><_><internalNodes>0 -1 160 2.0690E-03</internalNodes><leafValues>-1.8348E-01 2.1276E-01</leafValues></_><_><internalNodes>0 -1 367 -1.3204E-02</internalNodes><leafValues>3.0800E-01 -1.0922E-01</leafValues></_><_><internalNodes>0 -1 91 1.6044E-02</internalNodes><leafValues>-1.2722E-01 3.5042E-01</leafValues></_><_><internalNodes>0 -1 52 -2.8436E-02</internalNodes><leafValues>-6.9257E-01 6.0833E-02</leafValues></_><_><internalNodes>0 -1 593 -3.5719E-03</internalNodes><leafValues>-6.1009E-01 5.5150E-02</leafValues></_><_><internalNodes>0 -1 526 -3.3033E-02</internalNodes><leafValues>3.9707E-01 -1.0905E-01</leafValues></_><_><internalNodes>0 -1 863 -3.4918E-03</internalNodes><leafValues>2.2873E-01 -1.6809E-01</leafValues></_><_><internalNodes>0 -1 449 -1.2282E-03</internalNodes><leafValues>2.8336E-01 -1.2107E-01</leafValues></_><_><internalNodes>0 -1 268 1.5130E-02</internalNodes><leafValues>7.4082E-02 -5.0907E-01</leafValues></_><_><internalNodes>0 -1 342 -5.2625E-03</internalNodes><leafValues>-5.1472E-01 5.6423E-02</leafValues></_><_><internalNodes>0 -1 438 1.3198E-03</internalNodes><leafValues>-9.7633E-02 3.6938E-01</leafValues></_><_><internalNodes>0 -1 194 -3.9102E-03</internalNodes><leafValues>-7.5150E-01 5.1221E-02</leafValues></_><_><internalNodes>0 -1 235 7.7747E-03</internalNodes><leafValues>-1.6233E-01 2.0670E-01</leafValues></_><_><internalNodes>0 -1 555 -1.9947E-02</internalNodes><leafValues>3.0092E-01 -9.9984E-02</leafValues></_><_><internalNodes>0 -1 457 -4.9132E-03</internalNodes><leafValues>2.1955E-01 -1.6271E-01</leafValues></_><_><internalNodes>0 -1 970 -6.4506E-03</internalNodes><leafValues>-4.9815E-01 6.7168E-02</leafValues></_><_><internalNodes>0 -1 581 -6.7927E-02</internalNodes><leafValues>4.3458E-01 -7.7230E-02</leafValues></_><_><internalNodes>0 -1 789 -3.7928E-03</internalNodes><leafValues>2.6470E-01 -1.2099E-01</leafValues></_><_><internalNodes>0 -1 38 -2.7826E-02</internalNodes><leafValues>2.9174E-01 -1.0972E-01</leafValues></_><_><internalNodes>0 -1 332 6.0030E-03</internalNodes><leafValues>-1.0543E-01 3.6175E-01</leafValues></_><_><internalNodes>0 -1 972 1.4797E-03</internalNodes><leafValues>6.5247E-02 -5.3304E-01</leafValues></_><_><internalNodes>0 -1 102 9.7709E-03</internalNodes><leafValues>3.5596E-02 -6.8972E-01</leafValues></_><_><internalNodes>0 -1 874 4.5413E-04</internalNodes><leafValues>-1.7234E-01 1.6002E-01</leafValues></_><_><internalNodes>0 -1 687 -1.4396E-03</internalNodes><leafValues>-5.1606E-01 5.5444E-02</leafValues></_><_><internalNodes>0 -1 25 -2.4503E-01</internalNodes><leafValues>-8.0270E-01 2.9995E-02</leafValues></_><_><internalNodes>0 -1 410 4.2062E-03</internalNodes><leafValues>5.0134E-02 -4.9082E-01</leafValues></_><_><internalNodes>0 -1 46 1.4562E-02</internalNodes><leafValues>-1.2065E-01 2.4143E-01</leafValues></_><_><internalNodes>0 -1 74 -3.3104E-02</internalNodes><leafValues>3.6771E-01 -7.8034E-02</leafValues></_><_><internalNodes>0 -1 463 3.2626E-02</internalNodes><leafValues>-8.5231E-02 3.3994E-01</leafValues></_><_><internalNodes>0 -1 411 -1.1897E-02</internalNodes><leafValues>2.6477E-01 -1.0444E-01</leafValues></_><_><internalNodes>0 -1 816 5.7352E-03</internalNodes><leafValues>5.5395E-02 -5.1974E-01</leafValues></_><_><internalNodes>0 -1 170 -1.5063E-02</internalNodes><leafValues>-7.5301E-01 3.0150E-02</leafValues></_><_><internalNodes>0 -1 661 -7.9075E-03</internalNodes><leafValues>2.8287E-01 -1.0228E-01</leafValues></_><_><internalNodes>0 -1 394 3.2160E-03</internalNodes><leafValues>-6.5929E-02 3.6590E-01</leafValues></_><_><internalNodes>0 -1 987 -2.5269E-03</internalNodes><leafValues>-4.7420E-01 5.8166E-02</leafValues></_><_><internalNodes>0 -1 845 -1.8207E-03</internalNodes><leafValues>2.5628E-01 -1.1308E-01</leafValues></_><_><internalNodes>0 -1 66 1.4899E-02</internalNodes><leafValues>3.6266E-02 -7.6168E-01</leafValues></_><_><internalNodes>0 -1 965 3.8532E-03</internalNodes><leafValues>2.6696E-02 -7.5058E-01</leafValues></_><_><internalNodes>0 -1 723 -6.1674E-03</internalNodes><leafValues>3.5573E-01 -8.2323E-02</leafValues></_><_><internalNodes>0 -1 822 -7.0832E-03</internalNodes><leafValues>2.1491E-01 -1.3907E-01</leafValues></_><_><internalNodes>0 -1 724 3.5079E-03</internalNodes><leafValues>4.7017E-02 -6.3157E-01</leafValues></_><_><internalNodes>0 -1 878 1.2707E-03</internalNodes><leafValues>-1.0659E-01 3.1986E-01</leafValues></_><_><internalNodes>0 -1 362 -3.0070E-03</internalNodes><leafValues>-7.9292E-01 3.8936E-02</leafValues></_><_><internalNodes>0 -1 3 2.5490E-03</internalNodes><leafValues>-1.4663E-01 2.0257E-01</leafValues></_><_><internalNodes>0 -1 151 2.7439E-03</internalNodes><leafValues>-9.1609E-02 3.0722E-01</leafValues></_><_><internalNodes>0 -1 608 -2.5973E-03</internalNodes><leafValues>-4.2591E-01 6.7927E-02</leafValues></_><_><internalNodes>0 -1 717 1.4117E-03</internalNodes><leafValues>-1.2322E-01 2.4073E-01</leafValues></_><_><internalNodes>0 -1 603 -2.5579E-02</internalNodes><leafValues>5.7537E-01 -4.9050E-02</leafValues></_><_><internalNodes>0 -1 407 -5.6264E-03</internalNodes><leafValues>-5.2892E-01 6.0454E-02</leafValues></_><_><internalNodes>0 -1 413 -1.8926E-03</internalNodes><leafValues>2.4075E-01 -1.2150E-01</leafValues></_><_><internalNodes>0 -1 96 -1.0207E-02</internalNodes><leafValues>-6.7782E-01 4.3573E-02</leafValues></_><_><internalNodes>0 -1 157 -3.1391E-03</internalNodes><leafValues>1.9982E-01 -1.3408E-01</leafValues></_><_><internalNodes>0 -1 218 -3.1066E-03</internalNodes><leafValues>2.2947E-01 -1.2755E-01</leafValues></_><_><internalNodes>0 -1 866 -5.2223E-03</internalNodes><leafValues>-5.0463E-01 4.9872E-02</leafValues></_><_><internalNodes>0 -1 428 -3.4163E-03</internalNodes><leafValues>2.1629E-01 -1.1370E-01</leafValues></_><_><internalNodes>0 -1 901 5.1404E-03</internalNodes><leafValues>-9.6477E-02 2.4602E-01</leafValues></_><_><internalNodes>0 -1 425 5.8604E-03</internalNodes><leafValues>4.0628E-02 -6.3315E-01</leafValues></_><_><internalNodes>0 -1 936 -1.1339E-03</internalNodes><leafValues>3.4084E-01 -7.9401E-02</leafValues></_><_><internalNodes>0 -1 936 8.0572E-04</internalNodes><leafValues>-9.5763E-02 3.2284E-01</leafValues></_><_><internalNodes>0 -1 431 -4.8957E-03</internalNodes><leafValues>-5.3354E-01 4.9623E-02</leafValues></_><_><internalNodes>0 -1 675 7.1028E-02</internalNodes><leafValues>-6.2328E-02 4.5151E-01</leafValues></_><_><internalNodes>0 -1 911 -1.5201E-02</internalNodes><leafValues>2.5859E-01 -1.0549E-01</leafValues></_></weakClassifiers></_><_><maxWeakCount>81</maxWeakCount><stageThreshold>-1.5793E+00</stageThreshold><weakClassifiers><_><internalNodes>0 -1 562 -5.8624E-03</internalNodes><leafValues>6.2237E-01 -1.5120E-02</leafValues></_><_><internalNodes>0 -1 507 4.7948E-03</internalNodes><leafValues>-1.8685E-01 4.3783E-01</leafValues></_><_><internalNodes>0 -1 870 2.4865E-03</internalNodes><leafValues>-1.9763E-01 3.4099E-01</leafValues></_><_><internalNodes>0 -1 210 -7.7014E-03</internalNodes><leafValues>3.4581E-01 -2.2750E-01</leafValues></_><_><internalNodes>0 -1 768 -1.8183E-03</internalNodes><leafValues>3.7126E-01 -1.4019E-01</leafValues></_><_><internalNodes>0 -1 791 -1.4325E-03</internalNodes><leafValues>4.4041E-01 -1.0600E-01</leafValues></_><_><internalNodes>0 -1 161 5.4928E-03</internalNodes><leafValues>8.4836E-02 -5.3435E-01</leafValues></_><_><internalNodes>0 -1 837 -7.0448E-04</internalNodes><leafValues>2.8705E-01 -1.4406E-01</leafValues></_><_><internalNodes>0 -1 220 -5.7945E-03</internalNodes><leafValues>-5.1374E-01 8.3975E-02</leafValues></_><_><internalNodes>0 -1 376 -1.1944E-02</internalNodes><leafValues>3.5981E-01 -1.0862E-01</leafValues></_><_><internalNodes>0 -1 385 3.4180E-03</internalNodes><leafValues>-1.2899E-01 3.3065E-01</leafValues></_><_><internalNodes>0 -1 805 -7.2756E-03</internalNodes><leafValues>2.3904E-01 -1.6133E-01</leafValues></_><_><internalNodes>0 -1 647 -8.5911E-03</internalNodes><leafValues>-8.4211E-01 4.1614E-02</leafValues></_><_><internalNodes>0 -1 283 -3.7941E-02</internalNodes><leafValues>2.4674E-01 -1.4177E-01</leafValues></_><_><internalNodes>0 -1 149 -3.6783E-02</internalNodes><leafValues>3.1696E-01 -1.1061E-01</leafValues></_><_><internalNodes>0 -1 31 -1.1087E-01</internalNodes><leafValues>-7.7248E-01 4.9091E-02</leafValues></_><_><internalNodes>0 -1 23 -4.3419E-02</internalNodes><leafValues>-6.3906E-01 4.7249E-02</leafValues></_><_><internalNodes>0 -1 229 7.1156E-03</internalNodes><leafValues>5.5370E-02 -5.6675E-01</leafValues></_><_><internalNodes>0 -1 9 2.9428E-02</internalNodes><leafValues>-1.0745E-01 3.1137E-01</leafValues></_><_><internalNodes>0 -1 13 -5.6870E-02</internalNodes><leafValues>4.8549E-01 -8.4140E-02</leafValues></_><_><internalNodes>0 -1 845 -2.1801E-03</internalNodes><leafValues>3.0136E-01 -1.0869E-01</leafValues></_><_><internalNodes>0 -1 345 1.2336E-03</internalNodes><leafValues>-8.9074E-02 3.3234E-01</leafValues></_><_><internalNodes>0 -1 737 2.7930E-03</internalNodes><leafValues>-1.1784E-01 2.3968E-01</leafValues></_><_><internalNodes>0 -1 300 -1.4339E-01</internalNodes><leafValues>4.7303E-01 -5.1609E-02</leafValues></_><_><internalNodes>0 -1 113 7.9552E-03</internalNodes><leafValues>6.0303E-02 -4.7011E-01</leafValues></_><_><internalNodes>0 -1 397 -4.6113E-03</internalNodes><leafValues>-4.2085E-01 7.6559E-02</leafValues></_><_><internalNodes>0 -1 361 7.8916E-03</internalNodes><leafValues>-1.3884E-01 2.0496E-01</leafValues></_><_><internalNodes>0 -1 196 -2.9021E-02</internalNodes><leafValues>3.3683E-01 -8.6431E-02</leafValues></_><_><internalNodes>0 -1 32 8.7932E-03</internalNodes><leafValues>-1.2117E-01 2.3940E-01</leafValues></_><_><internalNodes>0 -1 692 -4.3327E-03</internalNodes><leafValues>-6.3044E-01 4.8393E-02</leafValues></_><_><internalNodes>0 -1 729 -1.6151E-03</internalNodes><leafValues>3.0204E-01 -9.2361E-02</leafValues></_><_><internalNodes>0 -1 239 -3.6243E-03</internalNodes><leafValues>-4.0947E-01 7.3978E-02</leafValues></_><_><internalNodes>0 -1 142 -8.0829E-03</internalNodes><leafValues>-6.1598E-01 4.0133E-02</leafValues></_><_><internalNodes>0 -1 427 -1.8987E-03</internalNodes><leafValues>2.5910E-01 -1.0554E-01</leafValues></_><_><internalNodes>0 -1 776 3.4846E-03</internalNodes><leafValues>4.1377E-02 -6.4276E-01</leafValues></_><_><internalNodes>0 -1 728 -1.3705E-02</internalNodes><leafValues>2.7236E-01 -1.0047E-01</leafValues></_><_><internalNodes>0 -1 88 -9.5060E-03</internalNodes><leafValues>2.3305E-01 -1.2722E-01</leafValues></_><_><internalNodes>0 -1 424 -1.7753E-02</internalNodes><leafValues>2.7121E-01 -9.8972E-02</leafValues></_><_><internalNodes>0 -1 60 4.1816E-02</internalNodes><leafValues>-8.6315E-02 2.9308E-01</leafValues></_><_><internalNodes>0 -1 470 -5.2781E-03</internalNodes><leafValues>-4.3240E-01 6.6678E-02</leafValues></_><_><internalNodes>0 -1 947 -3.5982E-03</internalNodes><leafValues>-4.0665E-01 5.9939E-02</leafValues></_><_><internalNodes>0 -1 350 -3.3818E-03</internalNodes><leafValues>2.1198E-01 -1.2401E-01</leafValues></_><_><internalNodes>0 -1 148 -8.4469E-03</internalNodes><leafValues>-5.0658E-01 5.6176E-02</leafValues></_><_><internalNodes>0 -1 522 -1.5873E-02</internalNodes><leafValues>3.0238E-01 -8.9767E-02</leafValues></_><_><internalNodes>0 -1 948 5.2925E-03</internalNodes><leafValues>4.7195E-02 -5.8448E-01</leafValues></_><_><internalNodes>0 -1 514 -1.4823E-02</internalNodes><leafValues>2.7581E-01 -1.0344E-01</leafValues></_><_><internalNodes>0 -1 678 -1.2328E-02</internalNodes><leafValues>1.9257E-01 -1.3730E-01</leafValues></_><_><internalNodes>0 -1 887 5.4736E-02</internalNodes><leafValues>-1.0765E-01 2.4070E-01</leafValues></_><_><internalNodes>0 -1 484 -2.0031E-03</internalNodes><leafValues>2.8992E-01 -8.6155E-02</leafValues></_><_><internalNodes>0 -1 347 4.9617E-03</internalNodes><leafValues>3.7793E-02 -6.8242E-01</leafValues></_><_><internalNodes>0 -1 171 2.1582E-02</internalNodes><leafValues>-9.2317E-02 2.6425E-01</leafValues></_><_><internalNodes>0 -1 131 -9.5061E-03</internalNodes><leafValues>2.0518E-01 -1.1375E-01</leafValues></_><_><internalNodes>0 -1 238 7.4238E-02</internalNodes><leafValues>-7.0651E-02 3.3062E-01</leafValues></_><_><internalNodes>0 -1 567 5.8014E-03</internalNodes><leafValues>3.9558E-02 -6.0554E-01</leafValues></_><_><internalNodes>0 -1 489 8.3722E-03</internalNodes><leafValues>-6.6242E-02 3.5559E-01</leafValues></_><_><internalNodes>0 -1 115 5.9322E-03</internalNodes><leafValues>5.1374E-02 -4.4349E-01</leafValues></_><_><internalNodes>0 -1 503 -1.5613E-03</internalNodes><leafValues>3.3984E-01 -7.1965E-02</leafValues></_><_><internalNodes>0 -1 201 -1.6190E-02</internalNodes><leafValues>2.0777E-01 -1.2066E-01</leafValues></_><_><internalNodes>0 -1 589 3.7794E-03</internalNodes><leafValues>4.0290E-02 -5.5574E-01</leafValues></_><_><internalNodes>0 -1 213 -9.3125E-03</internalNodes><leafValues>2.5649E-01 -9.4139E-02</leafValues></_><_><internalNodes>0 -1 927 8.9797E-04</internalNodes><leafValues>-1.0597E-01 3.0084E-01</leafValues></_><_><internalNodes>0 -1 593 4.1124E-03</internalNodes><leafValues>4.3453E-02 -5.6018E-01</leafValues></_><_><internalNodes>0 -1 447 -5.7593E-03</internalNodes><leafValues>-5.5716E-01 3.6531E-02</leafValues></_><_><internalNodes>0 -1 956 -1.7110E-03</internalNodes><leafValues>2.4350E-01 -9.9781E-02</leafValues></_><_><internalNodes>0 -1 975 -1.9409E-02</internalNodes><leafValues>-7.3737E-01 3.4422E-02</leafValues></_><_><internalNodes>0 -1 269 -1.8506E-02</internalNodes><leafValues>2.3960E-01 -1.0179E-01</leafValues></_><_><internalNodes>0 -1 974 -3.4968E-03</internalNodes><leafValues>-4.5450E-01 5.2533E-02</leafValues></_><_><internalNodes>0 -1 722 3.2341E-03</internalNodes><leafValues>-9.7868E-02 2.5211E-01</leafValues></_><_><internalNodes>0 -1 853 -2.1104E-03</internalNodes><leafValues>2.7718E-01 -8.3934E-02</leafValues></_><_><internalNodes>0 -1 310 -6.0913E-03</internalNodes><leafValues>-5.0269E-01 4.7654E-02</leafValues></_><_><internalNodes>0 -1 316 -1.4658E-01</internalNodes><leafValues>-5.8181E-01 3.7255E-02</leafValues></_><_><internalNodes>0 -1 721 -5.7285E-02</internalNodes><leafValues>-8.1681E-01 2.3416E-02</leafValues></_><_><internalNodes>0 -1 560 -1.0856E-02</internalNodes><leafValues>1.6489E-01 -1.3669E-01</leafValues></_><_><internalNodes>0 -1 511 1.4742E-02</internalNodes><leafValues>3.0843E-02 -7.8335E-01</leafValues></_><_><internalNodes>0 -1 701 -1.8798E-02</internalNodes><leafValues>3.1507E-01 -7.6406E-02</leafValues></_><_><internalNodes>0 -1 458 1.8614E-02</internalNodes><leafValues>-8.0179E-02 3.0464E-01</leafValues></_><_><internalNodes>0 -1 803 -4.1011E-02</internalNodes><leafValues>-6.7429E-01 3.5076E-02</leafValues></_><_><internalNodes>0 -1 260 -1.5514E-03</internalNodes><leafValues>1.9351E-01 -1.0953E-01</leafValues></_><_><internalNodes>0 -1 83 7.6966E-03</internalNodes><leafValues>3.2414E-02 -6.0752E-01</leafValues></_><_><internalNodes>0 -1 154 -1.7851E-02</internalNodes><leafValues>2.0461E-01 -1.0081E-01</leafValues></_><_><internalNodes>0 -1 298 2.3060E-03</internalNodes><leafValues>-1.3565E-01 1.7179E-01</leafValues></_></weakClassifiers></_><_><maxWeakCount>88</maxWeakCount><stageThreshold>-1.6159E+00</stageThreshold><weakClassifiers><_><internalNodes>0 -1 877 3.6322E-03</internalNodes><leafValues>8.3465E-02 7.0313E-01</leafValues></_><_><internalNodes>0 -1 450 -2.8561E-03</internalNodes><leafValues>5.3444E-01 -1.4426E-01</leafValues></_><_><internalNodes>0 -1 767 -1.6911E-03</internalNodes><leafValues>4.5417E-01 -1.4540E-01</leafValues></_><_><internalNodes>0 -1 330 2.4873E-02</internalNodes><leafValues>-1.5181E-01 4.7291E-01</leafValues></_><_><internalNodes>0 -1 326 -1.3845E-02</internalNodes><leafValues>4.3979E-01 -1.9150E-01</leafValues></_><_><internalNodes>0 -1 223 -2.0526E-02</internalNodes><leafValues>3.5584E-01 -1.7526E-01</leafValues></_><_><internalNodes>0 -1 513 -1.0602E-02</internalNodes><leafValues>2.1788E-01 -1.8378E-01</leafValues></_><_><internalNodes>0 -1 43 1.5976E-02</internalNodes><leafValues>8.6498E-02 -4.3799E-01</leafValues></_><_><internalNodes>0 -1 698 -4.9494E-03</internalNodes><leafValues>2.3401E-01 -1.5604E-01</leafValues></_><_><internalNodes>0 -1 182 2.8549E-02</internalNodes><leafValues>-1.4325E-01 2.4675E-01</leafValues></_><_><internalNodes>0 -1 125 5.9233E-02</internalNodes><leafValues>-1.0832E-01 3.3649E-01</leafValues></_><_><internalNodes>0 -1 436 9.5888E-02</internalNodes><leafValues>-1.0589E-01 3.7052E-01</leafValues></_><_><internalNodes>0 -1 453 -7.5695E-03</internalNodes><leafValues>2.3113E-01 -1.4908E-01</leafValues></_><_><internalNodes>0 -1 496 4.7857E-03</internalNodes><leafValues>5.1639E-02 -6.2650E-01</leafValues></_><_><internalNodes>0 -1 145 5.4310E-04</internalNodes><leafValues>-1.8886E-01 1.5287E-01</leafValues></_><_><internalNodes>0 -1 941 2.6118E-03</internalNodes><leafValues>6.6003E-02 -4.4276E-01</leafValues></_><_><internalNodes>0 -1 940 -8.0328E-03</internalNodes><leafValues>-5.1599E-01 5.6889E-02</leafValues></_><_><internalNodes>0 -1 842 1.2324E-03</internalNodes><leafValues>-1.2388E-01 2.6770E-01</leafValues></_><_><internalNodes>0 -1 830 -9.7261E-03</internalNodes><leafValues>3.5001E-01 -1.0785E-01</leafValues></_><_><internalNodes>0 -1 334 8.6696E-04</internalNodes><leafValues>-1.1436E-01 2.5564E-01</leafValues></_><_><internalNodes>0 -1 258 -3.4543E-02</internalNodes><leafValues>-5.8314E-01 5.1875E-02</leafValues></_><_><internalNodes>0 -1 342 7.5530E-03</internalNodes><leafValues>3.6180E-02 -6.9380E-01</leafValues></_><_><internalNodes>0 -1 550 4.0939E-03</internalNodes><leafValues>4.1063E-02 -5.9848E-01</leafValues></_><_><internalNodes>0 -1 354 2.8114E-03</internalNodes><leafValues>5.5212E-02 -4.7554E-01</leafValues></_><_><internalNodes>0 -1 353 -3.5045E-03</internalNodes><leafValues>-3.9403E-01 6.9415E-02</leafValues></_><_><internalNodes>0 -1 373 1.7898E-03</internalNodes><leafValues>-7.6636E-02 4.0438E-01</leafValues></_><_><internalNodes>0 -1 486 4.0369E-03</internalNodes><leafValues>-9.7472E-02 2.7785E-01</leafValues></_><_><internalNodes>0 -1 430 -8.5534E-03</internalNodes><leafValues>3.3252E-01 -1.0099E-01</leafValues></_><_><internalNodes>0 -1 69 2.6041E-01</internalNodes><leafValues>-4.3943E-02 5.0610E-01</leafValues></_><_><internalNodes>0 -1 892 1.4894E-03</internalNodes><leafValues>-7.6405E-02 3.0336E-01</leafValues></_><_><internalNodes>0 -1 101 -4.8547E-01</internalNodes><leafValues>6.1893E-01 -3.9150E-02</leafValues></_><_><internalNodes>0 -1 895 -7.6227E-04</internalNodes><leafValues>1.9152E-01 -1.2710E-01</leafValues></_><_><internalNodes>0 -1 553 -4.8854E-03</internalNodes><leafValues>-5.6354E-01 4.4612E-02</leafValues></_><_><internalNodes>0 -1 649 1.8247E-03</internalNodes><leafValues>6.3832E-02 -3.6079E-01</leafValues></_><_><internalNodes>0 -1 2 -3.7001E-03</internalNodes><leafValues>1.9150E-01 -1.3053E-01</leafValues></_><_><internalNodes>0 -1 324 -5.1008E-03</internalNodes><leafValues>4.0634E-01 -6.6168E-02</leafValues></_><_><internalNodes>0 -1 15 -1.7047E-02</internalNodes><leafValues>-3.5267E-01 7.1909E-02</leafValues></_><_><internalNodes>0 -1 415 7.4824E-03</internalNodes><leafValues>5.7628E-02 -4.6900E-01</leafValues></_><_><internalNodes>0 -1 955 -1.0255E-02</internalNodes><leafValues>-5.3143E-01 4.1363E-02</leafValues></_><_><internalNodes>0 -1 500 2.2401E-03</internalNodes><leafValues>-7.4237E-02 3.2402E-01</leafValues></_><_><internalNodes>0 -1 893 -1.1338E-02</internalNodes><leafValues>-5.8282E-01 4.3768E-02</leafValues></_><_><internalNodes>0 -1 532 8.4229E-04</internalNodes><leafValues>-1.2625E-01 1.8474E-01</leafValues></_><_><internalNodes>0 -1 117 2.7595E-02</internalNodes><leafValues>4.2022E-02 -5.0711E-01</leafValues></_><_><internalNodes>0 -1 828 3.0330E-03</internalNodes><leafValues>-7.0778E-02 3.3472E-01</leafValues></_><_><internalNodes>0 -1 984 -8.9767E-04</internalNodes><leafValues>-2.8313E-01 8.4213E-02</leafValues></_><_><internalNodes>0 -1 912 -4.3689E-03</internalNodes><leafValues>-4.8105E-01 4.6537E-02</leafValues></_><_><internalNodes>0 -1 817 -6.5739E-03</internalNodes><leafValues>1.8956E-01 -1.1803E-01</leafValues></_><_><internalNodes>0 -1 768 1.6208E-03</internalNodes><leafValues>-6.5828E-02 3.2123E-01</leafValues></_><_><internalNodes>0 -1 641 4.8786E-03</internalNodes><leafValues>3.4384E-02 -7.0796E-01</leafValues></_><_><internalNodes>0 -1 118 -7.3929E-03</internalNodes><leafValues>-4.5154E-01 4.3622E-02</leafValues></_><_><internalNodes>0 -1 287 2.2087E-03</internalNodes><leafValues>-4.4950E-02 4.9992E-01</leafValues></_><_><internalNodes>0 -1 187 2.9002E-03</internalNodes><leafValues>5.1782E-02 -4.2971E-01</leafValues></_><_><internalNodes>0 -1 287 -9.9636E-04</internalNodes><leafValues>3.0347E-01 -7.4883E-02</leafValues></_><_><internalNodes>0 -1 121 6.3986E-03</internalNodes><leafValues>3.8915E-02 -5.6881E-01</leafValues></_><_><internalNodes>0 -1 433 -5.2967E-03</internalNodes><leafValues>-5.5443E-01 3.3734E-02</leafValues></_><_><internalNodes>0 -1 540 9.2505E-03</internalNodes><leafValues>-9.5526E-02 2.2354E-01</leafValues></_><_><internalNodes>0 -1 942 3.2701E-03</internalNodes><leafValues>-8.7516E-02 2.7356E-01</leafValues></_><_><internalNodes>0 -1 938 -9.0825E-03</internalNodes><leafValues>2.2333E-01 -9.6923E-02</leafValues></_><_><internalNodes>0 -1 981 -3.0516E-03</internalNodes><leafValues>-4.0757E-01 5.0948E-02</leafValues></_><_><internalNodes>0 -1 518 6.3386E-03</internalNodes><leafValues>-6.0889E-02 3.5273E-01</leafValues></_><_><internalNodes>0 -1 568 -3.4347E-03</internalNodes><leafValues>2.9356E-01 -8.1172E-02</leafValues></_><_><internalNodes>0 -1 141 -3.9429E-03</internalNodes><leafValues>-4.9512E-01 4.4033E-02</leafValues></_><_><internalNodes>0 -1 363 -9.1781E-02</internalNodes><leafValues>-3.9046E-01 5.0150E-02</leafValues></_><_><internalNodes>0 -1 259 -6.6375E-02</internalNodes><leafValues>-6.0852E-01 3.0974E-02</leafValues></_><_><internalNodes>0 -1 621 -6.9267E-03</internalNodes><leafValues>-7.3090E-01 2.3664E-02</leafValues></_><_><internalNodes>0 -1 105 -3.5929E-02</internalNodes><leafValues>1.8060E-01 -1.1467E-01</leafValues></_><_><internalNodes>0 -1 848 -4.6623E-03</internalNodes><leafValues>2.3667E-01 -1.0607E-01</leafValues></_><_><internalNodes>0 -1 597 6.3546E-02</internalNodes><leafValues>3.3511E-02 -6.6823E-01</leafValues></_><_><internalNodes>0 -1 303 1.0071E-03</internalNodes><leafValues>-1.1337E-01 1.9138E-01</leafValues></_><_><internalNodes>0 -1 297 2.0964E-03</internalNodes><leafValues>-1.3784E-01 1.6944E-01</leafValues></_><_><internalNodes>0 -1 278 -3.7956E-02</internalNodes><leafValues>4.2278E-01 -5.3925E-02</leafValues></_><_><internalNodes>0 -1 915 1.5982E-03</internalNodes><leafValues>7.2202E-02 -2.9906E-01</leafValues></_><_><internalNodes>0 -1 266 -1.0036E-03</internalNodes><leafValues>3.0661E-01 -7.1594E-02</leafValues></_><_><internalNodes>0 -1 167 -8.7399E-03</internalNodes><leafValues>-4.0562E-01 5.0554E-02</leafValues></_><_><internalNodes>0 -1 132 3.8446E-03</internalNodes><leafValues>3.0860E-02 -5.6328E-01</leafValues></_><_><internalNodes>0 -1 559 2.9180E-03</internalNodes><leafValues>-9.4124E-02 2.1830E-01</leafValues></_><_><internalNodes>0 -1 705 -4.4533E-03</internalNodes><leafValues>2.2356E-01 -1.0032E-01</leafValues></_><_><internalNodes>0 -1 979 2.8719E-03</internalNodes><leafValues>5.8826E-02 -3.5275E-01</leafValues></_><_><internalNodes>0 -1 392 -9.6740E-04</internalNodes><leafValues>2.2895E-01 -8.8445E-02</leafValues></_><_><internalNodes>0 -1 384 6.3863E-03</internalNodes><leafValues>-7.9845E-02 2.6534E-01</leafValues></_><_><internalNodes>0 -1 739 -1.8585E-03</internalNodes><leafValues>-3.5019E-01 5.8831E-02</leafValues></_><_><internalNodes>0 -1 47 -4.1777E-02</internalNodes><leafValues>-7.5916E-01 2.5033E-02</leafValues></_><_><internalNodes>0 -1 798 1.7466E-03</internalNodes><leafValues>-7.8536E-02 2.5857E-01</leafValues></_><_><internalNodes>0 -1 873 -1.7558E-02</internalNodes><leafValues>1.5769E-01 -1.2735E-01</leafValues></_><_><internalNodes>0 -1 622 -2.0211E-02</internalNodes><leafValues>2.4480E-01 -8.0905E-02</leafValues></_><_><internalNodes>0 -1 623 -1.2817E-03</internalNodes><leafValues>2.0145E-01 -1.1555E-01</leafValues></_><_><internalNodes>0 -1 173 -4.6622E-03</internalNodes><leafValues>-5.7475E-01 3.5327E-02</leafValues></_><_><internalNodes>0 -1 624 7.2182E-03</internalNodes><leafValues>-6.5562E-02 2.9846E-01</leafValues></_></weakClassifiers></_><_><maxWeakCount>91</maxWeakCount><stageThreshold>-1.4332E+00</stageThreshold><weakClassifiers><_><internalNodes>0 -1 508 -1.0982E-02</internalNodes><leafValues>6.4476E-01 5.4894E-02</leafValues></_><_><internalNodes>0 -1 256 4.4121E-03</internalNodes><leafValues>-1.1836E-01 5.0046E-01</leafValues></_><_><internalNodes>0 -1 735 2.8575E-03</internalNodes><leafValues>-1.3248E-01 4.2943E-01</leafValues></_><_><internalNodes>0 -1 326 2.0933E-02</internalNodes><leafValues>-1.2826E-01 5.0430E-01</leafValues></_><_><internalNodes>0 -1 742 -1.4590E-02</internalNodes><leafValues>3.1983E-01 -1.6089E-01</leafValues></_><_><internalNodes>0 -1 581 6.0559E-02</internalNodes><leafValues>-7.2835E-02 4.6935E-01</leafValues></_><_><internalNodes>0 -1 537 3.3242E-02</internalNodes><leafValues>-1.2657E-01 3.8025E-01</leafValues></_><_><internalNodes>0 -1 377 -1.5010E-02</internalNodes><leafValues>3.6463E-01 -9.8299E-02</leafValues></_><_><internalNodes>0 -1 888 1.5744E-03</internalNodes><leafValues>-1.1195E-01 3.1573E-01</leafValues></_><_><internalNodes>0 -1 574 -2.3937E-03</internalNodes><leafValues>-4.7028E-01 7.1980E-02</leafValues></_><_><internalNodes>0 -1 263 4.7013E-03</internalNodes><leafValues>9.1855E-02 -3.6549E-01</leafValues></_><_><internalNodes>0 -1 899 3.9329E-03</internalNodes><leafValues>4.4214E-02 -5.6692E-01</leafValues></_><_><internalNodes>0 -1 898 -2.8009E-03</internalNodes><leafValues>-4.8461E-01 5.4655E-02</leafValues></_><_><internalNodes>0 -1 134 -4.2013E-03</internalNodes><leafValues>1.9422E-01 -1.4498E-01</leafValues></_><_><internalNodes>0 -1 61 -8.7564E-03</internalNodes><leafValues>-4.9581E-01 5.6972E-02</leafValues></_><_><internalNodes>0 -1 843 3.0298E-03</internalNodes><leafValues>-1.4588E-01 2.3593E-01</leafValues></_><_><internalNodes>0 -1 882 -1.1957E-02</internalNodes><leafValues>3.6319E-01 -8.9038E-02</leafValues></_><_><internalNodes>0 -1 267 -9.4736E-03</internalNodes><leafValues>-6.6952E-01 5.2262E-02</leafValues></_><_><internalNodes>0 -1 147 -7.3967E-03</internalNodes><leafValues>-5.5038E-01 4.5135E-02</leafValues></_><_><internalNodes>0 -1 909 5.1109E-03</internalNodes><leafValues>4.1587E-02 -5.5356E-01</leafValues></_><_><internalNodes>0 -1 178 2.1153E-02</internalNodes><leafValues>-9.0629E-02 2.9272E-01</leafValues></_><_><internalNodes>0 -1 690 -4.0524E-03</internalNodes><leafValues>-5.5750E-01 4.8259E-02</leafValues></_><_><internalNodes>0 -1 208 -4.5195E-03</internalNodes><leafValues>2.4508E-01 -1.1037E-01</leafValues></_><_><internalNodes>0 -1 802 2.9709E-02</internalNodes><leafValues>-9.0625E-02 3.0535E-01</leafValues></_><_><internalNodes>0 -1 596 -2.4459E-02</internalNodes><leafValues>3.8107E-01 -6.5381E-02</leafValues></_><_><internalNodes>0 -1 833 2.3627E-03</internalNodes><leafValues>-8.9016E-02 2.7662E-01</leafValues></_><_><internalNodes>0 -1 576 2.5605E-03</internalNodes><leafValues>4.9426E-02 -5.4407E-01</leafValues></_><_><internalNodes>0 -1 164 1.1584E-02</internalNodes><leafValues>3.7279E-02 -6.2233E-01</leafValues></_><_><internalNodes>0 -1 745 -6.5263E-03</internalNodes><leafValues>2.2733E-01 -1.1270E-01</leafValues></_><_><internalNodes>0 -1 747 -5.5730E-03</internalNodes><leafValues>-5.2463E-01 4.3970E-02</leafValues></_><_><internalNodes>0 -1 892 2.7682E-03</internalNodes><leafValues>-5.6409E-02 4.5613E-01</leafValues></_><_><internalNodes>0 -1 683 5.3485E-03</internalNodes><leafValues>5.1867E-02 -4.8760E-01</leafValues></_><_><internalNodes>0 -1 165 5.3632E-03</internalNodes><leafValues>4.4009E-02 -4.8531E-01</leafValues></_><_><internalNodes>0 -1 168 -4.5866E-03</internalNodes><leafValues>-4.7416E-01 4.6905E-02</leafValues></_><_><internalNodes>0 -1 448 -2.4733E-03</internalNodes><leafValues>3.5594E-01 -6.6797E-02</leafValues></_><_><internalNodes>0 -1 504 -1.3545E-03</internalNodes><leafValues>2.5692E-01 -1.0550E-01</leafValues></_><_><internalNodes>0 -1 226 2.0623E-02</internalNodes><leafValues>-1.2213E-01 1.8851E-01</leafValues></_><_><internalNodes>0 -1 106 -2.5555E-02</internalNodes><leafValues>2.1115E-01 -1.1155E-01</leafValues></_><_><internalNodes>0 -1 650 -2.6123E-03</internalNodes><leafValues>-4.3362E-01 5.9404E-02</leafValues></_><_><internalNodes>0 -1 454 -2.0257E-02</internalNodes><leafValues>2.3865E-01 -1.1112E-01</leafValues></_><_><internalNodes>0 -1 636 -1.3835E-02</internalNodes><leafValues>2.4716E-01 -9.9341E-02</leafValues></_><_><internalNodes>0 -1 438 1.0408E-03</internalNodes><leafValues>-8.5192E-02 2.8685E-01</leafValues></_><_><internalNodes>0 -1 693 -7.8562E-04</internalNodes><leafValues>-3.1686E-01 7.3742E-02</leafValues></_><_><internalNodes>0 -1 845 -3.1891E-03</internalNodes><leafValues>2.8839E-01 -7.9454E-02</leafValues></_><_><internalNodes>0 -1 556 -1.8864E-02</internalNodes><leafValues>-6.1040E-01 3.4550E-02</leafValues></_><_><internalNodes>0 -1 930 1.9872E-03</internalNodes><leafValues>-6.4915E-02 3.3200E-01</leafValues></_><_><internalNodes>0 -1 307 -4.4487E-03</internalNodes><leafValues>-4.8412E-01 4.3472E-02</leafValues></_><_><internalNodes>0 -1 124 1.1506E-02</internalNodes><leafValues>3.4362E-02 -5.1601E-01</leafValues></_><_><internalNodes>0 -1 299 -4.9164E-03</internalNodes><leafValues>2.8029E-01 -7.6439E-02</leafValues></_><_><internalNodes>0 -1 937 6.8625E-03</internalNodes><leafValues>-1.3435E-01 1.7165E-01</leafValues></_><_><internalNodes>0 -1 788 1.2514E-02</internalNodes><leafValues>-8.2098E-02 2.6367E-01</leafValues></_><_><internalNodes>0 -1 144 2.5324E-02</internalNodes><leafValues>-9.8793E-02 2.1439E-01</leafValues></_><_><internalNodes>0 -1 491 4.2827E-03</internalNodes><leafValues>4.8011E-02 -5.3329E-01</leafValues></_><_><internalNodes>0 -1 172 -1.0589E-02</internalNodes><leafValues>2.0557E-01 -1.1097E-01</leafValues></_><_><internalNodes>0 -1 195 7.3750E-03</internalNodes><leafValues>4.2331E-02 -4.9727E-01</leafValues></_><_><internalNodes>0 -1 477 -1.0184E-02</internalNodes><leafValues>2.2020E-01 -1.0080E-01</leafValues></_><_><internalNodes>0 -1 305 -3.1707E-03</internalNodes><leafValues>-4.1846E-01 5.4483E-02</leafValues></_><_><internalNodes>0 -1 670 2.5342E-03</internalNodes><leafValues>-6.9554E-02 3.2300E-01</leafValues></_><_><internalNodes>0 -1 521 -8.4150E-03</internalNodes><leafValues>2.6280E-01 -9.3805E-02</leafValues></_><_><internalNodes>0 -1 76 4.0150E-02</internalNodes><leafValues>2.9148E-02 -7.8113E-01</leafValues></_><_><internalNodes>0 -1 177 -4.3324E-03</internalNodes><leafValues>-5.2339E-01 3.6420E-02</leafValues></_><_><internalNodes>0 -1 39 -4.0873E-02</internalNodes><leafValues>3.7220E-01 -6.1695E-02</leafValues></_><_><internalNodes>0 -1 13 5.9102E-02</internalNodes><leafValues>-5.1951E-02 4.1702E-01</leafValues></_><_><internalNodes>0 -1 628 -3.1048E-03</internalNodes><leafValues>2.1875E-01 -9.0781E-02</leafValues></_><_><internalNodes>0 -1 627 3.5321E-03</internalNodes><leafValues>-8.2860E-02 2.9276E-01</leafValues></_><_><internalNodes>0 -1 668 -1.2976E-03</internalNodes><leafValues>-4.3279E-01 4.9448E-02</leafValues></_><_><internalNodes>0 -1 176 1.1339E-02</internalNodes><leafValues>2.6531E-02 -6.9359E-01</leafValues></_><_><internalNodes>0 -1 969 8.8861E-03</internalNodes><leafValues>2.6764E-02 -6.1701E-01</leafValues></_><_><internalNodes>0 -1 659 1.1917E-02</internalNodes><leafValues>-9.7342E-02 2.0659E-01</leafValues></_><_><internalNodes>0 -1 804 1.2825E-02</internalNodes><leafValues>-8.5851E-02 2.6431E-01</leafValues></_><_><internalNodes>0 -1 820 -4.0588E-03</internalNodes><leafValues>1.8127E-01 -1.1241E-01</leafValues></_><_><internalNodes>0 -1 931 5.4964E-04</internalNodes><leafValues>-9.1980E-02 2.1897E-01</leafValues></_><_><internalNodes>0 -1 324 1.5558E-03</internalNodes><leafValues>-7.7466E-02 2.5981E-01</leafValues></_><_><internalNodes>0 -1 587 4.3281E-03</internalNodes><leafValues>3.4584E-02 -6.2343E-01</leafValues></_><_><internalNodes>0 -1 34 -1.4533E-02</internalNodes><leafValues>2.0230E-01 -1.0072E-01</leafValues></_><_><internalNodes>0 -1 644 5.6288E-03</internalNodes><leafValues>3.9174E-02 -5.0741E-01</leafValues></_><_><internalNodes>0 -1 936 7.9474E-04</internalNodes><leafValues>-8.0158E-02 2.3535E-01</leafValues></_><_><internalNodes>0 -1 585 -1.0927E-02</internalNodes><leafValues>-5.9471E-01 3.1198E-02</leafValues></_><_><internalNodes>0 -1 677 -8.2423E-03</internalNodes><leafValues>2.0227E-01 -1.1067E-01</leafValues></_><_><internalNodes>0 -1 923 -3.6351E-03</internalNodes><leafValues>-6.4762E-01 2.9601E-02</leafValues></_><_><internalNodes>0 -1 784 -2.7860E-03</internalNodes><leafValues>4.2289E-01 -4.8329E-02</leafValues></_><_><internalNodes>0 -1 56 1.4033E-03</internalNodes><leafValues>7.7723E-02 -2.5019E-01</leafValues></_><_><internalNodes>0 -1 56 -4.9226E-03</internalNodes><leafValues>-5.3430E-01 3.4801E-02</leafValues></_><_><internalNodes>0 -1 566 -1.2032E-02</internalNodes><leafValues>2.3755E-01 -8.4350E-02</leafValues></_><_><internalNodes>0 -1 464 5.9744E-03</internalNodes><leafValues>-9.6528E-02 2.0884E-01</leafValues></_><_><internalNodes>0 -1 288 9.0228E-03</internalNodes><leafValues>2.6527E-02 -7.1256E-01</leafValues></_><_><internalNodes>0 -1 94 -4.3231E-02</internalNodes><leafValues>-4.5857E-01 3.5763E-02</leafValues></_><_><internalNodes>0 -1 262 1.9864E-02</internalNodes><leafValues>3.8994E-02 -4.7275E-01</leafValues></_><_><internalNodes>0 -1 364 1.7278E-04</internalNodes><leafValues>-1.2378E-01 1.5123E-01</leafValues></_><_><internalNodes>0 -1 81 8.4997E-03</internalNodes><leafValues>3.8503E-02 -4.7635E-01</leafValues></_><_><internalNodes>0 -1 434 -1.3841E-03</internalNodes><leafValues>2.4362E-01 -7.7644E-02</leafValues></_></weakClassifiers></_><_><maxWeakCount>100</maxWeakCount><stageThreshold>-1.4933E+00</stageThreshold><weakClassifiers><_><internalNodes>0 -1 769 -2.4474E-03</internalNodes><leafValues>6.4225E-01 1.1617E-01</leafValues></_><_><internalNodes>0 -1 918 2.5614E-03</internalNodes><leafValues>-1.4126E-01 4.1756E-01</leafValues></_><_><internalNodes>0 -1 450 -3.6350E-03</internalNodes><leafValues>4.2445E-01 -1.2421E-01</leafValues></_><_><internalNodes>0 -1 243 7.6568E-02</internalNodes><leafValues>-2.0401E-01 2.4128E-01</leafValues></_><_><internalNodes>0 -1 455 4.6867E-03</internalNodes><leafValues>7.2638E-02 -5.3156E-01</leafValues></_><_><internalNodes>0 -1 319 -3.9938E-02</internalNodes><leafValues>4.3441E-01 -8.1895E-02</leafValues></_><_><internalNodes>0 -1 376 -1.7271E-02</internalNodes><leafValues>4.9218E-01 -8.1687E-02</leafValues></_><_><internalNodes>0 -1 67 1.0907E-01</internalNodes><leafValues>-1.3830E-01 3.0389E-01</leafValues></_><_><internalNodes>0 -1 563 -8.6617E-03</internalNodes><leafValues>2.4967E-01 -1.4651E-01</leafValues></_><_><internalNodes>0 -1 257 5.3434E-03</internalNodes><leafValues>5.6382E-02 -4.7699E-01</leafValues></_><_><internalNodes>0 -1 359 -7.3084E-03</internalNodes><leafValues>1.6509E-01 -1.8176E-01</leafValues></_><_><internalNodes>0 -1 322 -1.2855E-03</internalNodes><leafValues>2.5567E-01 -1.1560E-01</leafValues></_><_><internalNodes>0 -1 799 1.6045E-03</internalNodes><leafValues>-1.5024E-01 1.8980E-01</leafValues></_><_><internalNodes>0 -1 711 -3.2996E-03</internalNodes><leafValues>-5.4484E-01 5.2061E-02</leafValues></_><_><internalNodes>0 -1 646 -2.1931E-03</internalNodes><leafValues>-5.0954E-01 4.9616E-02</leafValues></_><_><internalNodes>0 -1 830 -1.3329E-02</internalNodes><leafValues>3.2616E-01 -8.1102E-02</leafValues></_><_><internalNodes>0 -1 333 3.5711E-02</internalNodes><leafValues>-9.0930E-02 3.1068E-01</leafValues></_><_><internalNodes>0 -1 488 6.7417E-03</internalNodes><leafValues>-7.7295E-02 3.2216E-01</leafValues></_><_><internalNodes>0 -1 11 -8.1952E-02</internalNodes><leafValues>5.3667E-01 -5.9473E-02</leafValues></_><_><internalNodes>0 -1 8 9.2417E-03</internalNodes><leafValues>-1.2618E-01 2.0813E-01</leafValues></_><_><internalNodes>0 -1 619 -2.0654E-03</internalNodes><leafValues>-4.8569E-01 5.2649E-02</leafValues></_><_><internalNodes>0 -1 66 -1.3702E-02</internalNodes><leafValues>-6.6061E-01 3.5181E-02</leafValues></_><_><internalNodes>0 -1 393 -3.0808E-03</internalNodes><leafValues>-4.4769E-01 4.8635E-02</leafValues></_><_><internalNodes>0 -1 57 -1.2946E-02</internalNodes><leafValues>-5.4323E-01 4.0633E-02</leafValues></_><_><internalNodes>0 -1 240 -1.3134E-02</internalNodes><leafValues>-4.7699E-01 4.5706E-02</leafValues></_><_><internalNodes>0 -1 434 1.6985E-03</internalNodes><leafValues>-7.0986E-02 3.2597E-01</leafValues></_><_><internalNodes>0 -1 599 3.8462E-03</internalNodes><leafValues>4.0658E-02 -5.7832E-01</leafValues></_><_><internalNodes>0 -1 189 -1.7426E-02</internalNodes><leafValues>-4.3612E-01 4.5463E-02</leafValues></_><_><internalNodes>0 -1 730 -2.6194E-03</internalNodes><leafValues>2.5507E-01 -8.7046E-02</leafValues></_><_><internalNodes>0 -1 150 -1.0475E-02</internalNodes><leafValues>2.3522E-01 -9.5194E-02</leafValues></_><_><internalNodes>0 -1 776 -2.0477E-03</internalNodes><leafValues>-4.0279E-01 5.3847E-02</leafValues></_><_><internalNodes>0 -1 492 5.0512E-03</internalNodes><leafValues>3.5829E-02 -5.8457E-01</leafValues></_><_><internalNodes>0 -1 400 -2.6016E-03</internalNodes><leafValues>2.8992E-01 -7.7776E-02</leafValues></_><_><internalNodes>0 -1 191 1.4678E-03</internalNodes><leafValues>4.2822E-02 -5.0615E-01</leafValues></_><_><internalNodes>0 -1 119 3.4870E-03</internalNodes><leafValues>-8.2637E-02 2.5725E-01</leafValues></_><_><internalNodes>0 -1 104 -1.9308E-01</internalNodes><leafValues>3.6281E-01 -6.3504E-02</leafValues></_><_><internalNodes>0 -1 545 1.9733E-02</internalNodes><leafValues>-8.6004E-02 2.5531E-01</leafValues></_><_><internalNodes>0 -1 37 -3.2536E-02</internalNodes><leafValues>-5.8808E-01 3.7802E-02</leafValues></_><_><internalNodes>0 -1 382 8.8407E-03</internalNodes><leafValues>2.5932E-02 -6.5399E-01</leafValues></_><_><internalNodes>0 -1 844 -1.0922E-03</internalNodes><leafValues>2.0416E-01 -1.0292E-01</leafValues></_><_><internalNodes>0 -1 892 1.5520E-03</internalNodes><leafValues>-8.4859E-02 3.0234E-01</leafValues></_><_><internalNodes>0 -1 601 3.6753E-03</internalNodes><leafValues>3.9352E-02 -5.4435E-01</leafValues></_><_><internalNodes>0 -1 825 -1.7199E-02</internalNodes><leafValues>-6.8883E-01 2.4504E-02</leafValues></_><_><internalNodes>0 -1 783 -4.8200E-03</internalNodes><leafValues>3.3482E-01 -6.0484E-02</leafValues></_><_><internalNodes>0 -1 838 8.6327E-03</internalNodes><leafValues>2.9317E-02 -7.1339E-01</leafValues></_><_><internalNodes>0 -1 761 5.9000E-02</internalNodes><leafValues>2.5574E-02 -6.3107E-01</leafValues></_><_><internalNodes>0 -1 782 1.0107E-03</internalNodes><leafValues>-1.0589E-01 1.9086E-01</leafValues></_><_><internalNodes>0 -1 880 1.1946E-03</internalNodes><leafValues>-8.1224E-02 2.6191E-01</leafValues></_><_><internalNodes>0 -1 348 8.8360E-03</internalNodes><leafValues>-7.4570E-02 2.7295E-01</leafValues></_><_><internalNodes>0 -1 80 -3.8922E-03</internalNodes><leafValues>-4.6578E-01 4.1508E-02</leafValues></_><_><internalNodes>0 -1 75 2.6259E-03</internalNodes><leafValues>6.9953E-02 -2.7727E-01</leafValues></_><_><internalNodes>0 -1 600 4.6105E-02</internalNodes><leafValues>2.8723E-02 -6.4130E-01</leafValues></_><_><internalNodes>0 -1 152 -2.3557E-03</internalNodes><leafValues>1.6911E-01 -1.2073E-01</leafValues></_><_><internalNodes>0 -1 271 2.0879E-03</internalNodes><leafValues>-6.1541E-02 3.1167E-01</leafValues></_><_><internalNodes>0 -1 726 -2.7457E-03</internalNodes><leafValues>-4.3359E-01 4.4867E-02</leafValues></_><_><internalNodes>0 -1 643 -5.7036E-03</internalNodes><leafValues>-6.3302E-01 2.7554E-02</leafValues></_><_><internalNodes>0 -1 272 -2.3488E-03</internalNodes><leafValues>2.7741E-01 -7.1829E-02</leafValues></_><_><internalNodes>0 -1 312 -1.2618E-02</internalNodes><leafValues>-6.0198E-01 3.3370E-02</leafValues></_><_><internalNodes>0 -1 73 -1.2911E-02</internalNodes><leafValues>1.9097E-01 -9.6765E-02</leafValues></_><_><internalNodes>0 -1 241 2.5070E-02</internalNodes><leafValues>2.9380E-02 -6.2714E-01</leafValues></_><_><internalNodes>0 -1 676 7.4740E-03</internalNodes><leafValues>-6.2409E-02 3.2309E-01</leafValues></_><_><internalNodes>0 -1 960 -5.5288E-03</internalNodes><leafValues>-4.4652E-01 4.4483E-02</leafValues></_><_><internalNodes>0 -1 707 5.1615E-03</internalNodes><leafValues>-1.0452E-01 1.8219E-01</leafValues></_><_><internalNodes>0 -1 306 -4.6268E-03</internalNodes><leafValues>2.4900E-01 -7.5880E-02</leafValues></_><_><internalNodes>0 -1 280 -5.0915E-03</internalNodes><leafValues>-3.8136E-01 4.8700E-02</leafValues></_><_><internalNodes>0 -1 338 1.3253E-03</internalNodes><leafValues>-8.2676E-02 2.3467E-01</leafValues></_><_><internalNodes>0 -1 989 -2.9426E-03</internalNodes><leafValues>-3.2486E-01 5.8781E-02</leafValues></_><_><internalNodes>0 -1 352 7.1004E-03</internalNodes><leafValues>-1.0711E-01 1.6877E-01</leafValues></_><_><internalNodes>0 -1 448 1.6454E-03</internalNodes><leafValues>-6.8139E-02 2.6411E-01</leafValues></_><_><internalNodes>0 -1 335 -4.4519E-03</internalNodes><leafValues>-6.5163E-01 3.1989E-02</leafValues></_><_><internalNodes>0 -1 422 -5.6191E-03</internalNodes><leafValues>2.2834E-01 -8.4053E-02</leafValues></_><_><internalNodes>0 -1 225 -5.4376E-03</internalNodes><leafValues>-4.2135E-01 4.7153E-02</leafValues></_><_><internalNodes>0 -1 427 1.4304E-03</internalNodes><leafValues>-8.1828E-02 2.2752E-01</leafValues></_><_><internalNodes>0 -1 579 5.3637E-03</internalNodes><leafValues>4.6839E-02 -4.3642E-01</leafValues></_><_><internalNodes>0 -1 471 6.7460E-03</internalNodes><leafValues>4.8483E-02 -3.7358E-01</leafValues></_><_><internalNodes>0 -1 888 1.8225E-03</internalNodes><leafValues>-7.2007E-02 2.6156E-01</leafValues></_><_><internalNodes>0 -1 107 -6.8537E-02</internalNodes><leafValues>2.3726E-01 -8.8266E-02</leafValues></_><_><internalNodes>0 -1 806 8.4727E-03</internalNodes><leafValues>3.0765E-02 -6.1803E-01</leafValues></_><_><internalNodes>0 -1 129 1.6151E-02</internalNodes><leafValues>-6.9990E-02 2.7057E-01</leafValues></_><_><internalNodes>0 -1 414 7.6076E-02</internalNodes><leafValues>-6.6986E-02 2.6546E-01</leafValues></_><_><internalNodes>0 -1 713 -2.4038E-03</internalNodes><leafValues>2.0212E-01 -1.1675E-01</leafValues></_><_><internalNodes>0 -1 78 1.8187E-02</internalNodes><leafValues>3.7632E-02 -5.2273E-01</leafValues></_><_><internalNodes>0 -1 569 -1.3952E-02</internalNodes><leafValues>3.2747E-01 -6.3546E-02</leafValues></_><_><internalNodes>0 -1 18 -2.6383E-01</internalNodes><leafValues>-4.4735E-01 4.3956E-02</leafValues></_><_><internalNodes>0 -1 84 3.7522E-03</internalNodes><leafValues>3.8990E-02 -4.2727E-01</leafValues></_><_><internalNodes>0 -1 287 1.4125E-03</internalNodes><leafValues>-5.6342E-02 3.3223E-01</leafValues></_><_><internalNodes>0 -1 582 4.1739E-03</internalNodes><leafValues>-8.1689E-02 2.1681E-01</leafValues></_><_><internalNodes>0 -1 982 -6.1572E-03</internalNodes><leafValues>-4.6595E-01 4.0940E-02</leafValues></_><_><internalNodes>0 -1 482 -4.0140E-03</internalNodes><leafValues>-4.4918E-01 3.6913E-02</leafValues></_><_><internalNodes>0 -1 315 5.7835E-03</internalNodes><leafValues>3.7203E-02 -4.4927E-01</leafValues></_><_><internalNodes>0 -1 375 -2.7867E-03</internalNodes><leafValues>2.3668E-01 -7.8896E-02</leafValues></_><_><internalNodes>0 -1 740 -2.0863E-03</internalNodes><leafValues>-3.1536E-01 5.4700E-02</leafValues></_><_><internalNodes>0 -1 16 -3.5250E-02</internalNodes><leafValues>2.3871E-01 -7.4336E-02</leafValues></_><_><internalNodes>0 -1 12 1.9735E-02</internalNodes><leafValues>-6.9254E-02 2.7050E-01</leafValues></_><_><internalNodes>0 -1 977 6.9167E-03</internalNodes><leafValues>3.9671E-02 -4.5563E-01</leafValues></_><_><internalNodes>0 -1 180 1.2887E-02</internalNodes><leafValues>-5.7706E-02 3.0492E-01</leafValues></_><_><internalNodes>0 -1 680 -4.3238E-02</internalNodes><leafValues>-6.9368E-01 2.5769E-02</leafValues></_><_><internalNodes>0 -1 858 5.2338E-02</internalNodes><leafValues>-4.1087E-02 4.6693E-01</leafValues></_><_><internalNodes>0 -1 903 -3.8494E-03</internalNodes><leafValues>1.6975E-01 -1.2150E-01</leafValues></_><_><internalNodes>0 -1 897 1.1914E-02</internalNodes><leafValues>-7.7901E-02 2.2728E-01</leafValues></_></weakClassifiers></_><_><maxWeakCount>100</maxWeakCount><stageThreshold>-1.5521E+00</stageThreshold><weakClassifiers><_><internalNodes>0 -1 700 1.0511E-02</internalNodes><leafValues>7.8954E-02 6.2691E-01</leafValues></_><_><internalNodes>0 -1 501 -4.5916E-03</internalNodes><leafValues>4.8032E-01 -1.2751E-01</leafValues></_><_><internalNodes>0 -1 920 1.5926E-03</internalNodes><leafValues>-2.2286E-01 2.5022E-01</leafValues></_><_><internalNodes>0 -1 265 4.7703E-02</internalNodes><leafValues>-1.6401E-01 4.6664E-01</leafValues></_><_><internalNodes>0 -1 801 3.6356E-03</internalNodes><leafValues>-9.0888E-02 4.3753E-01</leafValues></_><_><internalNodes>0 -1 505 -2.9030E-03</internalNodes><leafValues>3.1179E-01 -1.4402E-01</leafValues></_><_><internalNodes>0 -1 811 6.0793E-03</internalNodes><leafValues>-1.6875E-01 2.2610E-01</leafValues></_><_><internalNodes>0 -1 200 4.1880E-04</internalNodes><leafValues>-1.9621E-01 1.5545E-01</leafValues></_><_><internalNodes>0 -1 886 2.2690E-04</internalNodes><leafValues>-1.9928E-01 1.4717E-01</leafValues></_><_><internalNodes>0 -1 138 -8.1101E-02</internalNodes><leafValues>-5.1434E-01 5.8548E-02</leafValues></_><_><internalNodes>0 -1 108 2.7355E-02</internalNodes><leafValues>6.0102E-02 -4.1557E-01</leafValues></_><_><internalNodes>0 -1 967 -2.4959E-03</internalNodes><leafValues>-5.0488E-01 5.1648E-02</leafValues></_><_><internalNodes>0 -1 420 -1.5962E-03</internalNodes><leafValues>2.1671E-01 -1.2691E-01</leafValues></_><_><internalNodes>0 -1 369 2.1886E-02</internalNodes><leafValues>-8.3462E-02 3.1053E-01</leafValues></_><_><internalNodes>0 -1 760 -1.3334E-02</internalNodes><leafValues>3.0465E-01 -8.8519E-02</leafValues></_><_><internalNodes>0 -1 688 -1.9117E-03</internalNodes><leafValues>-6.8485E-01 4.3932E-02</leafValues></_><_><internalNodes>0 -1 689 2.2814E-03</internalNodes><leafValues>4.6767E-02 -4.8588E-01</leafValues></_><_><internalNodes>0 -1 164 -8.7423E-03</internalNodes><leafValues>-4.9902E-01 4.8665E-02</leafValues></_><_><internalNodes>0 -1 758 -4.0188E-03</internalNodes><leafValues>2.2569E-01 -1.1154E-01</leafValues></_><_><internalNodes>0 -1 966 1.3594E-03</internalNodes><leafValues>4.2800E-02 -5.6779E-01</leafValues></_><_><internalNodes>0 -1 718 -6.5034E-04</internalNodes><leafValues>2.0394E-01 -1.1889E-01</leafValues></_><_><internalNodes>0 -1 473 -3.1412E-02</internalNodes><leafValues>2.5798E-01 -9.3767E-02</leafValues></_><_><internalNodes>0 -1 139 -9.2636E-03</internalNodes><leafValues>-5.6845E-01 4.3344E-02</leafValues></_><_><internalNodes>0 -1 383 -4.1950E-02</internalNodes><leafValues>-3.3589E-01 6.3372E-02</leafValues></_><_><internalNodes>0 -1 881 2.9166E-03</internalNodes><leafValues>-6.9125E-02 3.5224E-01</leafValues></_><_><internalNodes>0 -1 904 -1.0271E-03</internalNodes><leafValues>1.8419E-01 -1.1801E-01</leafValues></_><_><internalNodes>0 -1 663 2.6637E-03</internalNodes><leafValues>-1.0614E-01 2.1366E-01</leafValues></_><_><internalNodes>0 -1 629 -1.8713E-02</internalNodes><leafValues>2.4622E-01 -9.3237E-02</leafValues></_><_><internalNodes>0 -1 33 -4.8552E-03</internalNodes><leafValues>3.0577E-01 -7.4215E-02</leafValues></_><_><internalNodes>0 -1 156 2.4789E-03</internalNodes><leafValues>-8.6660E-02 2.9341E-01</leafValues></_><_><internalNodes>0 -1 291 -4.3735E-03</internalNodes><leafValues>-5.0271E-01 4.9233E-02</leafValues></_><_><internalNodes>0 -1 318 -4.9624E-03</internalNodes><leafValues>-4.4073E-01 4.5712E-02</leafValues></_><_><internalNodes>0 -1 82 3.0696E-03</internalNodes><leafValues>5.5256E-02 -3.7899E-01</leafValues></_><_><internalNodes>0 -1 157 -8.1602E-03</internalNodes><leafValues>2.6425E-01 -8.2545E-02</leafValues></_><_><internalNodes>0 -1 137 -1.4501E-03</internalNodes><leafValues>1.8156E-01 -1.2638E-01</leafValues></_><_><internalNodes>0 -1 339 -3.7105E-03</internalNodes><leafValues>1.9824E-01 -1.0828E-01</leafValues></_><_><internalNodes>0 -1 673 -8.7568E-03</internalNodes><leafValues>2.8611E-01 -7.3252E-02</leafValues></_><_><internalNodes>0 -1 317 -1.8970E-03</internalNodes><leafValues>-6.0897E-01 3.7744E-02</leafValues></_><_><internalNodes>0 -1 20 3.8997E-01</internalNodes><leafValues>-5.8311E-02 3.6128E-01</leafValues></_><_><internalNodes>0 -1 396 -4.9337E-03</internalNodes><leafValues>3.0048E-01 -6.4242E-02</leafValues></_><_><internalNodes>0 -1 54 2.5109E-02</internalNodes><leafValues>2.5091E-02 -8.1637E-01</leafValues></_><_><internalNodes>0 -1 429 4.2880E-03</internalNodes><leafValues>-8.1443E-02 2.6618E-01</leafValues></_><_><internalNodes>0 -1 456 -5.6166E-05</internalNodes><leafValues>1.4481E-01 -1.6213E-01</leafValues></_><_><internalNodes>0 -1 406 3.0591E-03</internalNodes><leafValues>2.8734E-02 -7.0055E-01</leafValues></_><_><internalNodes>0 -1 185 -3.0338E-03</internalNodes><leafValues>-8.2672E-01 1.9727E-02</leafValues></_><_><internalNodes>0 -1 787 -2.1345E-03</internalNodes><leafValues>1.6037E-01 -1.2015E-01</leafValues></_><_><internalNodes>0 -1 246 2.4434E-02</internalNodes><leafValues>-1.0802E-01 2.0232E-01</leafValues></_><_><internalNodes>0 -1 214 -6.6356E-03</internalNodes><leafValues>1.9015E-01 -1.0797E-01</leafValues></_><_><internalNodes>0 -1 781 -8.2725E-03</internalNodes><leafValues>3.1057E-01 -8.6533E-02</leafValues></_><_><internalNodes>0 -1 95 -7.1974E-03</internalNodes><leafValues>-5.8514E-01 3.6454E-02</leafValues></_><_><internalNodes>0 -1 461 -1.3810E-03</internalNodes><leafValues>1.6235E-01 -1.2079E-01</leafValues></_><_><internalNodes>0 -1 408 1.2584E-02</internalNodes><leafValues>-8.4917E-02 2.3094E-01</leafValues></_><_><internalNodes>0 -1 907 8.0426E-03</internalNodes><leafValues>4.0869E-02 -5.2089E-01</leafValues></_><_><internalNodes>0 -1 446 4.0921E-02</internalNodes><leafValues>-5.4803E-02 3.5920E-01</leafValues></_><_><internalNodes>0 -1 635 -3.6557E-03</internalNodes><leafValues>3.0304E-01 -6.9976E-02</leafValues></_><_><internalNodes>0 -1 275 -2.6071E-03</internalNodes><leafValues>1.7683E-01 -1.1165E-01</leafValues></_><_><internalNodes>0 -1 289 -5.8147E-02</internalNodes><leafValues>-3.7278E-01 5.6891E-02</leafValues></_><_><internalNodes>0 -1 120 -2.2652E-01</internalNodes><leafValues>4.0828E-01 -5.9185E-02</leafValues></_><_><internalNodes>0 -1 738 5.7799E-03</internalNodes><leafValues>4.0102E-02 -5.5017E-01</leafValues></_><_><internalNodes>0 -1 302 1.6305E-03</internalNodes><leafValues>-1.2155E-01 1.5899E-01</leafValues></_><_><internalNodes>0 -1 672 2.0046E-03</internalNodes><leafValues>2.9790E-02 -5.8250E-01</leafValues></_><_><internalNodes>0 -1 371 -2.0879E-02</internalNodes><leafValues>2.1142E-01 -8.7383E-02</leafValues></_><_><internalNodes>0 -1 954 -7.2442E-04</internalNodes><leafValues>2.3263E-01 -8.1575E-02</leafValues></_><_><internalNodes>0 -1 971 -7.4541E-03</internalNodes><leafValues>-4.5153E-01 4.5830E-02</leafValues></_><_><internalNodes>0 -1 930 -8.5285E-04</internalNodes><leafValues>2.1254E-01 -9.1697E-02</leafValues></_><_><internalNodes>0 -1 193 2.0642E-04</internalNodes><leafValues>-1.3943E-01 1.3452E-01</leafValues></_><_><internalNodes>0 -1 922 3.2145E-03</internalNodes><leafValues>2.8090E-02 -6.4254E-01</leafValues></_><_><internalNodes>0 -1 964 -4.6502E-03</internalNodes><leafValues>2.4157E-01 -7.5992E-02</leafValues></_><_><internalNodes>0 -1 391 -7.9781E-03</internalNodes><leafValues>-6.4585E-01 2.7662E-02</leafValues></_><_><internalNodes>0 -1 535 5.7131E-03</internalNodes><leafValues>3.4438E-02 -4.5669E-01</leafValues></_><_><internalNodes>0 -1 625 5.4300E-03</internalNodes><leafValues>-8.4558E-02 2.4554E-01</leafValues></_><_><internalNodes>0 -1 949 2.3062E-03</internalNodes><leafValues>3.6577E-02 -5.1892E-01</leafValues></_><_><internalNodes>0 -1 815 5.0157E-04</internalNodes><leafValues>-1.1977E-01 1.6034E-01</leafValues></_><_><internalNodes>0 -1 525 -1.9801E-04</internalNodes><leafValues>1.5493E-01 -1.1399E-01</leafValues></_><_><internalNodes>0 -1 840 2.1493E-03</internalNodes><leafValues>-8.7143E-02 2.1080E-01</leafValues></_><_><internalNodes>0 -1 45 -1.0518E-03</internalNodes><leafValues>1.7875E-01 -9.7400E-02</leafValues></_><_><internalNodes>0 -1 590 9.2383E-03</internalNodes><leafValues>3.2961E-02 -5.5265E-01</leafValues></_><_><internalNodes>0 -1 41 3.6674E-02</internalNodes><leafValues>-5.6394E-02 3.2619E-01</leafValues></_><_><internalNodes>0 -1 725 1.8490E-03</internalNodes><leafValues>-7.7261E-02 2.3810E-01</leafValues></_><_><internalNodes>0 -1 723 -3.9793E-03</internalNodes><leafValues>2.3500E-01 -8.8490E-02</leafValues></_><_><internalNodes>0 -1 619 3.7299E-03</internalNodes><leafValues>3.1518E-02 -6.3559E-01</leafValues></_><_><internalNodes>0 -1 916 4.9756E-03</internalNodes><leafValues>2.8343E-02 -5.1388E-01</leafValues></_><_><internalNodes>0 -1 77 2.8309E-03</internalNodes><leafValues>-1.1687E-01 1.4076E-01</leafValues></_><_><internalNodes>0 -1 72 -4.3400E-02</internalNodes><leafValues>3.3840E-01 -6.5363E-02</leafValues></_><_><internalNodes>0 -1 174 4.4768E-03</internalNodes><leafValues>5.3890E-02 -3.8844E-01</leafValues></_><_><internalNodes>0 -1 443 1.4580E-03</internalNodes><leafValues>-9.5170E-02 1.7093E-01</leafValues></_><_><internalNodes>0 -1 217 4.3644E-03</internalNodes><leafValues>-1.0354E-01 1.9202E-01</leafValues></_><_><internalNodes>0 -1 416 -6.4208E-03</internalNodes><leafValues>-5.2469E-01 3.1175E-02</leafValues></_><_><internalNodes>0 -1 399 -1.0311E-03</internalNodes><leafValues>2.1714E-01 -8.0817E-02</leafValues></_><_><internalNodes>0 -1 924 -4.0360E-03</internalNodes><leafValues>-5.2424E-01 3.4389E-02</leafValues></_><_><internalNodes>0 -1 750 -5.9410E-03</internalNodes><leafValues>2.1115E-01 -8.0376E-02</leafValues></_><_><internalNodes>0 -1 720 -4.7730E-02</internalNodes><leafValues>-6.6019E-01 2.6817E-02</leafValues></_><_><internalNodes>0 -1 777 -6.1360E-03</internalNodes><leafValues>2.6270E-01 -7.4918E-02</leafValues></_><_><internalNodes>0 -1 370 -3.2268E-03</internalNodes><leafValues>-3.3210E-01 5.3716E-02</leafValues></_><_><internalNodes>0 -1 872 2.7646E-03</internalNodes><leafValues>2.4830E-02 -6.3309E-01</leafValues></_><_><internalNodes>0 -1 460 6.1914E-03</internalNodes><leafValues>-7.9356E-02 2.0997E-01</leafValues></_><_><internalNodes>0 -1 890 -6.0850E-03</internalNodes><leafValues>1.8700E-01 -9.2256E-02</leafValues></_><_><internalNodes>0 -1 847 3.8955E-03</internalNodes><leafValues>-6.2001E-02 2.9947E-01</leafValues></_><_><internalNodes>0 -1 559 7.9390E-03</internalNodes><leafValues>-4.7935E-02 3.3055E-01</leafValues></_><_><internalNodes>0 -1 136 -7.4475E-03</internalNodes><leafValues>-2.7903E-01 5.9020E-02</leafValues></_></weakClassifiers></_><_><maxWeakCount>100</maxWeakCount><stageThreshold>-1.5058E+00</stageThreshold><weakClassifiers><_><internalNodes>0 -1 764 6.6398E-03</internalNodes><leafValues>1.5220E-01 7.0483E-01</leafValues></_><_><internalNodes>0 -1 451 -7.4103E-03</internalNodes><leafValues>4.4996E-01 -1.0949E-01</leafValues></_><_><internalNodes>0 -1 509 -1.2680E-02</internalNodes><leafValues>3.1909E-01 -1.3895E-01</leafValues></_><_><internalNodes>0 -1 221 1.0303E-02</internalNodes><leafValues>-1.7546E-01 2.9695E-01</leafValues></_><_><internalNodes>0 -1 331 -4.7976E-02</internalNodes><leafValues>4.4112E-01 -1.1232E-01</leafValues></_><_><internalNodes>0 -1 810 3.2146E-03</internalNodes><leafValues>-1.8380E-01 2.3316E-01</leafValues></_><_><internalNodes>0 -1 793 2.4557E-03</internalNodes><leafValues>-1.4323E-01 2.3558E-01</leafValues></_><_><internalNodes>0 -1 595 -5.2055E-02</internalNodes><leafValues>-4.4221E-01 7.0445E-02</leafValues></_><_><internalNodes>0 -1 51 7.7533E-03</internalNodes><leafValues>5.6697E-02 -5.1519E-01</leafValues></_><_><internalNodes>0 -1 534 4.7273E-04</internalNodes><leafValues>-1.5081E-01 1.8353E-01</leafValues></_><_><internalNodes>0 -1 43 -1.7045E-02</internalNodes><leafValues>-4.3841E-01 6.8838E-02</leafValues></_><_><internalNodes>0 -1 883 -3.5763E-03</internalNodes><leafValues>2.4851E-01 -1.0780E-01</leafValues></_><_><internalNodes>0 -1 839 -2.4369E-03</internalNodes><leafValues>3.0689E-01 -8.9007E-02</leafValues></_><_><internalNodes>0 -1 933 -3.6047E-03</internalNodes><leafValues>2.7542E-01 -1.0635E-01</leafValues></_><_><internalNodes>0 -1 36 -1.1534E-02</internalNodes><leafValues>-5.5282E-01 4.9770E-02</leafValues></_><_><internalNodes>0 -1 405 2.7644E-03</internalNodes><leafValues>2.9804E-02 -7.3426E-01</leafValues></_><_><internalNodes>0 -1 849 -2.6033E-03</internalNodes><leafValues>-4.4094E-01 5.0420E-02</leafValues></_><_><internalNodes>0 -1 245 4.8674E-02</internalNodes><leafValues>5.8146E-02 -3.7860E-01</leafValues></_><_><internalNodes>0 -1 898 -4.4065E-03</internalNodes><leafValues>-6.9404E-01 3.1734E-02</leafValues></_><_><internalNodes>0 -1 973 1.6998E-03</internalNodes><leafValues>3.6800E-02 -5.4090E-01</leafValues></_><_><internalNodes>0 -1 484 1.8070E-03</internalNodes><leafValues>-8.9325E-02 2.5630E-01</leafValues></_><_><internalNodes>0 -1 487 -4.4371E-03</internalNodes><leafValues>2.3971E-01 -1.0280E-01</leafValues></_><_><internalNodes>0 -1 973 -2.2968E-03</internalNodes><leafValues>-5.8440E-01 4.1790E-02</leafValues></_><_><internalNodes>0 -1 950 1.4388E-03</internalNodes><leafValues>-1.2929E-01 1.6425E-01</leafValues></_><_><internalNodes>0 -1 685 -6.5411E-03</internalNodes><leafValues>1.7306E-01 -1.3703E-01</leafValues></_><_><internalNodes>0 -1 414 -9.8783E-02</internalNodes><leafValues>4.2456E-01 -5.3996E-02</leafValues></_><_><internalNodes>0 -1 533 -1.5467E-01</internalNodes><leafValues>-4.6164E-01 5.4335E-02</leafValues></_><_><internalNodes>0 -1 626 -2.3390E-03</internalNodes><leafValues>-6.5778E-01 2.6687E-02</leafValues></_><_><internalNodes>0 -1 397 5.0455E-03</internalNodes><leafValues>4.9084E-02 -3.7509E-01</leafValues></_><_><internalNodes>0 -1 326 2.5655E-02</internalNodes><leafValues>-5.0410E-02 4.6358E-01</leafValues></_><_><internalNodes>0 -1 402 2.6889E-03</internalNodes><leafValues>-8.7988E-02 2.4659E-01</leafValues></_><_><internalNodes>0 -1 455 -3.9576E-03</internalNodes><leafValues>-3.4468E-01 6.0444E-02</leafValues></_><_><internalNodes>0 -1 396 3.9240E-03</internalNodes><leafValues>-7.2166E-02 3.6405E-01</leafValues></_><_><internalNodes>0 -1 988 1.3847E-03</internalNodes><leafValues>5.7183E-02 -3.8552E-01</leafValues></_><_><internalNodes>0 -1 945 -8.4818E-03</internalNodes><leafValues>1.8708E-01 -1.1441E-01</leafValues></_><_><internalNodes>0 -1 944 2.6851E-03</internalNodes><leafValues>3.1117E-02 -6.2151E-01</leafValues></_><_><internalNodes>0 -1 688 1.8729E-03</internalNodes><leafValues>2.9518E-02 -5.8276E-01</leafValues></_><_><internalNodes>0 -1 448 -1.4214E-03</internalNodes><leafValues>2.1085E-01 -8.4943E-02</leafValues></_><_><internalNodes>0 -1 186 -1.4165E-03</internalNodes><leafValues>-5.0256E-01 3.4563E-02</leafValues></_><_><internalNodes>0 -1 572 2.7756E-03</internalNodes><leafValues>-8.5957E-02 2.1839E-01</leafValues></_><_><internalNodes>0 -1 517 6.0642E-03</internalNodes><leafValues>3.4184E-02 -5.6067E-01</leafValues></_><_><internalNodes>0 -1 773 -2.9664E-03</internalNodes><leafValues>2.6388E-01 -7.4525E-02</leafValues></_><_><internalNodes>0 -1 986 -1.7852E-02</internalNodes><leafValues>-3.5538E-01 5.5470E-02</leafValues></_><_><internalNodes>0 -1 62 -7.7814E-03</internalNodes><leafValues>2.5655E-01 -7.7635E-02</leafValues></_><_><internalNodes>0 -1 140 6.2794E-04</internalNodes><leafValues>-1.1543E-01 1.7258E-01</leafValues></_><_><internalNodes>0 -1 845 -2.0482E-03</internalNodes><leafValues>2.0134E-01 -9.2292E-02</leafValues></_><_><internalNodes>0 -1 852 -2.0529E-03</internalNodes><leafValues>2.4055E-01 -9.5315E-02</leafValues></_><_><internalNodes>0 -1 894 1.9265E-03</internalNodes><leafValues>-8.8165E-02 2.1322E-01</leafValues></_><_><internalNodes>0 -1 116 1.0842E-02</internalNodes><leafValues>3.4955E-02 -5.3944E-01</leafValues></_><_><internalNodes>0 -1 224 -7.5649E-03</internalNodes><leafValues>-7.1435E-01 2.2735E-02</leafValues></_><_><internalNodes>0 -1 503 -7.4580E-04</internalNodes><leafValues>2.0246E-01 -9.3202E-02</leafValues></_><_><internalNodes>0 -1 274 -1.2500E-03</internalNodes><leafValues>1.4646E-01 -1.3543E-01</leafValues></_><_><internalNodes>0 -1 270 5.8324E-04</internalNodes><leafValues>-9.3359E-02 2.0619E-01</leafValues></_><_><internalNodes>0 -1 439 1.9811E-02</internalNodes><leafValues>2.7016E-02 -7.5727E-01</leafValues></_><_><internalNodes>0 -1 175 5.9376E-03</internalNodes><leafValues>-1.2178E-01 1.6174E-01</leafValues></_><_><internalNodes>0 -1 914 1.5689E-03</internalNodes><leafValues>3.1976E-02 -6.0493E-01</leafValues></_><_><internalNodes>0 -1 575 2.5749E-03</internalNodes><leafValues>-9.0526E-02 2.2666E-01</leafValues></_><_><internalNodes>0 -1 90 7.9413E-03</internalNodes><leafValues>5.1273E-02 -3.9284E-01</leafValues></_><_><internalNodes>0 -1 15 3.2074E-02</internalNodes><leafValues>2.7649E-02 -6.5099E-01</leafValues></_><_><internalNodes>0 -1 891 -4.8893E-03</internalNodes><leafValues>-4.7998E-01 3.3807E-02</leafValues></_><_><internalNodes>0 -1 475 -5.4040E-03</internalNodes><leafValues>2.8928E-01 -6.7744E-02</leafValues></_><_><internalNodes>0 -1 531 6.3710E-03</internalNodes><leafValues>-9.2935E-02 1.9696E-01</leafValues></_><_><internalNodes>0 -1 578 -1.8337E-03</internalNodes><leafValues>-3.5493E-01 5.1712E-02</leafValues></_><_><internalNodes>0 -1 917 2.1252E-03</internalNodes><leafValues>2.0354E-02 -7.2820E-01</leafValues></_><_><internalNodes>0 -1 233 1.1280E-02</internalNodes><leafValues>2.5639E-02 -5.8715E-01</leafValues></_><_><internalNodes>0 -1 679 -1.1508E-01</internalNodes><leafValues>-7.1453E-01 2.0069E-02</leafValues></_><_><internalNodes>0 -1 757 -1.9626E-03</internalNodes><leafValues>1.6724E-01 -1.0802E-01</leafValues></_><_><internalNodes>0 -1 756 4.7045E-03</internalNodes><leafValues>-5.0709E-02 3.6821E-01</leafValues></_><_><internalNodes>0 -1 951 1.8476E-03</internalNodes><leafValues>2.8631E-02 -6.8395E-01</leafValues></_><_><internalNodes>0 -1 546 -5.4539E-03</internalNodes><leafValues>-6.8269E-01 2.0948E-02</leafValues></_><_><internalNodes>0 -1 130 -1.0074E-02</internalNodes><leafValues>-5.0528E-01 2.8627E-02</leafValues></_><_><internalNodes>0 -1 207 -3.2070E-03</internalNodes><leafValues>1.8039E-01 -9.3304E-02</leafValues></_><_><internalNodes>0 -1 327 3.5637E-03</internalNodes><leafValues>-6.5285E-02 3.2510E-01</leafValues></_><_><internalNodes>0 -1 247 2.1060E-03</internalNodes><leafValues>3.0474E-02 -5.9379E-01</leafValues></_><_><internalNodes>0 -1 568 4.2935E-03</internalNodes><leafValues>-7.1522E-02 2.4279E-01</leafValues></_><_><internalNodes>0 -1 809 8.2499E-03</internalNodes><leafValues>3.7760E-02 -4.5279E-01</leafValues></_><_><internalNodes>0 -1 606 2.5047E-03</internalNodes><leafValues>-7.9690E-02 2.0524E-01</leafValues></_><_><internalNodes>0 -1 651 -1.7786E-03</internalNodes><leafValues>-6.7214E-01 2.7109E-02</leafValues></_><_><internalNodes>0 -1 93 5.6852E-01</internalNodes><leafValues>-2.9720E-02 6.2849E-01</leafValues></_><_><internalNodes>0 -1 1 -3.9951E-03</internalNodes><leafValues>1.6903E-01 -9.6066E-02</leafValues></_><_><internalNodes>0 -1 790 -1.1912E-02</internalNodes><leafValues>1.8001E-01 -1.0152E-01</leafValues></_><_><internalNodes>0 -1 13 -3.2837E-02</internalNodes><leafValues>2.2790E-01 -7.5774E-02</leafValues></_><_><internalNodes>0 -1 714 -9.5822E-03</internalNodes><leafValues>2.8320E-01 -6.0501E-02</leafValues></_><_><internalNodes>0 -1 584 -7.0154E-03</internalNodes><leafValues>3.7712E-01 -4.5414E-02</leafValues></_><_><internalNodes>0 -1 598 2.2931E-03</internalNodes><leafValues>-9.7957E-02 1.8666E-01</leafValues></_><_><internalNodes>0 -1 409 3.6181E-03</internalNodes><leafValues>-8.5584E-02 2.1273E-01</leafValues></_><_><internalNodes>0 -1 169 -3.5851E-03</internalNodes><leafValues>-3.2167E-01 5.0519E-02</leafValues></_><_><internalNodes>0 -1 736 2.0359E-03</internalNodes><leafValues>-9.0196E-02 1.7850E-01</leafValues></_><_><internalNodes>0 -1 328 3.0856E-02</internalNodes><leafValues>7.0853E-02 -2.3407E-01</leafValues></_><_><internalNodes>0 -1 543 -2.8650E-03</internalNodes><leafValues>2.5149E-01 -7.0797E-02</leafValues></_><_><internalNodes>0 -1 658 6.9190E-03</internalNodes><leafValues>-7.6844E-02 2.2757E-01</leafValues></_><_><internalNodes>0 -1 831 3.2940E-02</internalNodes><leafValues>-6.0665E-02 2.7875E-01</leafValues></_><_><internalNodes>0 -1 835 8.9269E-03</internalNodes><leafValues>-8.5171E-02 2.3206E-01</leafValues></_><_><internalNodes>0 -1 645 -7.8886E-04</internalNodes><leafValues>-2.9131E-01 6.2974E-02</leafValues></_><_><internalNodes>0 -1 71 -5.6760E-03</internalNodes><leafValues>-4.1244E-01 3.6540E-02</leafValues></_><_><internalNodes>0 -1 273 1.2778E-03</internalNodes><leafValues>-8.5784E-02 1.8866E-01</leafValues></_><_><internalNodes>0 -1 887 3.7157E-02</internalNodes><leafValues>-1.0894E-01 1.4975E-01</leafValues></_><_><internalNodes>0 -1 92 -5.7424E-01</internalNodes><leafValues>7.2751E-01 -2.4813E-02</leafValues></_><_><internalNodes>0 -1 222 -1.3635E-03</internalNodes><leafValues>2.2406E-01 -6.9667E-02</leafValues></_><_><internalNodes>0 -1 814 3.3075E-02</internalNodes><leafValues>-5.6832E-02 3.0119E-01</leafValues></_></weakClassifiers></_><_><maxWeakCount>100</maxWeakCount><stageThreshold>-1.5318E+00</stageThreshold><weakClassifiers><_><internalNodes>0 -1 770 -2.2908E-03</internalNodes><leafValues>5.9861E-01 8.8972E-02</leafValues></_><_><internalNodes>0 -1 256 3.1865E-03</internalNodes><leafValues>-1.5605E-01 3.8613E-01</leafValues></_><_><internalNodes>0 -1 561 -8.0398E-03</internalNodes><leafValues>2.8996E-01 -1.8176E-01</leafValues></_><_><internalNodes>0 -1 850 4.3596E-03</internalNodes><leafValues>-8.0428E-02 5.0875E-01</leafValues></_><_><internalNodes>0 -1 264 2.8643E-02</internalNodes><leafValues>-1.7203E-01 3.2914E-01</leafValues></_><_><internalNodes>0 -1 896 -3.1283E-03</internalNodes><leafValues>3.7550E-01 -9.1347E-02</leafValues></_><_><internalNodes>0 -1 778 1.4059E-03</internalNodes><leafValues>-1.9007E-01 1.6664E-01</leafValues></_><_><internalNodes>0 -1 230 1.0209E-02</internalNodes><leafValues>-1.2146E-01 2.3720E-01</leafValues></_><_><internalNodes>0 -1 313 6.0191E-03</internalNodes><leafValues>5.1051E-02 -5.5820E-01</leafValues></_><_><internalNodes>0 -1 395 -4.7454E-03</internalNodes><leafValues>1.6992E-01 -1.6200E-01</leafValues></_><_><internalNodes>0 -1 771 1.5876E-03</internalNodes><leafValues>-1.0144E-01 2.6255E-01</leafValues></_><_><internalNodes>0 -1 183 -2.7861E-03</internalNodes><leafValues>-4.0355E-01 6.7644E-02</leafValues></_><_><internalNodes>0 -1 56 4.0722E-03</internalNodes><leafValues>4.1441E-02 -5.5185E-01</leafValues></_><_><internalNodes>0 -1 953 1.0626E-03</internalNodes><leafValues>-1.4223E-01 1.7193E-01</leafValues></_><_><internalNodes>0 -1 280 4.7260E-03</internalNodes><leafValues>5.1824E-02 -3.9257E-01</leafValues></_><_><internalNodes>0 -1 766 -2.6500E-03</internalNodes><leafValues>-3.5642E-01 6.6785E-02</leafValues></_><_><internalNodes>0 -1 375 3.9345E-03</internalNodes><leafValues>-6.1840E-02 3.9278E-01</leafValues></_><_><internalNodes>0 -1 334 8.9293E-04</internalNodes><leafValues>-1.0519E-01 2.3272E-01</leafValues></_><_><internalNodes>0 -1 381 5.7921E-02</internalNodes><leafValues>-6.8776E-02 3.3802E-01</leafValues></_><_><internalNodes>0 -1 529 -6.6577E-02</internalNodes><leafValues>4.2278E-01 -6.3240E-02</leafValues></_><_><internalNodes>0 -1 184 -5.5271E-03</internalNodes><leafValues>-4.1861E-01 6.0345E-02</leafValues></_><_><internalNodes>0 -1 355 3.3537E-03</internalNodes><leafValues>-1.5911E-01 1.7853E-01</leafValues></_><_><internalNodes>0 -1 427 -2.3959E-03</internalNodes><leafValues>2.5073E-01 -8.5365E-02</leafValues></_><_><internalNodes>0 -1 244 -2.1867E-03</internalNodes><leafValues>-5.6375E-01 3.5474E-02</leafValues></_><_><internalNodes>0 -1 602 2.4598E-03</internalNodes><leafValues>3.1020E-02 -5.5415E-01</leafValues></_><_><internalNodes>0 -1 577 -2.9149E-03</internalNodes><leafValues>-4.6299E-01 3.7638E-02</leafValues></_><_><internalNodes>0 -1 905 -1.5586E-03</internalNodes><leafValues>1.4355E-01 -1.3061E-01</leafValues></_><_><internalNodes>0 -1 70 -3.1854E-02</internalNodes><leafValues>-4.6955E-01 3.7520E-02</leafValues></_><_><internalNodes>0 -1 472 -5.1450E-03</internalNodes><leafValues>2.7592E-01 -6.6930E-02</leafValues></_><_><internalNodes>0 -1 55 -1.7139E-03</internalNodes><leafValues>-3.8029E-01 4.9521E-02</leafValues></_><_><internalNodes>0 -1 98 -1.0932E-01</internalNodes><leafValues>-4.1069E-01 4.0004E-02</leafValues></_><_><internalNodes>0 -1 158 -2.5099E-02</internalNodes><leafValues>4.3478E-01 -5.5282E-02</leafValues></_><_><internalNodes>0 -1 435 8.1472E-03</internalNodes><leafValues>-4.5095E-02 3.9842E-01</leafValues></_><_><internalNodes>0 -1 765 -1.9678E-03</internalNodes><leafValues>1.8696E-01 -1.1215E-01</leafValues></_><_><internalNodes>0 -1 656 -2.6077E-03</internalNodes><leafValues>2.2792E-01 -8.7666E-02</leafValues></_><_><internalNodes>0 -1 490 -4.1762E-03</internalNodes><leafValues>-6.8349E-01 2.8926E-02</leafValues></_><_><internalNodes>0 -1 774 1.3160E-02</internalNodes><leafValues>2.1793E-02 -7.0727E-01</leafValues></_><_><internalNodes>0 -1 548 -5.1896E-03</internalNodes><leafValues>-6.6960E-01 2.1171E-02</leafValues></_><_><internalNodes>0 -1 323 -1.5662E-02</internalNodes><leafValues>-3.6895E-01 4.1786E-02</leafValues></_><_><internalNodes>0 -1 0 -2.4021E-03</internalNodes><leafValues>1.7773E-01 -1.0461E-01</leafValues></_><_><internalNodes>0 -1 631 1.9490E-02</internalNodes><leafValues>3.1142E-02 -5.4499E-01</leafValues></_><_><internalNodes>0 -1 143 4.9672E-01</internalNodes><leafValues>-2.4833E-02 7.6724E-01</leafValues></_><_><internalNodes>0 -1 403 3.2806E-03</internalNodes><leafValues>-6.8504E-02 2.2050E-01</leafValues></_><_><internalNodes>0 -1 638 2.1591E-03</internalNodes><leafValues>2.5587E-02 -6.2129E-01</leafValues></_><_><internalNodes>0 -1 604 5.2639E-04</internalNodes><leafValues>-9.3414E-02 1.7370E-01</leafValues></_><_><internalNodes>0 -1 510 -2.1491E-03</internalNodes><leafValues>-4.4395E-01 3.9975E-02</leafValues></_><_><internalNodes>0 -1 605 1.9846E-03</internalNodes><leafValues>-8.5415E-02 2.0133E-01</leafValues></_><_><internalNodes>0 -1 565 -3.2773E-03</internalNodes><leafValues>2.4408E-01 -7.3116E-02</leafValues></_><_><internalNodes>0 