<?xml version="1.0"?>
<!-- Minified by Satya Mallick (http://www.learnopencv.com) -->
<opencv_storage><cascade><stageType>BOOST</stageType><featureType>HAAR</featureType><height>20</height><width>60</width><stageParams><boostType>GAB</boostType><minHitRate>9.9500E-01</minHitRate><maxFalseAlarm>5.0000E-01</maxFalseAlarm><weightTrimRate>9.5000E-01</weightTrimRate><maxDepth>1</maxDepth><maxWeakCount>100</maxWeakCount></stageParams><featureParams><maxCatCount>0</maxCatCount><featSize>1</featSize><mode>ALL</mode></featureParams><stageNum>20</stageNum><stages><_><maxWeakCount>6</maxWeakCount><stageThreshold>-1.3110E+00</stageThreshold><weakClassifiers><_><internalNodes>0 -1 193 1.0079E-02</internalNodes><leafValues>-8.1339E-01 5.0278E-01</leafValues></_><_><internalNodes>0 -1 94 -2.2061E-02</internalNodes><leafValues>7.9419E-01 -5.0896E-01</leafValues></_><_><internalNodes>0 -1 18 -4.8778E-02</internalNodes><leafValues>7.1657E-01 -4.1640E-01</leafValues></_><_><internalNodes>0 -1 35 1.0387E-02</internalNodes><leafValues>3.7618E-01 -8.5504E-01</leafValues></_><_><internalNodes>0 -1 191 -9.4084E-04</internalNodes><leafValues>4.2659E-01 -5.7729E-01</leafValues></_><_><internalNodes>0 -1 48 -8.2391E-03</internalNodes><leafValues>8.2347E-01 -3.7503E-01</leafValues></_></weakClassifiers></_><_><maxWeakCount>6</maxWeakCount><stageThreshold>-1.1760E+00</stageThreshold><weakClassifiers><_><internalNodes>0 -1 21 1.7387E-01</internalNodes><leafValues>-6.8140E-01 6.0768E-01</leafValues></_><_><internalNodes>0 -1 28 -1.9797E-02</internalNodes><leafValues>7.8072E-01 -4.4400E-01</leafValues></_><_><internalNodes>0 -1 46 -1.0155E-03</internalNodes><leafValues>3.3383E-01 -7.6357E-01</leafValues></_><_><internalNodes>0 -1 138 2.4955E-02</internalNodes><leafValues>-3.9979E-01 6.8621E-01</leafValues></_><_><internalNodes>0 -1 25 2.8838E-03</internalNodes><leafValues>-2.7928E-01 7.9980E-01</leafValues></_><_><internalNodes>0 -1 26 -3.8839E-02</internalNodes><leafValues>-7.8442E-01 3.4930E-01</leafValues></_></weakClassifiers></_><_><maxWeakCount>6</maxWeakCount><stageThreshold>-1.7857E+00</stageThreshold><weakClassifiers><_><internalNodes>0 -1 34 2.7977E-02</internalNodes><leafValues>-5.8424E-01 6.6851E-01</leafValues></_><_><internalNodes>0 -1 171 1.9149E-02</internalNodes><leafValues>-6.5458E-01 4.0804E-01</leafValues></_><_><internalNodes>0 -1 7 1.1955E-02</internalNodes><leafValues>-4.2003E-01 5.6217E-01</leafValues></_><_><internalNodes>0 -1 45 -2.1219E-02</internalNodes><leafValues>7.1813E-01 -3.0354E-01</leafValues></_><_><internalNodes>0 -1 108 2.0117E-04</internalNodes><leafValues>-6.1750E-01 3.5549E-01</leafValues></_><_><internalNodes>0 -1 122 3.9726E-04</internalNodes><leafValues>-2.6844E-01 7.6772E-01</leafValues></_></weakClassifiers></_><_><maxWeakCount>9</maxWeakCount><stageThreshold>-1.1837E+00</stageThreshold><weakClassifiers><_><internalNodes>0 -1 202 -1.3292E-02</internalNodes><leafValues>4.5249E-01 -5.8850E-01</leafValues></_><_><internalNodes>0 -1 79 -4.8353E-02</internalNodes><leafValues>7.0952E-01 -3.2546E-01</leafValues></_><_><internalNodes>0 -1 22 2.6533E-03</internalNodes><leafValues>-2.5344E-01 7.6589E-01</leafValues></_><_><internalNodes>0 -1 66 -3.8549E-02</internalNodes><leafValues>5.8126E-01 -3.0813E-01</leafValues></_><_><internalNodes>0 -1 41 -6.8603E-04</internalNodes><leafValues>2.6361E-01 -7.2227E-01</leafValues></_><_><internalNodes>0 -1 69 -2.5727E-02</internalNodes><leafValues>-8.7154E-01 1.9439E-01</leafValues></_><_><internalNodes>0 -1 24 8.4193E-04</internalNodes><leafValues>-3.6151E-01 5.2065E-01</leafValues></_><_><internalNodes>0 -1 62 -2.6957E-03</internalNodes><leafValues>5.9946E-01 -2.8345E-01</leafValues></_><_><internalNodes>0 -1 112 3.0572E-02</internalNodes><leafValues>-3.0689E-01 5.7262E-01</leafValues></_></weakClassifiers></_><_><maxWeakCount>8</maxWeakCount><stageThreshold>-1.4688E+00</stageThreshold><weakClassifiers><_><internalNodes>0 -1 5 3.1486E-02</internalNodes><leafValues>-5.7837E-01 3.7931E-01</leafValues></_><_><internalNodes>0 -1 150 2.8311E-03</internalNodes><leafValues>-5.7888E-01 3.2842E-01</leafValues></_><_><internalNodes>0 -1 76 -4.2061E-02</internalNodes><leafValues>5.5578E-01 -3.2662E-01</leafValues></_><_><internalNodes>0 -1 115 6.2937E-03</internalNodes><leafValues>-2.1033E-01 7.8647E-01</leafValues></_><_><internalNodes>0 -1 51 7.0570E-02</internalNodes><leafValues>-4.3683E-01 4.0298E-01</leafValues></_><_><internalNodes>0 -1 135 2.5174E-03</internalNodes><leafValues>-2.0462E-01 8.2858E-01</leafValues></_><_><internalNodes>0 -1 102 1.5649E-03</internalNodes><leafValues>-2.4848E-01 6.0209E-01</leafValues></_><_><internalNodes>0 -1 177 -3.5971E-03</internalNodes><leafValues>2.3295E-01 -6.5612E-01</leafValues></_></weakClassifiers></_><_><maxWeakCount>9</maxWeakCount><stageThreshold>-1.1030E+00</stageThreshold><weakClassifiers><_><internalNodes>0 -1 27 -1.1258E-01</internalNodes><leafValues>3.3182E-01 -5.3901E-01</leafValues></_><_><internalNodes>0 -1 142 3.8015E-03</internalNodes><leafValues>-3.6430E-01 4.5984E-01</leafValues></_><_><internalNodes>0 -1 57 9.8790E-04</internalNodes><leafValues>-2.6661E-01 5.6971E-01</leafValues></_><_><internalNodes>0 -1 55 2.1720E-02</internalNodes><leafValues>1.8433E-01 -8.2999E-01</leafValues></_><_><internalNodes>0 -1 111 5.1052E-02</internalNodes><leafValues>1.4391E-01 -9.4542E-01</leafValues></_><_><internalNodes>0 -1 164 1.8956E-03</internalNodes><leafValues>-6.0830E-01 2.6092E-01</leafValues></_><_><internalNodes>0 -1 81 -5.8701E-03</internalNodes><leafValues>6.9105E-01 -2.6917E-01</leafValues></_><_><internalNodes>0 -1 116 -1.1522E-03</internalNodes><leafValues>-6.9504E-01 2.4749E-01</leafValues></_><_><internalNodes>0 -1 90 -5.1934E-03</internalNodes><leafValues>5.8551E-01 -3.0389E-01</leafValues></_></weakClassifiers></_><_><maxWeakCount>9</maxWeakCount><stageThreshold>-9.0275E-01</stageThreshold><weakClassifiers><_><internalNodes>0 -1 205 -1.4384E-02</internalNodes><leafValues>4.5401E-01 -4.9918E-01</leafValues></_><_><internalNodes>0 -1 114 -3.3369E-02</internalNodes><leafValues>-9.3248E-01 1.4587E-01</leafValues></_><_><internalNodes>0 -1 128 5.2381E-04</internalNodes><leafValues>-2.8350E-01 6.4984E-01</leafValues></_><_><internalNodes>0 -1 143 6.1231E-04</internalNodes><leafValues>-1.8502E-01 6.5052E-01</leafValues></_><_><internalNodes>0 -1 49 1.7018E-03</internalNodes><leafValues>2.2009E-01 -7.2278E-01</leafValues></_><_><internalNodes>0 -1 133 2.6139E-03</internalNodes><leafValues>1.8238E-01 -7.6262E-01</leafValues></_><_><internalNodes>0 -1 43 -2.0020E-03</internalNodes><leafValues>5.6799E-01 -2.8220E-01</leafValues></_><_><internalNodes>0 -1 119 1.9274E-03</internalNodes><leafValues>-2.0914E-01 7.9204E-01</leafValues></_><_><internalNodes>0 -1 134 -9.4476E-04</internalNodes><leafValues>-8.2362E-01 2.4257E-01</leafValues></_></weakClassifiers></_><_><maxWeakCount>10</maxWeakCount><stageThreshold>-1.4519E+00</stageThreshold><weakClassifiers><_><internalNodes>0 -1 162 1.6756E-02</internalNodes><leafValues>-6.9359E-01 5.1374E-02</leafValues></_><_><internalNodes>0 -1 16 2.4083E-02</internalNodes><leafValues>-3.3989E-01 4.5333E-01</leafValues></_><_><internalNodes>0 -1 186 1.2285E-03</internalNodes><leafValues>-2.2297E-01 6.1440E-01</leafValues></_><_><internalNodes>0 -1 59 -1.4379E-03</internalNodes><leafValues>-6.9444E-01 2.0446E-01</leafValues></_><_><internalNodes>0 -1 185 -1.8713E-03</internalNodes><leafValues>6.7942E-01 -2.7580E-01</leafValues></_><_><internalNodes>0 -1 190 -4.7390E-03</internalNodes><leafValues>-7.0437E-01 2.6915E-01</leafValues></_><_><internalNodes>0 -1 156 7.4071E-04</internalNodes><leafValues>-2.9221E-01 5.3538E-01</leafValues></_><_><internalNodes>0 -1 11 -2.2739E-01</internalNodes><leafValues>6.6916E-01 -2.1987E-01</leafValues></_><_><internalNodes>0 -1 155 -1.0256E-03</internalNodes><leafValues>6.3346E-01 -2.2718E-01</leafValues></_><_><internalNodes>0 -1 167 2.4775E-03</internalNodes><leafValues>-5.4298E-01 3.1878E-01</leafValues></_></weakClassifiers></_><_><maxWeakCount>11</maxWeakCount><stageThreshold>-1.3154E+00</stageThreshold><weakClassifiers><_><internalNodes>0 -1 6 1.9132E-02</internalNodes><leafValues>-6.0169E-01 1.9142E-01</leafValues></_><_><internalNodes>0 -1 42 -4.5855E-03</internalNodes><leafValues>2.1902E-01 -5.7137E-01</leafValues></_><_><internalNodes>0 -1 53 -1.9027E-03</internalNodes><leafValues>-8.0075E-01 1.6502E-01</leafValues></_><_><internalNodes>0 -1 19 -3.2767E-02</internalNodes><leafValues>5.1496E-01 -2.5475E-01</leafValues></_><_><internalNodes>0 -1 129 6.3942E-04</internalNodes><leafValues>-1.9852E-01 6.7219E-01</leafValues></_><_><internalNodes>0 -1 201 1.5574E-02</internalNodes><leafValues>-1.7565E-01 7.0537E-01</leafValues></_><_><internalNodes>0 -1 200 9.5508E-04</internalNodes><leafValues>-1.9692E-01 6.1126E-01</leafValues></_><_><internalNodes>0 -1 67 9.0428E-03</internalNodes><leafValues>1.6518E-01 -8.7012E-01</leafValues></_><_><internalNodes>0 -1 77 8.1577E-02</internalNodes><leafValues>1.4076E-01 -8.4872E-01</leafValues></_><_><internalNodes>0 -1 166 -5.1995E-04</internalNodes><leafValues>2.1803E-01 -5.4628E-01</leafValues></_><_><internalNodes>0 -1 70 -2.3010E-02</internalNodes><leafValues>-7.9586E-01 1.5990E-01</leafValues></_></weakClassifiers></_><_><maxWeakCount>13</maxWeakCount><stageThreshold>-1.4625E+00</stageThreshold><weakClassifiers><_><internalNodes>0 -1 1 2.6760E-02</internalNodes><leafValues>-6.0483E-01 1.4907E-01</leafValues></_><_><internalNodes>0 -1 165 3.0344E-02</internalNodes><leafValues>-4.7358E-01 2.6279E-01</leafValues></_><_><internalNodes>0 -1 161 1.2679E-03</internalNodes><leafValues>-1.9494E-01 6.9735E-01</leafValues></_><_><internalNodes>0 -1 30 1.8608E-03</internalNodes><leafValues>1.5612E-01 -9.0542E-01</leafValues></_><_><internalNodes>0 -1 157 -1.3873E-03</internalNodes><leafValues>5.3263E-01 -3.0192E-01</leafValues></_><_><internalNodes>0 -1 180 -6.9969E-03</internalNodes><leafValues>-9.4550E-01 1.5575E-01</leafValues></_><_><internalNodes>0 -1 158 1.1246E-03</internalNodes><leafValues>-2.6689E-01 5.5608E-01</leafValues></_><_><internalNodes>0 -1 160 -2.8280E-03</internalNodes><leafValues>-9.1861E-01 1.3310E-01</leafValues></_><_><internalNodes>0 -1 58 7.1019E-04</internalNodes><leafValues>-3.0978E-01 4.3846E-01</leafValues></_><_><internalNodes>0 -1 8 -4.1933E-02</internalNodes><leafValues>-8.9103E-01 1.5866E-01</leafValues></_><_><internalNodes>0 -1 87 1.6568E-02</internalNodes><leafValues>1.2732E-01 -8.5553E-01</leafValues></_><_><internalNodes>0 -1 64 2.0309E-03</internalNodes><leafValues>-2.3260E-01 6.7330E-01</leafValues></_><_><internalNodes>0 -1 159 -1.7070E-03</internalNodes><leafValues>-7.1926E-01 1.9109E-01</leafValues></_></weakClassifiers></_><_><maxWeakCount>14</maxWeakCount><stageThreshold>-1.4960E+00</stageThreshold><weakClassifiers><_><internalNodes>0 -1 4 1.4696E-02</internalNodes><leafValues>-6.2168E-01 2.1173E-01</leafValues></_><_><internalNodes>0 -1 50 -1.6501E-03</internalNodes><leafValues>1.9354E-01 -5.7780E-01</leafValues></_><_><internalNodes>0 -1 123 7.0122E-04</internalNodes><leafValues>-2.2979E-01 5.3033E-01</leafValues></_><_><internalNodes>0 -1 52 9.4158E-04</internalNodes><leafValues>1.6849E-01 -7.4898E-01</leafValues></_><_><internalNodes>0 -1 124 -2.0684E-03</internalNodes><leafValues>6.7937E-01 -1.9317E-01</leafValues></_><_><internalNodes>0 -1 23 -1.8306E-04</internalNodes><leafValues>-7.0275E-01 1.7971E-01</leafValues></_><_><internalNodes>0 -1 198 5.5587E-04</internalNodes><leafValues>-2.4448E-01 5.0704E-01</leafValues></_><_><internalNodes>0 -1 152 4.3448E-04</internalNodes><leafValues>1.3498E-01 -8.5621E-01</leafValues></_><_><internalNodes>0 -1 197 -1.2360E-03</internalNodes><leafValues>6.1710E-01 -2.2301E-01</leafValues></_><_><internalNodes>0 -1 153 -6.9627E-04</internalNodes><leafValues>-6.4707E-01 2.3951E-01</leafValues></_><_><internalNodes>0 -1 175 1.0684E-03</internalNodes><leafValues>-2.8344E-01 4.9319E-01</leafValues></_><_><internalNodes>0 -1 168 1.7104E-04</internalNodes><leafValues>-2.7171E-01 4.2520E-01</leafValues></_><_><internalNodes>0 -1 144 8.2369E-03</internalNodes><leafValues>1.6359E-01 -7.3865E-01</leafValues></_><_><internalNodes>0 -1 131 -5.9884E-03</internalNodes><leafValues>3.8031E-01 -3.0764E-01</leafValues></_></weakClassifiers></_><_><maxWeakCount>9</maxWeakCount><stageThreshold>-1.1184E+00</stageThreshold><weakClassifiers><_><internalNodes>0 -1 187 -1.4864E-02</internalNodes><leafValues>1.1989E-01 -6.6139E-01</leafValues></_><_><internalNodes>0 -1 117 2.4737E-03</internalNodes><leafValues>-5.2779E-01 2.3012E-01</leafValues></_><_><internalNodes>0 -1 71 -4.8899E-03</internalNodes><leafValues>6.0187E-01 -2.0682E-01</leafValues></_><_><internalNodes>0 -1 174 1.5796E-02</internalNodes><leafValues>1.4611E-01 -8.2100E-01</leafValues></_><_><internalNodes>0 -1 104 5.9721E-04</internalNodes><leafValues>-2.3587E-01 4.8324E-01</leafValues></_><_><internalNodes>0 -1 103 -1.9449E-03</internalNodes><leafValues>6.4418E-01 -2.0953E-01</leafValues></_><_><internalNodes>0 -1 154 1.9433E-04</internalNodes><leafValues>2.0600E-01 -7.2419E-01</leafValues></_><_><internalNodes>0 -1 163 -1.5098E-02</internalNodes><leafValues>-8.7151E-01 1.2595E-01</leafValues></_><_><internalNodes>0 -1 82 -3.9844E-03</internalNodes><leafValues>4.3801E-01 -2.9677E-01</leafValues></_></weakClassifiers></_><_><maxWeakCount>12</maxWeakCount><stageThreshold>-1.5434E+00</stageThreshold><weakClassifiers><_><internalNodes>0 -1 105 1.1273E-03</internalNodes><leafValues>-4.7977E-01 3.6628E-01</leafValues></_><_><internalNodes>0 -1 95 9.7807E-04</internalNodes><leafValues>-2.7690E-01 5.1296E-01</leafValues></_><_><internalNodes>0 -1 15 1.6528E-02</internalNodes><leafValues>-4.5260E-01 2.4290E-01</leafValues></_><_><internalNodes>0 -1 137 1.1040E-03</internalNodes><leafValues>-3.2715E-01 3.4566E-01</leafValues></_><_><internalNodes>0 -1 109 -1.7780E-03</internalNodes><leafValues>-6.9512E-01 1.8830E-01</leafValues></_><_><internalNodes>0 -1 92 4.6280E-04</internalNodes><leafValues>-2.3865E-01 5.3136E-01</leafValues></_><_><internalNodes>0 -1 100 -1.4975E-04</internalNodes><leafValues>-6.6510E-01 2.1484E-01</leafValues></_><_><internalNodes>0 -1 83 -1.4625E-03</internalNodes><leafValues>2.6556E-01 -4.9002E-01</leafValues></_><_><internalNodes>0 -1 14 -2.6020E-04</internalNodes><leafValues>-7.0160E-01 1.6359E-01</leafValues></_><_><internalNodes>0 -1 14 2.2372E-04</internalNodes><leafValues>1.2920E-01 -6.9767E-01</leafValues></_><_><internalNodes>0 -1 194 -1.0447E-02</internalNodes><leafValues>2.1838E-01 -4.6482E-01</leafValues></_><_><internalNodes>0 -1 20 -9.2897E-03</internalNodes><leafValues>6.4918E-01 -2.0495E-01</leafValues></_></weakClassifiers></_><_><maxWeakCount>12</maxWeakCount><stageThreshold>-1.4440E+00</stageThreshold><weakClassifiers><_><internalNodes>0 -1 9 8.5356E-03</internalNodes><leafValues>-5.3151E-01 2.2358E-01</leafValues></_><_><internalNodes>0 -1 182 1.5295E-03</internalNodes><leafValues>-6.0895E-01 1.7430E-01</leafValues></_><_><internalNodes>0 -1 40 1.8610E-03</internalNodes><leafValues>-2.5480E-01 4.2150E-01</leafValues></_><_><internalNodes>0 -1 176 1.5736E-03</internalNodes><leafValues>-1.6832E-01 4.8568E-01</leafValues></_><_><internalNodes>0 -1 179 -6.7993E-04</internalNodes><leafValues>3.9895E-01 -3.0744E-01</leafValues></_><_><internalNodes>0 -1 151 4.9857E-02</internalNodes><leafValues>-1.5370E-01 6.7523E-01</leafValues></_><_><internalNodes>0 -1 139 -2.8339E-02</internalNodes><leafValues>5.0541E-01 -2.9474E-01</leafValues></_><_><internalNodes>0 -1 72 -7.7957E-02</internalNodes><leafValues>4.0387E-01 -3.0287E-01</leafValues></_><_><internalNodes>0 -1 89 -3.6115E-03</internalNodes><leafValues>6.3856E-01 -1.6918E-01</leafValues></_><_><internalNodes>0 -1 207 3.3940E-04</internalNodes><leafValues>1.3714E-01 -7.8120E-01</leafValues></_><_><internalNodes>0 -1 39 4.0043E-03</internalNodes><leafValues>1.5233E-01 -6.3940E-01</leafValues></_><_><internalNodes>0 -1 65 -4.4602E-04</internalNodes><leafValues>2.1334E-01 -4.7729E-01</leafValues></_></weakClassifiers></_><_><maxWeakCount>13</maxWeakCount><stageThreshold>-1.2533E+00</stageThreshold><weakClassifiers><_><internalNodes>0 -1 204 -2.0341E-02</internalNodes><leafValues>2.4171E-01 -4.9162E-01</leafValues></_><_><internalNodes>0 -1 169 8.9040E-04</internalNodes><leafValues>-2.8571E-01 4.2667E-01</leafValues></_><_><internalNodes>0 -1 60 -3.3260E-03</internalNodes><leafValues>4.2627E-01 -2.3812E-01</leafValues></_><_><internalNodes>0 -1 38 -3.1715E-02</internalNodes><leafValues>-8.5495E-01 1.1713E-01</leafValues></_><_><internalNodes>0 -1 31 -1.1554E-02</internalNodes><leafValues>2.2675E-01 -4.9641E-01</leafValues></_><_><internalNodes>0 -1 80 -6.7727E-02</internalNodes><leafValues>-8.6705E-01 9.8766E-02</leafValues></_><_><internalNodes>0 -1 63 -3.1611E-03</internalNodes><leafValues>3.9450E-01 -2.8211E-01</leafValues></_><_><internalNodes>0 -1 149 4.3222E-04</internalNodes><leafValues>1.1805E-01 -9.0178E-01</leafValues></_><_><internalNodes>0 -1 188 -2.2296E-04</internalNodes><leafValues>1.7325E-01 -5.2878E-01</leafValues></_><_><internalNodes>0 -1 120 -2.1440E-03</internalNodes><leafValues>5.5513E-01 -1.9792E-01</leafValues></_><_><internalNodes>0 -1 113 -4.5123E-03</internalNodes><leafValues>5.5084E-01 -1.8811E-01</leafValues></_><_><internalNodes>0 -1 130 -3.5149E-03</internalNodes><leafValues>5.5468E-01 -2.2856E-01</leafValues></_><_><internalNodes>0 -1 121 -4.4787E-03</internalNodes><leafValues>-7.9107E-01 1.7836E-01</leafValues></_></weakClassifiers></_><_><maxWeakCount>15</maxWeakCount><stageThreshold>-1.1898E+00</stageThreshold><weakClassifiers><_><internalNodes>0 -1 0 1.5207E-02</internalNodes><leafValues>-4.9173E-01 2.7094E-01</leafValues></_><_><internalNodes>0 -1 125 6.9565E-04</internalNodes><leafValues>-2.3067E-01 5.4028E-01</leafValues></_><_><internalNodes>0 -1 125 -8.3668E-04</internalNodes><leafValues>4.4658E-01 -2.7778E-01</leafValues></_><_><internalNodes>0 -1 91 -3.8321E-02</internalNodes><leafValues>-7.9069E-01 1.8700E-01</leafValues></_><_><internalNodes>0 -1 207 -2.1064E-04</internalNodes><leafValues>-6.3164E-01 1.8656E-01</leafValues></_><_><internalNodes>0 -1 61 3.6907E-02</internalNodes><leafValues>9.9320E-02 -7.6762E-01</leafValues></_><_><internalNodes>0 -1 85 8.1071E-03</internalNodes><leafValues>-2.8561E-01 3.4749E-01</leafValues></_><_><internalNodes>0 -1 189 6.2816E-04</internalNodes><leafValues>1.6656E-01 -5.4636E-01</leafValues></_><_><internalNodes>0 -1 86 2.8582E-04</internalNodes><leafValues>-2.4100E-01 4.5411E-01</leafValues></_><_><internalNodes>0 -1 173 -1.9862E-02</internalNodes><leafValues>-9.4317E-01 1.2514E-01</leafValues></_><_><internalNodes>0 -1 96 1.1506E-03</internalNodes><leafValues>-2.4515E-01 4.6453E-01</leafValues></_><_><internalNodes>0 -1 29 2.3451E-04</internalNodes><leafValues>1.2490E-01 -8.0278E-01</leafValues></_><_><internalNodes>0 -1 101 6.7837E-04</internalNodes><leafValues>-2.5018E-01 4.3842E-01</leafValues></_><_><internalNodes>0 -1 17 3.1583E-04</internalNodes><leafValues>1.5952E-01 -7.4525E-01</leafValues></_><_><internalNodes>0 -1 110 7.2624E-03</internalNodes><leafValues>1.2512E-01 -6.5660E-01</leafValues></_></weakClassifiers></_><_><maxWeakCount>15</maxWeakCount><stageThreshold>-1.2417E+00</stageThreshold><weakClassifiers><_><internalNodes>0 -1 2 7.5144E-03</internalNodes><leafValues>-5.9518E-01 5.3793E-02</leafValues></_><_><internalNodes>0 -1 98 -6.4494E-04</internalNodes><leafValues>2.0429E-01 -4.3662E-01</leafValues></_><_><internalNodes>0 -1 196 3.3831E-04</internalNodes><leafValues>-2.1567E-01 4.7118E-01</leafValues></_><_><internalNodes>0 -1 73 2.8321E-03</internalNodes><leafValues>1.3322E-01 -8.3729E-01</leafValues></_><_><internalNodes>0 -1 199 1.6219E-03</internalNodes><leafValues>-2.0890E-01 4.7115E-01</leafValues></_><_><internalNodes>0 -1 10 2.7122E-04</internalNodes><leafValues>1.1476E-01 -7.8030E-01</leafValues></_><_><internalNodes>0 -1 170 8.8358E-03</internalNodes><leafValues>1.2461E-01 -7.6792E-01</leafValues></_><_><internalNodes>0 -1 106 9.7634E-04</internalNodes><leafValues>-2.0806E-01 5.1318E-01</leafValues></_><_><internalNodes>0 -1 107 -2.1239E-02</internalNodes><leafValues>-8.7172E-01 1.2722E-01</leafValues></_><_><internalNodes>0 -1 97 7.1797E-04</internalNodes><leafValues>-3.0763E-01 3.7505E-01</leafValues></_><_><internalNodes>0 -1 32 2.7504E-02</internalNodes><leafValues>1.5652E-01 -7.9516E-01</leafValues></_><_><internalNodes>0 -1 178 1.0625E-03</internalNodes><leafValues>1.3473E-01 -6.9175E-01</leafValues></_><_><internalNodes>0 -1 33 -8.1248E-02</internalNodes><leafValues>-8.5117E-01 1.0602E-01</leafValues></_><_><internalNodes>0 -1 140 -2.2936E-02</internalNodes><leafValues>3.9202E-01 -2.9867E-01</leafValues></_><_><internalNodes>0 -1 146 -1.3327E-03</internalNodes><leafValues>4.7241E-01 -2.6287E-01</leafValues></_></weakClassifiers></_><_><maxWeakCount>13</maxWeakCount><stageThreshold>-1.3384E+00</stageThreshold><weakClassifiers><_><internalNodes>0 -1 3 3.2254E-02</internalNodes><leafValues>-6.5152E-01 7.9948E-02</leafValues></_><_><internalNodes>0 -1 172 -1.1811E-03</internalNodes><leafValues>2.5173E-01 -4.5537E-01</leafValues></_><_><internalNodes>0 -1 88 8.0361E-04</internalNodes><leafValues>-2.1179E-01 4.9319E-01</leafValues></_><_><internalNodes>0 -1 93 6.6201E-04</internalNodes><leafValues>-1.9441E-01 4.6225E-01</leafValues></_><_><internalNodes>0 -1 84 3.4565E-04</internalNodes><leafValues>-2.1175E-01 4.6986E-01</leafValues></_><_><internalNodes>0 -1 132 -5.6434E-04</internalNodes><leafValues>-7.9714E-01 1.8714E-01</leafValues></_><_><internalNodes>0 -1 56 5.8493E-04</internalNodes><leafValues>-3.9331E-01 2.4242E-01</leafValues></_><_><internalNodes>0 -1 13 2.5044E-02</internalNodes><leafValues>1.3490E-01 -7.5924E-01</leafValues></_><_><internalNodes>0 -1 37 -1.8511E-03</internalNodes><leafValues>4.1279E-01 -2.7272E-01</leafValues></_><_><internalNodes>0 -1 68 -2.5741E-04</internalNodes><leafValues>-6.3662E-01 1.8136E-01</leafValues></_><_><internalNodes>0 -1 184 -1.5122E-02</internalNodes><leafValues>2.5249E-01 -3.8438E-01</leafValues></_><_><internalNodes>0 -1 203 -1.5006E-02</internalNodes><leafValues>-8.4878E-01 1.1718E-01</leafValues></_><_><internalNodes>0 -1 74 4.9881E-04</internalNodes><leafValues>-2.6755E-01 4.5770E-01</leafValues></_></weakClassifiers></_><_><maxWeakCount>12</maxWeakCount><stageThreshold>-1.2098E+00</stageThreshold><weakClassifiers><_><internalNodes>0 -1 195 -1.1615E-02</internalNodes><leafValues>1.4465E-01 -5.9521E-01</leafValues></_><_><internalNodes>0 -1 75 3.9767E-04</internalNodes><leafValues>-4.2698E-01 2.4382E-01</leafValues></_><_><internalNodes>0 -1 47 -4.6970E-02</internalNodes><leafValues>-9.3970E-01 1.2196E-01</leafValues></_><_><internalNodes>0 -1 136 5.5550E-04</internalNodes><leafValues>-1.8247E-01 6.5156E-01</leafValues></_><_><internalNodes>0 -1 99 2.9469E-04</internalNodes><leafValues>1.5099E-01 -7.8841E-01</leafValues></_><_><internalNodes>0 -1 44 1.2440E-02</internalNodes><leafValues>1.4981E-01 -7.5918E-01</leafValues></_><_><internalNodes>0 -1 147 6.6338E-04</internalNodes><leafValues>-2.5186E-01 5.9387E-01</leafValues></_><_><internalNodes>0 -1 148 -6.8455E-04</internalNodes><leafValues>5.1199E-01 -2.5248E-01</leafValues></_><_><internalNodes>0 -1 141 1.4809E-03</internalNodes><leafValues>2.2440E-01 -5.8185E-01</leafValues></_><_><internalNodes>0 -1 12 6.0307E-03</internalNodes><leafValues>-4.3554E-01 2.8183E-01</leafValues></_><_><internalNodes>0 -1 78 -1.9171E-02</internalNodes><leafValues>-8.5707E-01 1.4851E-01</leafValues></_><_><internalNodes>0 -1 122 3.0278E-04</internalNodes><leafValues>-3.1547E-01 4.1798E-01</leafValues></_></weakClassifiers></_><_><maxWeakCount>10</maxWeakCount><stageThreshold>-1.2253E+00</stageThreshold><weakClassifiers><_><internalNodes>0 -1 181 4.6847E-02</internalNodes><leafValues>-4.9239E-01 5.2288E-01</leafValues></_><_><internalNodes>0 -1 118 2.2182E-03</internalNodes><leafValues>-4.2569E-01 3.6893E-01</leafValues></_><_><internalNodes>0 -1 145 6.1082E-04</internalNodes><leafValues>1.7655E-01 -8.2657E-01</leafValues></_><_><internalNodes>0 -1 127 1.7402E-02</internalNodes><leafValues>2.7771E-01 -5.6394E-01</leafValues></_><_><internalNodes>0 -1 54 5.2314E-04</internalNodes><leafValues>-3.6257E-01 4.6126E-01</leafValues></_><_><internalNodes>0 -1 206 2.1582E-03</internalNodes><leafValues>1.9110E-01 -6.8012E-01</leafValues></_><_><internalNodes>0 -1 192 -1.3210E-03</internalNodes><leafValues>6.7619E-01 -2.6087E-01</leafValues></_><_><internalNodes>0 -1 126 -1.2237E-02</internalNodes><leafValues>-5.7185E-01 3.0778E-01</leafValues></_><_><internalNodes>0 -1 36 8.7829E-03</internalNodes><leafValues>1.6891E-01 -7.8836E-01</leafValues></_><_><internalNodes>0 -1 183 7.5588E-03</internalNodes><leafValues>1.5144E-01 -8.2573E-01</leafValues></_></weakClassifiers></_></stages><features><_><rects><_>0 0 10 10 -1.</_><_>0 0 5 5 2.</_><_>5 5 5 5 2.</_></rects><tilted>0</tilted></_><_><rects><_>0 0 12 16 -1.</_><_>6 0 6 16 2.</_></rects><tilted>0</tilted></_><_><rects><_>0 3 10 6 -1.</_><_>5 3 5 6 2.</_></rects><tilted>0</tilted></_><_><rects><_>0 3 21 16 -1.</_><_>7 3 7 16 3.</_></rects><tilted>0</tilted></_><_><rects><_>0 4 16 9 -1.</_><_>4 4 8 9 2.</_></rects><tilted>0</tilted></_><_><rects><_>0 4 10 12 -1.</_><_>5 4 5 12 2.</_></rects><tilted>0</tilted></_><_><rects><_>0 7 14 7 -1.</_><_>7 7 7 7 2.</_></rects><tilted>0</tilted></_><_><rects><_>0 9 12 7 -1.</_><_>6 9 6 7 2.</_></rects><tilted>0</tilted></_><_><rects><_>0 9 60 3 -1.</_><_>30 9 30 3 2.</_></rects><tilted>0</tilted></_><_><rects><_>0 10 8 3 -1.</_><_>4 10 4 3 2.</_></rects><tilted>0</tilted></_><_><rects><_>0 11 1 2 -1.</_><_>0 12 1 1 2.</_></rects><tilted>0</tilted></_><_><rects><_>1 0 51 12 -1.</_><_>1 4 51 4 3.</_></rects><tilted>0</tilted></_><_><rects><_>1 3 15 7 -1.</_><_>6 3 5 7 3.</_></rects><tilted>0</tilted></_><_><rects><_>1 7 30 6 -1.</_><_>1 7 15 3 2.</_><_>16 10 15 3 2.</_></rects><tilted>0</tilted></_><_><rects><_>1 12 1 2 -1.</_><_>1 13 1 1 2.</_></rects><tilted>0</tilted></_><_><rects><_>2 2 18 16 -1.</_><_>2 6 18 8 2.</_></rects><tilted>0</tilted></_><_><rects><_>2 3 29 4 -1.</_><_>2 5 29 2 2.</_></rects><tilted>0</tilted></_><_><rects><_>2 9 1 2 -1.</_><_>2 10 1 1 2.</_></rects><tilted>0</tilted></_><_><rects><_>2 14 40 6 -1.</_><_>2 17 40 3 2.</_></rects><tilted>0</tilted></_><_><rects><_>3 0 22 6 -1.</_><_>3 2 22 2 3.</_></rects><tilted>0</tilted></_><_><rects><_>3 2 38 2 -1.</_><_>3 2 19 1 2.</_><_>22 3 19 1 2.</_></rects><tilted>0</tilted></_><_><rects><_>3 4 51 16 -1.</_><_>3 8 51 8 2.</_></rects><tilted>0</tilted></_><_><rects><_>3 7 3 8 -1.</_><_>4 7 1 8 3.</_></rects><tilted>0</tilted></_><_><rects><_>3 9 1 3 -1.</_><_>3 10 1 1 3.</_></rects><tilted>0</tilted></_><_><rects><_>4 8 3 5 -1.</_><_>5 8 1 5 3.</_></rects><tilted>0</tilted></_><_><rects><_>4 8 4 9 -1.</_><_>5 8 2 9 2.</_></rects><tilted>0</tilted></_><_><rects><_>4 11 36 9 -1.</_><_>16 11 12 9 3.</_></rects><tilted>0</tilted></_><_><rects><_>4 14 49 6 -1.</_><_>4 17 49 3 2.</_></rects><tilted>0</tilted></_><_><rects><_>5 0 17 6 -1.</_><_>5 2 17 2 3.</_></rects><tilted>0</tilted></_><_><rects><_>5 1 3 1 -1.</_><_>6 1 1 1 3.</_></rects><tilted>0</tilted></_><_><rects><_>5 1 8 2 -1.</_><_>7 1 4 2 2.</_></rects><tilted>0</tilted></_><_><rects><_>5 2 36 9 -1.</_><_>17 2 12 9 3.</_></rects><tilted>0</tilted></_><_><rects><_>5 3 33 17 -1.</_><_>16 3 11 17 3.</_></rects><tilted>0</tilted></_><_><rects><_>6 0 30 19 -1.</_><_>16 0 10 19 3.</_></rects><tilted>0</tilted></_><_><rects><_>6 3 29 4 -1.</_><_>6 5 29 2 2.</_></rects><tilted>0</tilted></_><_><rects><_>6 4 16 16 -1.</_><_>14 4 8 16 2.</_></rects><tilted>0</tilted></_><_><rects><_>6 9 54 1 -1.</_><_>33 9 27 1 2.</_></rects><tilted>0</tilted></_><_><rects><_>7 0 4 18 -1.</_><_>8 0 2 18 2.</_></rects><tilted>0</tilted></_><_><rects><_>7 3 12 15 -1.</_><_>13 3 6 15 2.</_></rects><tilted>0</tilted></_><_><rects><_>7 4 20 5 -1.</_><_>12 4 10 5 2.</_></rects><tilted>0</tilted></_><_><rects><_>7 4 6 3 -1.</_><_>7 5 6 1 3.</_></rects><tilted>0</tilted></_><_><rects><_>7 4 36 6 -1.</_><_>19 4 12 6 3.</_></rects><tilted>0</tilted></_><_><rects><_>7 5 28 4 -1.</_><_>14 5 14 4 2.</_></rects><tilted>0</tilted></_><_><rects><_>7 7 4 11 -1.</_><_>8 7 2 11 2.</_></rects><tilted>0</tilted></_><_><rects><_>7 9 12 7 -1.</_><_>13 9 6 7 2.</_></rects><tilted>0</tilted></_><_><rects><_>8 1 21 4 -1.</_><_>8 3 21 2 2.</_></rects><tilted>0</tilted></_><_><rects><_>8 4 28 6 -1.</_><_>15 4 14 6 2.</_></rects><tilted>0</tilted></_><_><rects><_>8 8 38 6 -1.</_><_>8 10 38 2 3.</_></rects><tilted>0</tilted></_><_><rects><_>8 14 25 4 -1.</_><_>8 15 25 2 2.</_></rects><tilted>0</tilted></_><_><rects><_>9 2 12 4 -1.</_><_>12 2 6 4 2.</_></rects><tilted>0</tilted></_><_><rects><_>9 5 24 3 -1.</_><_>15 5 12 3 2.</_></rects><tilted>0</tilted></_><_><rects><_>9 8 40 12 -1.</_><_>9 12 40 4 3.</_></rects><tilted>0</tilted></_><_><rects><_>10 2 8 2 -1.</_><_>12 2 4 2 2.</_></rects><tilted>0</tilted></_><_><rects><_>10 2 9 2 -1.</_><_>13 2 3 2 3.</_></rects><tilted>0</tilted></_><_><rects><_>10 5 3 3 -1.</_><_>11 6 1 1 9.</_></rects><tilted>0</tilted></_><_><rects><_>11 0 32 20 -1.</_><_>19 0 16 20 2.</_></rects><tilted>0</tilted></_><_><rects><_>11 3 1 4 -1.</_><_>11 5 1 2 2.</_></rects><tilted>0</tilted></_><_><rects><_>11 9 4 3 -1.</_><_>12 9 2 3 2.</_></rects><tilted>0</tilted></_><_><rects><_>11 9 3 7 -1.</_><_>12 9 1 7 3.</_></rects><tilted>0</tilted></_><_><rects><_>12 3 9 2 -1.</_><_>15 3 3 2 3.</_></rects><tilted>0</tilted></_><_><rects><_>12 6 6 6 -1.</_><_>14 6 2 6 3.</_></rects><tilted>0</tilted></_><_><rects><_>12 10 42 10 -1.</_><_>26 10 14 10 3.</_></rects><tilted>0</tilted></_><_><rects><_>12 14 11 3 -1.</_><_>12 15 11 1 3.</_></rects><tilted>0</tilted></_><_><rects><_>13 4 6 14 -1.</_><_>15 4 2 14 3.</_></rects><tilted>0</tilted></_><_><rects><_>13 8 3 6 -1.</_><_>14 8 1 6 3.</_></rects><tilted>0</tilted></_><_><rects><_>13 11 32 2 -1.</_><_>21 11 16 2 2.</_></rects><tilted>0</tilted></_><_><rects><_>13 13 25 6 -1.</_><_>13 16 25 3 2.</_></rects><tilted>0</tilted></_><_><rects><_>13 16 21 3 -1.</_><_>20 16 7 3 3.</_></rects><tilted>0</tilted></_><_><rects><_>14 2 3 2 -1.</_><_>15 2 1 2 3.</_></rects><tilted>0</tilted></_><_><rects><_>14 2 24 8 -1.</_><_>20 2 12 8 2.</_></rects><tilted>0</tilted></_><_><rects><_>14 13 36 6 -1.</_><_>23 13 18 6 2.</_></rects><tilted>0</tilted></_><_><rects><_>14 14 8 3 -1.</_><_>14 15 8 1 3.</_></rects><tilted>0</tilted></_><_><rects><_>14 14 45 6 -1.</_><_>14 17 45 3 2.</_></rects><tilted>0</tilted></_><_><rects><_>14 18 9 2 -1.</_><_>17 18 3 2 3.</_></rects><tilted>0</tilted></_><_><rects><_>15 9 4 1 -1.</_><_>16 9 2 1 2.</_></rects><tilted>0</tilted></_><_><rects><_>15 10 19 4 -1.</_><_>15 12 19 2 2.</_></rects><tilted>0</tilted></_><_><rects><_>16 0 28 8 -1.</_><_>16 2 28 4 2.</_></rects><tilted>0</tilted></_><_><rects><_>16 2 36 18 -1.</_><_>28 2 12 18 3.</_></rects><tilted>0</tilted></_><_><rects><_>16 6 24 6 -1.</_><_>22 6 12 6 2.</_></rects><tilted>0</tilted></_><_><rects><_>17 1 24 6 -1.</_><_>17 3 24 2 3.</_></rects><tilted>0</tilted></_><_><rects><_>17 3 15 12 -1.</_><_>22 7 5 4 9.</_></rects><tilted>0</tilted></_><_><rects><_>17 15 11 3 -1.</_><_>17 16 11 1 3.</_></rects><tilted>0</tilted></_><_><rects><_>18 5 6 10 -1.</_><_>20 5 2 10 3.</_></rects><tilted>0</tilted></_><_><rects><_>18 6 18 3 -1.</_><_>24 6 6 3 3.</_></rects><tilted>0</tilted></_><_><rects><_>18 11 3 1 -1.</_><_>19 11 1 1 3.</_></rects><tilted>0</tilted></_><_><rects><_>19 6 32 2 -1.</_><_>27 6 16 2 2.</_></rects><tilted>0</tilted></_><_><rects><_>19 8 3 1 -1.</_><_>20 8 1 1 3.</_></rects><tilted>0</tilted></_><_><rects><_>19 9 14 11 -1.</_><_>26 9 7 11 2.</_></rects><tilted>0</tilted></_><_><rects><_>19 10 3 3 -1.</_><_>20 10 1 3 3.</_></rects><tilted>0</tilted></_><_><rects><_>19 13 7 3 -1.</_><_>19 14 7 1 3.</_></rects><tilted>0</tilted></_><_><rects><_>19 14 13 3 -1.</_><_>19 15 13 1 3.</_></rects><tilted>0</tilted></_><_><rects><_>20 0 15 20 -1.</_><_>25 0 5 20 3.</_></rects><tilted>0</tilted></_><_><rects><_>20 9 3 1 -1.</_><_>21 9 1 1 3.</_></rects><tilted>0</tilted></_><_><rects><_>20 10 3 2 -1.</_><_>21 10 1 2 3.</_></rects><tilted>0</tilted></_><_><rects><_>21 1 21 6 -1.</_><_>21 3 21 2 3.</_></rects><tilted>0</tilted></_><_><rects><_>21 8 4 3 -1.</_><_>22 8 2 3 2.</_></rects><tilted>0</tilted></_><_><rects><_>21 9 3 4 -1.</_><_>22 9 1 4 3.</_></rects><tilted>0</tilted></_><_><rects><_>21 10 4 2 -1.</_><_>22 10 2 2 2.</_></rects><tilted>0</tilted></_><_><rects><_>21 11 24 2 -1.</_><_>27 11 12 2 2.</_></rects><tilted>0</tilted></_><_><rects><_>21 18 4 1 -1.</_><_>22 18 2 1 2.</_></rects><tilted>0</tilted></_><_><rects><_>22 3 4 1 -1.</_><_>23 3 2 1 2.</_></rects><tilted>0</tilted></_><_><rects><_>22 6 2 6 -1.</_><_>22 6 1 3 2.</_><_>23 9 1 3 2.</_></rects><tilted>0</tilted></_><_><rects><_>22 7 3 3 -1.</_><_>23 8 1 1 9.</_></rects><tilted>0</tilted></_><_><rects><_>22 8 3 5 -1.</_><_>23 8 1 5 3.</_></rects><tilted>0</tilted></_><_><rects><_>22 9 3 2 -1.</_><_>23 9 1 2 3.</_></rects><tilted>0</tilted></_><_><rects><_>23 8 3 3 -1.</_><_>24 8 1 3 3.</_></rects><tilted>0</tilted></_><_><rects><_>23 10 3 2 -1.</_><_>24 10 1 2 3.</_></rects><tilted>0</tilted></_><_><rects><_>24 3 20 17 -1.</_><_>29 3 10 17 2.</_></rects><tilted>0</tilted></_><_><rects><_>24 4 14 6 -1.</_><_>31 4 7 6 2.</_></rects><tilted>0</tilted></_><_><rects><_>24 18 9 2 -1.</_><_>27 18 3 2 3.</_></rects><tilted>0</tilted></_><_><rects><_>25 5 8 4 -1.</_><_>25 5 4 4 2.</_></rects><tilted>1</tilted></_><_><rects><_>25 6 22 14 -1.</_><_>36 6 11 14 2.</_></rects><tilted>0</tilted></_><_><rects><_>25 12 28 8 -1.</_><_>25 14 28 4 2.</_></rects><tilted>0</tilted></_><_><rects><_>25 14 9 3 -1.</_><_>25 15 9 1 3.</_></rects><tilted>0</tilted></_><_><rects><_>26 2 27 18 -1.</_><_>35 2 9 18 3.</_></rects><tilted>0</tilted></_><_><rects><_>26 3 22 3 -1.</_><_>26 4 22 1 3.</_></rects><tilted>0</tilted></_><_><rects><_>26 4 8 4 -1.</_><_>30 4 4 4 2.</_></rects><tilted>0</tilted></_><_><rects><_>26 4 20 6 -1.</_><_>31 4 10 6 2.</_></rects><tilted>0</tilted></_><_><rects><_>26 7 1 12 -1.</_><_>22 11 1 4 3.</_></rects><tilted>1</tilted></_><_><rects><_>26 9 3 3 -1.</_><_>27 9 1 3 3.</_></rects><tilted>0</tilted></_><_><rects><_>26 13 9 3 -1.</_><_>26 14 9 1 3.</_></rects><tilted>0</tilted></_><_><rects><_>27 3 15 6 -1.</_><_>32 3 5 6 3.</_></rects><tilted>0</tilted></_><_><rects><_>27 9 3 1 -1.</_><_>28 9 1 1 3.</_></rects><tilted>0</tilted></_><_><rects><_>27 9 3 2 -1.</_><_>28 9 1 2 3.</_></rects><tilted>0</tilted></_><_><rects><_>27 10 3 3 -1.</_><_>28 10 1 3 3.</_></rects><tilted>0</tilted></_><_><rects><_>27 11 3 2 -1.</_><_>28 11 1 2 3.</_></rects><tilted>0</tilted></_><_><rects><_>28 2 10 4 -1.</_><_>28 2 10 2 2.</_></rects><tilted>1</tilted></_><_><rects><_>28 8 32 6 -1.</_><_>28 10 32 2 3.</_></rects><tilted>0</tilted></_><_><rects><_>28 10 3 1 -1.</_><_>29 10 1 1 3.</_></rects><tilted>0</tilted></_><_><rects><_>28 11 3 1 -1.</_><_>29 11 1 1 3.</_></rects><tilted>0</tilted></_><_><rects><_>28 15 5 4 -1.</_><_>28 16 5 2 2.</_></rects><tilted>0</tilted></_><_><rects><_>28 16 23 4 -1.</_><_>28 17 23 2 2.</_></rects><tilted>0</tilted></_><_><rects><_>28 19 6 1 -1.</_><_>30 19 2 1 3.</_></rects><tilted>0</tilted></_><_><rects><_>29 3 9 4 -1.</_><_>32 3 3 4 3.</_></rects><tilted>0</tilted></_><_><rects><_>29 5 9 1 -1.</_><_>32 5 3 1 3.</_></rects><tilted>0</tilted></_><_><rects><_>29 8 3 6 -1.</_><_>30 8 1 6 3.</_></rects><tilted>0</tilted></_><_><rects><_>29 9 3 1 -1.</_><_>30 9 1 1 3.</_></rects><tilted>0</tilted></_><_><rects><_>29 11 10 4 -1.</_><_>29 13 10 2 2.</_></rects><tilted>0</tilted></_><_><rects><_>29 11 26 8 -1.</_><_>29 13 26 4 2.</_></rects><tilted>0</tilted></_><_><rects><_>30 0 16 6 -1.</_><_>30 3 16 3 2.</_></rects><tilted>0</tilted></_><_><rects><_>30 2 30 6 -1.</_><_>30 2 15 3 2.</_><_>45 5 15 3 2.</_></rects><tilted>0</tilted></_><_><rects><_>30 3 9 4 -1.</_><_>33 3 3 4 3.</_></rects><tilted>0</tilted></_><_><rects><_>30 5 9 4 -1.</_><_>30 6 9 2 2.</_></rects><tilted>0</tilted></_><_><rects><_>30 10 3 2 -1.</_><_>31 10 1 2 3.</_></rects><tilted>0</tilted></_><_><rects><_>30 14 18 6 -1.</_><_>36 14 6 6 3.</_></rects><tilted>0</tilted></_><_><rects><_>31 3 4 3 -1.</_><_>32 3 2 3 2.</_></rects><tilted>0</tilted></_><_><rects><_>31 7 4 9 -1.</_><_>32 7 2 9 2.</_></rects><tilted>0</tilted></_><_><rects><_>31 11 3 2 -1.</_><_>32 11 1 2 3.</_></rects><tilted>0</tilted></_><_><rects><_>31 11 3 3 -1.</_><_>32 11 1 3 3.</_></rects><tilted>0</tilted></_><_><rects><_>32 4 3 2 -1.</_><_>33 4 1 2 3.</_></rects><tilted>0</tilted></_><_><rects><_>32 6 18 6 -1.</_><_>32 6 9 3 2.</_><_>41 9 9 3 2.</_></rects><tilted>0</tilted></_><_><rects><_>33 1 22 6 -1.</_><_>33 4 22 3 2.</_></rects><tilted>0</tilted></_><_><rects><_>33 3 4 2 -1.</_><_>34 3 2 2 2.</_></rects><tilted>0</tilted></_><_><rects><_>33 3 4 4 -1.</_><_>34 3 2 4 2.</_></rects><tilted>0</tilted></_><_><rects><_>33 5 4 1 -1.</_><_>34 5 2 1 2.</_></rects><tilted>0</tilted></_><_><rects><_>33 9 3 6 -1.</_><_>34 9 1 6 3.</_></rects><tilted>0</tilted></_><_><rects><_>33 10 3 3 -1.</_><_>34 10 1 3 3.</_></rects><tilted>0</tilted></_><_><rects><_>34 8 4 7 -1.</_><_>35 8 2 7 2.</_></rects><tilted>0</tilted></_><_><rects><_>34 9 3 5 -1.</_><_>35 9 1 5 3.</_></rects><tilted>0</tilted></_><_><rects><_>34 18 9 2 -1.</_><_>37 18 3 2 3.</_></rects><tilted>0</tilted></_><_><rects><_>35 0 8 6 -1.</_><_>37 0 4 6 2.</_></rects><tilted>0</tilted></_><_><rects><_>35 9 3 2 -1.</_><_>36 9 1 2 3.</_></rects><tilted>0</tilted></_><_><rects><_>36 9 24 9 -1.</_><_>42 9 12 9 2.</_></rects><tilted>0</tilted></_><_><rects><_>37 1 16 18 -1.</_><_>41 1 8 18 2.</_></rects><tilted>0</tilted></_><_><rects><_>37 11 20 8 -1.</_><_>42 11 10 8 2.</_></rects><tilted>0</tilted></_><_><rects><_>38 8 15 12 -1.</_><_>38 12 15 4 3.</_></rects><tilted>0</tilted></_><_><rects><_>39 6 12 8 -1.</_><_>45 6 6 8 2.</_></rects><tilted>0</tilted></_><_><rects><_>40 8 8 4 -1.</_><_>40 8 8 2 2.</_></rects><tilted>1</tilted></_><_><rects><_>40 10 3 1 -1.</_><_>41 10 1 1 3.</_></rects><tilted>0</tilted></_><_><rects><_>40 10 3 5 -1.</_><_>41 10 1 5 3.</_></rects><tilted>0</tilted></_><_><rects><_>40 13 12 6 -1.</_><_>43 13 6 6 2.</_></rects><tilted>0</tilted></_><_><rects><_>41 5 7 15 -1.</_><_>41 10 7 5 3.</_></rects><tilted>0</tilted></_><_><rects><_>41 6 12 6 -1.</_><_>45 6 4 6 3.</_></rects><tilted>0</tilted></_><_><rects><_>41 7 12 7 -1.</_><_>45 7 4 7 3.</_></rects><tilted>0</tilted></_><_><rects><_>41 8 12 12 -1.</_><_>45 8 4 12 3.</_></rects><tilted>0</tilted></_><_><rects><_>41 9 3 6 -1.</_><_>42 9 1 6 3.</_></rects><tilted>0</tilted></_><_><rects><_>42 2 3 13 -1.</_><_>43 2 1 13 3.</_></rects><tilted>0</tilted></_><_><rects><_>42 4 18 10 -1.</_><_>42 4 9 5 2.</_><_>51 9 9 5 2.</_></rects><tilted>0</tilted></_><_><rects><_>42 5 18 8 -1.</_><_>42 5 9 4 2.</_><_>51 9 9 4 2.</_></rects><tilted>0</tilted></_><_><rects><_>42 7 2 7 -1.</_><_>43 7 1 7 2.</_></rects><tilted>0</tilted></_><_><rects><_>42 14 12 5 -1.</_><_>46 14 4 5 3.</_></rects><tilted>0</tilted></_><_><rects><_>43 1 10 9 -1.</_><_>40 4 10 3 3.</_></rects><tilted>1</tilted></_><_><rects><_>43 6 6 6 -1.</_><_>43 9 6 3 2.</_></rects><tilted>0</tilted></_><_><rects><_>44 0 8 20 -1.</_><_>46 0 4 20 2.</_></rects><tilted>0</tilted></_><_><rects><_>44 2 16 12 -1.</_><_>44 2 8 6 2.</_><_>52 8 8 6 2.</_></rects><tilted>0</tilted></_><_><rects><_>44 5 3 8 -1.</_><_>45 5 1 8 3.</_></rects><tilted>0</tilted></_><_><rects><_>44 8 3 4 -1.</_><_>45 8 1 4 3.</_></rects><tilted>0</tilted></_><_><rects><_>44 12 16 4 -1.</_><_>52 12 8 4 2.</_></rects><tilted>0</tilted></_><_><rects><_>44 13 10 3 -1.</_><_>49 13 5 3 2.</_></rects><tilted>0</tilted></_><_><rects><_>45 19 9 1 -1.</_><_>48 19 3 1 3.</_></rects><tilted>0</tilted></_><_><rects><_>46 3 8 8 -1.</_><_>50 3 4 8 2.</_></rects><tilted>0</tilted></_><_><rects><_>47 12 10 6 -1.</_><_>52 12 5 6 2.</_></rects><tilted>0</tilted></_><_><rects><_>48 0 4 13 -1.</_><_>49 0 2 13 2.</_></rects><tilted>0</tilted></_><_><rects><_>48 5 3 12 -1.</_><_>45 8 3 6 2.</_></rects><tilted>1</tilted></_><_><rects><_>48 9 12 8 -1.</_><_>54 9 6 8 2.</_></rects><tilted>0</tilted></_><_><rects><_>48 13 12 4 -1.</_><_>54 13 6 4 2.</_></rects><tilted>0</tilted></_><_><rects><_>49 8 3 1 -1.</_><_>50 8 1 1 3.</_></rects><tilted>0</tilted></_><_><rects><_>49 8 3 2 -1.</_><_>50 8 1 2 3.</_></rects><tilted>0</tilted></_><_><rects><_>49 8 3 3 -1.</_><_>50 8 1 3 3.</_></rects><tilted>0</tilted></_><_><rects><_>50 9 3 3 -1.</_><_>51 10 1 1 9.</_></rects><tilted>0</tilted></_><_><rects><_>51 8 3 3 -1.</_><_>52 8 1 3 3.</_></rects><tilted>0</tilted></_><_><rects><_>52 6 6 10 -1.</_><_>54 6 2 10 3.</_></rects><tilted>0</tilted></_><_><rects><_>52 7 8 7 -1.</_><_>56 7 4 7 2.</_></rects><tilted>0</tilted></_><_><rects><_>52 8 8 4 -1.</_><_>52 8 8 2 2.</_></rects><tilted>1</tilted></_><_><rects><_>54 3 6 15 -1.</_><_>57 3 3 15 2.</_></rects><tilted>0</tilted></_><_><rects><_>54 8 6 7 -1.</_><_>57 8 3 7 2.</_></rects><tilted>0</tilted></_><_><rects><_>57 11 3 6 -1.</_><_>57 13 3 2 3.</_></rects><tilted>0</tilted></_><_><rects><_>59 8 1 3 -1.</_><_>59 9 1 1 3.</_></rects><tilted>0</tilted></_></features></cascade></opencv_storage>